svm_type nu_svr
kernel_type rbf
gamma 955.877
nr_class 2
total_sv 2432
rho -9601.81
SV
19.1277 1:-1 2:-1 3:0.123419 4:-1 5:-1 6:0.0865963 7:0.0132933 8:0.438224 9:0.153819 10:-1 11:-1 12:0.193819 13:0.120791 14:-0.163455 15:0.452119 16:0.142033 17:-0.320801 18:0.480673 19:0.186599 20:0.0547321 21:0.470398 22:0.264246 23:-0.0766107 24:0.295735 
19.1277 1:-1 2:-1 3:-0.0820163 4:-1 5:-1 6:-0.067871 7:0.0337518 8:-0.340703 9:0.503736 10:-1 11:-1 12:-0.0333941 13:0.189751 14:-0.107069 15:0.0758648 16:0.142991 17:-0.28088 18:0.336082 19:0.276049 20:-0.102745 21:0.515282 22:0.0241769 23:-0.0236689 24:0.170887 
19.1277 1:-1 2:-1 3:0.475726 4:-1 5:-1 6:0.239399 7:0.360675 8:-0.100686 9:0.811874 10:-1 11:-1 12:-0.188384 13:0.239988 14:-0.0168468 15:-0.0339594 16:0.358183 17:-0.194966 18:0.470437 19:0.311859 20:0.333452 21:0.523319 22:0.0678388 23:-0.022383 24:0.127226 
19.1277 1:-1 2:-1 3:-0.0317818 4:-1 5:-1 6:0.338408 7:0.129634 8:-0.459773 9:0.872446 10:-1 11:-1 12:0.159844 13:0.390371 14:0.0151359 15:0.268499 16:0.401492 17:-0.16532 18:0.431333 19:0.407158 20:-0.10754 21:0.779055 22:0.184908 23:-0.0166306 24:0.201167 
19.1277 1:-1 2:-1 3:-0.174476 4:-1 5:-1 6:0.0735475 7:0.45293 8:-0.351829 9:1 10:-1 11:-1 12:-0.176502 13:0.646707 14:0.00207787 15:0.237222 16:0.0607881 17:-0.221899 18:0.301378 19:0.386638 20:-0.0818354 21:0.767858 22:0.321425 23:0.0664989 24:0.194258 
19.1277 1:-1 2:-1 3:0.256943 4:-1 5:-1 6:0.286215 7:-0.0548065 8:-0.31974 9:0.0467325 10:-1 11:-1 12:-0.574735 13:0.32616 14:-0.201794 15:-0.00305404 16:-0.122726 17:-0.43875 18:0.234343 19:0.0125435 20:-0.176007 21:0.392846 22:-0.144946 23:-0.219345 24:-0.113899 
19.1277 1:-1 2:-1 3:-0.194466 4:-1 5:-1 6:0.084244 7:0.125076 8:-0.60146 9:0.0388884 10:-1 11:-1 12:-0.0851365 13:0.382089 14:-0.169067 15:0.262262 16:-0.115947 17:-0.383738 18:0.146238 19:0.103539 20:-0.400918 21:0.324536 22:-0.158802 23:-0.174352 24:-0.0356697 
19.1277 1:-1 2:-1 3:0.0679814 4:-1 5:-1 6:0.320265 7:0.142318 8:0.544185 9:0.0683335 10:-1 11:-1 12:-0.0952843 13:0.287884 14:-0.210737 15:0.0538766 16:-0.109866 17:-0.451672 18:0.290094 19:0.0186914 20:0.0762427 21:0.345467 22:-0.0978459 23:-0.14614 24:-0.0393688 
19.1277 1:-0.400232 2:-0.975113 3:-0.0302425 4:-0.960186 5:-0.980437 6:0.529494 7:-0.236831 8:0.224496 9:-0.124398 10:-0.663446 11:-0.998463 12:-0.27573 13:-0.122495 14:-0.444424 15:0.0742807 16:-0.327464 17:-0.544 18:0.131184 19:-0.182185 20:-0.242123 21:-0.00729623 22:-0.242078 23:-0.277769 24:-0.120855 
19.1277 1:-1 2:-1 3:-0.19553 4:-1 5:-1 6:-0.011966 7:0.0322607 8:0.46149 9:0.166016 10:-0.800139 11:-0.304874 12:-0.170412 13:0.159813 14:-0.061566 15:0.444499 16:0.137058 17:-0.254701 18:0.68363 19:0.17895 20:0.191866 21:0.57661 22:0.235569 23:-0.0461796 24:0.236942 
19.1277 1:-1 2:-1 3:0.0945714 4:-1 5:-1 6:0.472408 7:0.0691702 8:-0.176204 9:0.264059 10:-1 11:-0.696987 12:-0.0642521 13:0.300337 14:0.0824018 15:0.192021 16:0.36024 17:-0.196629 18:0.579458 19:0.40261 20:0.00926453 21:0.539529 22:0.245419 23:0.035573 24:0.252621 
19.1277 1:-1 2:-1 3:0.393776 4:-1 5:-1 6:0.198301 7:0.231364 8:-0.165127 9:0.653288 10:-1 11:-1 12:0.197853 13:0.36083 14:0.0589251 15:-0.0369426 16:0.327436 17:-0.19539 18:0.529799 19:0.260044 20:0.184255 21:0.444062 22:0.130014 23:0.0732216 24:0.368486 
19.1277 1:-1 2:-1 3:0.17711 4:-1 5:-1 6:0.289224 7:0.0985967 8:-0.344682 9:0.655131 10:-1 11:-1 12:-0.0789323 13:0.255215 14:0.00701514 15:-0.0924808 16:0.257377 17:-0.250306 18:0.552371 19:0.127529 20:0.0169975 21:0.466058 22:0.197614 23:0.047281 24:0.196737 
19.1277 1:-1 2:-1 3:0.0647841 4:-1 5:-1 6:0.458694 7:-0.0937054 8:-0.58381 9:0.753072 10:-1 11:-1 12:-0.347118 13:0.252669 14:0.0220223 15:0.189365 16:0.3954 17:-0.116518 18:0.617269 19:0.279072 20:-0.022388 21:0.537175 22:0.123294 23:-0.113297 24:0.115501 
19.1277 1:-1 2:-1 3:0.00902666 4:-1 5:-1 6:0.690598 7:-0.15065 8:-0.389192 9:0.94444 10:-1 11:-1 12:-0.122765 13:0.388232 14:-0.0442191 15:0.0783208 16:0.0700513 17:-0.220477 18:0.505156 19:0.215117 20:-0.124521 21:0.615672 22:0.0859289 23:-0.0531392 24:0.114656 
19.1277 1:-1 2:-1 3:0.537056 4:-1 5:-1 6:0.432747 7:-0.0317222 8:0.183044 9:0.559228 10:-1 11:-1 12:0.265346 13:0.504968 14:-0.0358064 15:0.128814 16:0.0455202 17:-0.317284 18:0.572787 19:0.0845186 20:0.224941 21:0.372862 22:0.162908 23:-0.0112974 24:0.199176 
19.1277 1:-1 2:-1 3:0.349157 4:-1 5:-1 6:0.294276 7:-0.122423 8:0.109356 9:0.024077 10:-1 11:-1 12:0.183278 13:0.131697 14:-0.0971924 15:0.152256 16:0.0300449 17:-0.376572 18:0.418116 19:-0.0179794 20:0.127335 21:0.227019 22:0.000491368 23:-0.136489 24:0.113137 
-19.1277 1:-0.803128 2:-0.979217 3:-0.0609226 4:-0.916476 5:-0.997213 6:-0.24495 7:-0.809517 8:-0.0668613 9:-0.293323 10:-1 11:-0.635916 12:-0.484797 13:-0.621034 14:-0.530048 15:-0.0942596 16:-0.506992 17:-0.652268 18:0.0976496 19:-0.656484 20:-0.439547 21:-0.693871 22:-0.466121 23:-0.441673 24:-0.159185 
19.1277 1:-1 2:-0.963458 3:0.437372 4:-1 5:-1 6:0.373908 7:-0.0143243 8:0.71092 9:0.0213535 10:-1 11:-1 12:-0.156014 13:0.0169197 14:-0.30609 15:0.17038 16:0.00798241 17:-0.411567 18:0.372284 19:-0.0473112 20:0.0805825 21:0.0851871 22:-0.131472 23:-0.134045 24:-0.118312 
19.1277 1:-1 2:-1 3:0.616309 4:-1 5:-1 6:0.19957 7:-0.0729797 8:0.0257839 9:0.674397 10:-1 11:-1 12:0.540033 13:0.347758 14:0.0966869 15:0.107316 16:0.216255 17:-0.172671 18:0.731253 19:0.204555 20:0.472773 21:0.485386 22:0.232592 23:0.288742 24:0.61129 
19.1277 1:-1 2:-1 3:-0.256843 4:-1 5:-1 6:0.214556 7:-0.270417 8:-0.521609 9:0.726096 10:-1 11:-1 12:0.2234 13:0.230613 14:-0.22674 15:-0.0151157 16:-0.0545366 17:-0.339324 18:0.394213 19:0.0408171 20:-0.27454 21:0.544131 22:-0.0550777 23:-0.143752 24:0.100289 
19.1277 1:-1 2:-1 3:-0.180255 4:-1 5:-0.997265 6:0.239905 7:-0.197416 8:-0.563338 9:0.667893 10:-1 11:-1 12:-0.249399 13:0.377832 14:-0.245972 15:0.246969 16:-0.0920418 17:-0.375509 18:0.290298 19:0.0170683 20:-0.395015 21:0.547978 22:-0.0158915 23:-0.14535 24:0.127216 
19.1277 1:-1 2:-1 3:-0.201553 4:-1 5:-1 6:0.405218 7:-0.179119 8:-0.440256 9:0.717783 10:-1 11:-1 12:-0.299795 13:0.333419 14:-0.249637 15:0.223103 16:-0.111071 17:-0.411591 18:0.371792 19:-0.062155 20:-0.249356 21:0.453031 22:-0.0290319 23:-0.188693 24:0.0849464 
-19.1277 1:-0.5978 2:-0.967305 3:-0.387582 4:-0.727332 5:-0.994098 6:-0.587727 7:-0.798874 8:-0.426721 9:-0.41383 10:-0.594826 11:-0.883324 12:-0.659852 13:-0.685209 14:-0.692458 15:-0.592968 16:-0.588061 17:-0.767973 18:-0.388179 19:-0.730067 20:-0.675593 21:-0.584881 22:-0.664614 23:-0.718393 24:-0.698069 
-19.1277 1:-0.544096 2:-0.977842 3:-0.24974 4:-0.67923 5:-0.996637 6:-0.528946 7:-0.8142 8:-0.306061 9:-0.41531 10:-0.416578 11:-0.78392 12:-0.619733 13:-0.684309 14:-0.666192 15:-0.499647 16:-0.574935 17:-0.778048 18:-0.266463 19:-0.749285 20:-0.632266 21:-0.636204 22:-0.689858 23:-0.695978 24:-0.62125 
-19.1277 1:-0.498207 2:-0.981358 3:0.171526 4:-0.311462 5:-0.990101 6:0.12346 7:-0.502971 8:0.0121448 9:-0.10149 10:-0.675754 11:-0.990089 12:-0.443292 13:-0.426543 14:-0.35208 15:0.0101284 16:-0.294787 17:-0.504794 18:0.278206 19:-0.289276 20:0.0255223 21:-0.263246 22:-0.153825 23:-0.253235 24:-0.070758 
-19.1277 1:-1 2:-1 3:0.335384 4:-1 5:-1 6:0.367925 7:-0.564348 8:-0.0173151 9:0.249967 10:-1 11:-1 12:0.0564117 13:0.0732572 14:-0.237927 15:0.162393 16:-0.0654792 17:-0.45043 18:0.316547 19:-0.236024 20:-0.089033 21:0.0229062 22:0.025219 23:-0.131036 24:0.324415 
-19.1277 1:-0.642275 2:-0.987864 3:-0.0468581 4:-0.402032 5:-1 6:0.114285 7:-0.279768 8:0.537165 9:-0.0457187 10:-1 11:-1 12:0.0402125 13:-0.156865 14:-0.345266 15:0.0567259 16:-0.166272 17:-0.442575 18:0.405973 19:-0.0656527 20:0.262556 21:-0.110376 22:-0.0170366 23:-0.0796174 24:0.102841 
-19.1277 1:-0.891288 2:-1 3:-0.521697 4:-0.879575 5:-0.99689 6:-0.706923 7:-0.910976 8:-0.573665 9:-0.416982 10:-0.766615 11:-0.936659 12:-0.748516 13:-0.78724 14:-0.728328 15:-0.732023 16:-0.663167 17:-0.811555 18:-0.535724 19:-0.791516 20:-0.813083 21:-0.732277 22:-0.745287 23:-0.778503 24:-0.753868 
-19.1277 1:-0.749961 2:-0.992821 3:-0.257652 4:-0.835736 5:-1 6:-0.0766906 7:-0.790489 8:-0.121009 9:-0.391739 10:-0.987999 11:-0.170908 12:-0.394623 13:-0.691126 14:-0.709365 15:-0.020026 16:-0.660231 17:-0.796959 18:-0.012439 19:-0.690321 20:-0.267166 21:-0.755612 22:-0.66732 23:-0.381949 24:-0.1703 
-19.1277 1:-0.424428 2:-0.979742 3:-0.359345 4:-0.82262 5:-0.982482 6:-0.0920857 7:-0.756786 8:-0.396349 9:-0.462354 10:-0.668582 11:-0.816876 12:-0.383871 13:-0.710397 14:-0.728801 15:-0.0220341 16:-0.657497 17:-0.769263 18:-0.0036539 19:-0.677817 20:-0.579173 21:-0.710391 22:-0.659563 23:-0.678842 24:-0.13231 
-19.1277 1:-0.0204795 2:-0.995198 3:-0.117637 4:-0.776791 5:-0.991762 6:-0.0215537 7:-0.761504 8:-0.418246 9:-0.353914 10:-0.694543 11:-0.819608 12:-0.32853 13:-0.609478 14:-0.596713 15:-0.0059269 16:-0.516424 17:-0.67957 18:0.00581177 19:-0.594153 20:-0.598169 21:-0.630898 22:-0.486503 23:-0.552797 24:-0.110584 
-19.1277 1:-0.477822 2:-0.952325 3:-0.276816 4:-0.742184 5:-0.985563 6:0.131068 7:-0.842406 8:-0.299395 9:-0.255595 10:-0.411038 11:-0.969979 12:-0.298354 13:-0.611949 14:-0.588359 15:0.219265 16:-0.540484 17:-0.682015 18:0.0976623 19:-0.650724 20:-0.598809 21:-0.569105 22:-0.502543 23:-0.58765 24:0.0275533 
-19.1277 1:-0.824041 2:-0.99207 3:-0.0879407 4:-0.78437 5:-0.991072 6:-0.0868784 7:-0.917678 8:0.0323313 9:-0.23292 10:-0.677386 11:-0.987817 12:-0.282539 13:-0.685166 14:-0.703857 15:-0.120829 16:-0.651134 17:-0.794672 18:-0.00392927 19:-0.762015 20:-0.0547882 21:-0.668589 22:-0.677856 23:-0.690872 24:-0.143204 
-19.1277 1:-0.793723 2:-0.979169 3:-0.34845 4:-0.506581 5:-0.98852 6:-0.431573 7:-0.924223 8:-0.0497799 9:-0.346012 10:-0.784836 11:-1 12:-0.526975 13:-0.801053 14:-0.815682 15:-0.258792 16:-0.781465 17:-0.855836 18:0.199399 19:-0.837277 20:0.00794304 21:-0.752459 22:-0.77037 23:-0.792325 24:-0.191001 
-19.1277 1:-0.787716 2:-0.976576 3:-0.42452 4:-0.757053 5:-0.995021 6:-0.0916083 7:-0.940893 8:-0.45897 9:-0.375786 10:-0.649873 11:-0.969455 12:-0.55076 13:-0.791636 14:-0.833268 15:-0.0401947 16:-0.81341 17:-0.843635 18:0.0677425 19:-0.823159 20:-0.556455 21:-0.75435 22:-0.793487 23:-0.78393 24:-0.180338 
-19.1277 1:-0.740635 2:-0.986813 3:-0.147548 4:-0.662381 5:-0.982879 6:-0.107072 7:-0.944835 8:-0.284038 9:-0.38656 10:-1 11:-0.964041 12:-0.280101 13:-0.818575 14:-0.835701 15:-0.23562 16:-0.801651 17:-0.88088 18:-0.0616904 19:-0.842483 20:-0.124941 21:-0.782707 22:-0.806712 23:-0.825534 24:-0.148787 
-19.1277 1:-0.661087 2:-0.979595 3:-0.0708466 4:-0.973608 5:-1 6:-0.130482 7:-0.947452 8:-0.339163 9:-0.384752 10:-0.59812 11:-0.973369 12:-0.469881 13:-0.857984 14:-0.863833 15:-0.31194 16:-0.803917 17:-0.871131 18:-0.0372235 19:-0.867338 20:-0.463523 21:-0.821872 22:-0.818171 23:-0.816923 24:-0.278861 
19.1277 1:-0.458482 2:-0.961894 3:0.162758 4:-0.722314 5:-0.995198 6:0.405487 7:-0.173214 8:0.23591 9:-0.224049 10:-0.518082 11:-0.509691 12:-0.15129 13:-0.065175 14:-0.452969 15:0.0734947 16:-0.249412 17:-0.527129 18:0.192897 19:-0.120757 20:-0.0312043 21:0.411501 22:-0.0597075 23:-0.389558 24:-0.121623 
19.1277 1:-0.922692 2:-0.994336 3:-0.25518 4:-0.799463 5:-0.991788 6:0.370499 7:-0.243316 8:-0.144475 9:-0.311904 10:-0.454385 11:-0.784168 12:-0.300306 13:-0.111075 14:-0.446132 15:0.206669 16:-0.215597 17:-0.517544 18:0.24602 19:-0.0979768 20:-0.36731 21:0.301087 22:-0.0146878 23:-0.405096 24:-0.1834 
19.1277 1:-0.863531 2:-1 3:0.142872 4:-1 5:-1 6:0.49187 7:0.0917626 8:0.0733305 9:0.15276 10:-0.699654 11:-0.957077 12:-0.15447 13:0.189816 14:-0.129781 15:0.187309 16:0.101842 17:-0.36468 18:0.551409 19:0.235543 20:-0.24968 21:0.511057 22:0.116791 23:-0.121053 24:0.0867331 
19.1277 1:-1 2:-1 3:-0.0279572 4:-1 5:-1 6:0.459066 7:0.0797845 8:0.381262 9:-0.113391 10:-1 11:-0.434329 12:-0.0802339 13:-0.123397 14:-0.380833 15:0.105546 16:-0.266835 17:-0.518435 18:0.215623 19:-0.0531318 20:-0.0156135 21:0.189977 22:-0.289292 23:-0.336562 24:-0.0401312 
19.1277 1:-0.124105 2:-0.970771 3:0.394088 4:-0.725703 5:-0.991926 6:0.26177 7:0.158453 8:-0.00688695 9:0.0077741 10:-1 11:-0.674065 12:-0.232625 13:-0.128459 14:-0.399256 15:-0.101347 16:-0.248979 17:-0.54978 18:0.15917 19:-0.0996147 20:-0.406593 21:-0.0250975 22:-0.246724 23:-0.311767 24:-0.132858 
19.1277 1:-0.548593 2:-0.992125 3:0.23098 4:-0.851082 5:-0.988649 6:0.281119 7:0.129142 8:-0.0373428 9:0.0664392 10:-1 11:-0.98846 12:0.0301738 13:0.156846 14:-0.176201 15:0.131234 16:-0.0253941 17:-0.444802 18:0.398209 19:0.251856 20:-0.310581 21:0.210298 22:-0.0727716 23:-0.170733 24:0.0260789 
19.1277 1:-0.906111 2:-0.976693 3:0.131714 4:-0.891048 5:-0.97858 6:-0.182108 7:-0.502026 8:0.0982611 9:-0.143803 10:-0.931777 11:-0.658074 12:-0.41584 13:0.0392935 14:-0.136209 15:-0.0788527 16:0.127759 17:-0.311308 18:0.0294503 19:0.0448458 20:-0.0477659 21:0.512993 22:0.349419 23:0.211528 24:-0.000460802 
19.1277 1:-0.528879 2:-0.980092 3:0.238381 4:-0.744229 5:-0.99498 6:0.166963 7:-0.119205 8:-0.0236758 9:-0.0601004 10:-0.745104 11:-0.569889 12:-0.0717407 13:0.00876052 14:-0.254239 15:0.397239 16:0.119907 17:-0.307874 18:0.441672 19:0.226286 20:-0.204211 21:0.536825 22:0.232871 23:-0.249456 24:0.0749907 
19.1277 1:-1 2:-1 3:0.0328299 4:-1 5:-1 6:0.289028 7:0.158661 8:0.107947 9:0.279343 10:-1 11:-0.276984 12:-0.0262707 13:0.430457 14:0.129686 15:0.331401 16:0.320067 17:-0.22769 18:0.739129 19:0.28787 20:-0.0821765 21:0.748711 22:0.272099 23:-0.0425587 24:0.249896 
19.1277 1:-1 2:-1 3:0.145956 4:-1 5:-1 6:0.505406 7:0.248303 8:-0.0104119 9:0.323681 10:-1 11:-0.7255 12:-0.191994 13:0.369689 14:0.0369098 15:0.284506 16:0.28352 17:-0.204839 18:0.609103 19:0.406313 20:0.0961108 21:0.757877 22:0.278797 23:-0.0109896 24:0.182464 
19.1277 1:-1 2:-1 3:0.512411 4:-1 5:-1 6:0.808025 7:0.0682066 8:-0.133183 9:0.690151 10:-1 11:-0.845696 12:-0.261424 13:0.64538 14:0.46111 15:0.420187 16:0.585247 17:0.0197476 18:0.664648 19:0.421815 20:0.235442 21:0.559253 22:0.375932 23:0.0953315 24:0.250652 
19.1277 1:-1 2:-1 3:0.285589 4:-1 5:-1 6:0.218756 7:0.118199 8:-0.123575 9:0.84498 10:-1 11:-0.785898 12:0.38088 13:0.527011 14:0.135792 15:0.161841 16:0.669305 17:-0.0324135 18:0.507919 19:0.539089 20:0.0475007 21:0.830955 22:0.236247 23:0.0241933 24:0.492022 
19.1277 1:-1 2:-1 3:-0.0873574 4:-1 5:-1 6:-0.0635053 7:0.543013 8:-0.170504 9:0.821333 10:-1 11:-0.729113 12:0.32076 13:0.248615 14:-0.001471 15:0.156933 16:0.241802 17:-0.103566 18:0.584127 19:0.438383 20:0.235692 21:0.534029 22:0.354653 23:-0.0910545 24:0.250321 
19.1277 1:-1 2:-1 3:0.0669813 4:-1 5:-1 6:0.415605 7:0.200172 8:0.0103077 9:0.805906 10:-1 11:-0.913614 12:-0.409131 13:0.616871 14:0.0877549 15:0.114644 16:0.333626 17:-0.134271 18:0.438002 19:0.418902 20:0.292898 21:0.835524 22:0.363492 23:0.0580537 24:0.16082 
19.1277 1:-1 2:-1 3:0.0680144 4:-1 5:-1 6:0.177916 7:0.347339 8:0.130612 9:0.894742 10:-1 11:-0.748989 12:0.0246894 13:0.731579 14:0.121186 15:0.169839 16:0.319875 17:-0.140763 18:0.419616 19:0.43543 20:0.325648 21:0.986361 22:0.381696 23:0.0998803 24:0.195904 
19.1277 1:-1 2:-1 3:0.160304 4:-1 5:-1 6:0.281427 7:0.0846452 8:-0.3361 9:0.251393 10:-1 11:-0.938369 12:-0.514417 13:0.357815 14:-0.0598246 15:0.0776439 16:0.0878197 17:-0.32341 18:0.336953 19:0.17988 20:-0.101298 21:0.384392 22:0.16256 23:-0.082293 24:0.12206 
19.1277 1:-1 2:-1 3:0.380101 4:-1 5:-1 6:0.493804 7:0.290725 8:-0.21841 9:0.130055 10:-1 11:-0.951851 12:-0.437177 13:0.354615 14:-0.0828961 15:0.248695 16:0.109269 17:-0.401822 18:0.369303 19:0.22432 20:-0.248281 21:0.342312 22:0.0741062 23:-0.131535 24:0.0919582 
19.1277 1:-0.905113 2:-0.994228 3:0.402521 4:-1 5:-1 6:0.806398 7:0.075306 8:0.110393 9:0.0893505 10:-1 11:-0.786416 12:-0.254067 13:0.193921 14:-0.185482 15:0.384098 16:0.090841 17:-0.380495 18:0.289046 19:0.145838 20:-0.247276 21:0.316876 22:-0.0500645 23:-0.182769 24:0.0553118 
19.1277 1:-0.370884 2:-0.965587 3:0.166612 4:-0.673322 5:-0.992427 6:0.448498 7:0.125183 8:0.113012 9:0.0590825 10:-0.619708 11:-0.849293 12:-0.153052 13:0.142604 14:-0.221676 15:0.270693 16:-0.00728163 17:-0.363368 18:0.383592 19:0.216356 20:-0.274243 21:0.238732 22:-0.0500407 23:-0.186308 24:0.0609573 
10.91022881103475 1:-0.640797 2:-0.98236 3:-0.0291695 4:-0.801171 5:-0.990408 6:0.0680085 7:0.223656 8:0.470837 9:0.041829 10:-0.780465 11:-0.622388 12:-0.267252 13:0.0592846 14:-0.340701 15:0.151634 16:-0.174646 17:-0.456025 18:0.274654 19:0.201211 20:0.00858462 21:0.332134 22:-0.0950905 23:-0.19673 24:-0.101481 
-19.1277 1:-0.570898 2:-0.981012 3:0.107523 4:-0.751775 5:-0.983885 6:-0.429174 7:-0.432635 8:-0.0505202 9:-0.210967 10:-0.655758 11:-0.64395 12:-0.45103 13:-0.294721 14:-0.463015 15:-0.208752 16:-0.318492 17:-0.584976 18:-0.204163 19:-0.37196 20:-0.441405 21:-0.216196 22:-0.308478 23:-0.412092 24:-0.466628 
-19.1277 1:-0.753382 2:-0.98188 3:-0.0717152 4:-0.404273 5:-0.991026 6:-0.275415 7:-0.515809 8:-0.229577 9:-0.34518 10:-0.929328 11:-0.534478 12:-0.286885 13:-0.513516 14:-0.513427 15:0.0189408 16:-0.334531 17:-0.610025 18:0.00330507 19:-0.303164 20:-0.482319 21:-0.224819 22:-0.34571 23:-0.334037 24:-0.0795136 
19.1277 1:-1 2:-1 3:0.764226 4:-1 5:-1 6:0.442632 7:-0.0378818 8:-0.0627128 9:0.518539 10:-1 11:-0.824361 12:-0.137489 13:0.409549 14:-0.0487688 15:0.497235 16:0.181226 17:-0.269853 18:0.604509 19:0.304824 20:-0.248481 21:0.277694 22:0.22317 23:-0.0856548 24:0.47386 
19.1277 1:-0.719354 2:-0.979851 3:0.395672 4:-0.848355 5:-0.99332 6:0.524985 7:-0.410342 8:0.416124 9:-0.0642343 10:-0.606132 11:-0.0980271 12:-0.117024 13:-0.235216 14:-0.445617 15:0.152866 16:-0.301116 17:-0.631114 18:0.0136372 19:-0.314111 20:-0.00781289 21:0.048043 22:-0.208337 23:-0.212603 24:0.055439 
-19.1277 1:-0.815602 2:-0.658049 3:0.112493 4:-0.828336 5:-0.991545 6:-0.394988 7:-0.546684 8:0.182656 9:-0.386501 10:-0.812501 11:-0.31555 12:-0.0148243 13:-0.270236 14:-0.341391 15:0.0886165 16:-0.167363 17:-0.48281 18:0.243924 19:-0.227409 20:0.0327568 21:-0.377027 22:-0.151488 23:-0.0179105 24:-0.0113191 
-19.1277 1:-1 2:-1 3:0.227372 4:-1 5:-1 6:0.159859 7:-0.486086 8:0.267956 9:0.289884 10:-1 11:-0.389403 12:-0.212576 13:-0.279661 14:-0.262373 15:0.16367 16:-0.14601 17:-0.435747 18:0.592493 19:-0.222934 20:-0.340331 21:-0.0487236 22:0.157577 23:0.039808 24:0.224208 
-19.1277 1:-1 2:-1 3:-0.00897052 4:-1 5:-1 6:-0.101157 7:-0.446061 8:0.32209 9:0.194806 10:-1 11:-0.528731 12:-0.000171979 13:-0.312244 14:-0.369948 15:0.215702 16:-0.264393 17:-0.466943 18:0.485177 19:-0.195035 20:-0.0132417 21:-0.0126847 22:0.0563577 23:-0.0214823 24:0.330799 
-19.1277 1:-0.61223 2:-1 3:0.178434 4:-1 5:-1 6:0.310788 7:-0.49319 8:0.363367 9:0.236133 10:-1 11:-0.618977 12:-0.147699 13:-0.0653048 14:-0.284117 15:0.431484 16:-0.176858 17:-0.420455 18:0.524583 19:-0.189607 20:0.139636 21:-0.0663358 22:0.101067 23:-0.166015 24:0.262825 
-19.1277 1:-0.830619 2:-0.979214 3:0.223603 4:-0.752418 5:-0.999042 6:0.232501 7:-0.204075 8:0.585776 9:0.214657 10:-0.819131 11:-0.347039 12:0.269809 13:-0.0746079 14:-0.267822 15:0.324839 16:-0.0503351 17:-0.362127 18:0.463588 19:-0.0784026 20:0.254087 21:0.0615443 22:0.30065 23:-0.0798645 24:0.350063 
-19.1277 1:-0.602707 2:-0.984614 3:0.151589 4:-0.643888 5:-0.985195 6:0.00413693 7:-0.355202 8:0.0320931 9:-0.213391 10:-0.588083 11:-0.593956 12:-0.197291 13:-0.650922 14:-0.507724 15:-0.0139797 16:-0.291532 17:-0.532046 18:0.204148 19:-0.327111 20:-0.217434 21:-0.229891 22:-0.115377 23:-0.280753 24:-0.0230928 
-19.1277 1:-0.75108 2:-0.98687 3:-0.352592 4:-0.837531 5:-0.984546 6:-0.145615 7:-0.605973 8:-0.00839269 9:-0.342518 10:-0.665781 11:-0.3519 12:-0.47938 13:-0.467135 14:-0.59226 15:-0.0613473 16:-0.42577 17:-0.668052 18:0.194402 19:-0.520006 20:-0.316998 21:-0.417288 22:-0.458919 23:-0.418781 24:-0.228569 
-19.1277 1:-1 2:-0.990667 3:-0.0571121 4:-0.58469 5:-0.995649 6:-0.0117901 7:-0.673483 8:0.327541 9:-0.260807 10:-0.924487 11:-0.416308 12:-0.456646 13:-0.524591 14:-0.64303 15:-0.0251106 16:-0.562262 17:-0.698114 18:0.0489448 19:-0.597053 20:-0.190717 21:-0.391556 22:-0.528943 23:-0.521064 24:-0.291698 
-19.1277 1:-0.673261 2:-0.994302 3:-0.332469 4:-1 5:-0.985911 6:-0.583618 7:-0.830199 8:-0.220046 9:-0.160599 10:-0.70028 11:-0.862465 12:-0.616836 13:-0.556436 14:-0.612329 15:-0.49723 16:-0.47666 17:-0.679475 18:-0.445027 19:-0.574006 20:-0.567145 21:-0.368863 22:-0.461329 23:-0.492725 24:-0.528207 
-19.1277 1:0.186274 2:-0.990264 3:-0.142411 4:-0.892373 5:-0.992853 6:-0.0943327 7:-0.555603 8:-0.0866058 9:-0.349949 10:-0.742458 11:-0.163118 12:-0.457426 13:-0.564151 14:-0.65549 15:-0.205473 16:-0.594142 17:-0.734153 18:-0.0317541 19:-0.572942 20:-0.502094 21:-0.426573 22:-0.443539 23:-0.315113 24:-0.383086 
19.1277 1:-0.738889 2:-0.99539 3:0.154484 4:-0.835789 5:-0.989606 6:-0.0307766 7:-0.178096 8:0.356132 9:-0.0829942 10:-0.681119 11:-0.207237 12:-0.293675 13:-0.187296 14:-0.430921 15:-0.126101 16:-0.221395 17:-0.50805 18:0.164972 19:-0.251956 20:-0.0763271 21:0.0431039 22:-0.281913 23:-0.270859 24:-0.204542 
19.1277 1:-1 2:-1 3:0.372828 4:-1 5:-1 6:0.501892 7:0.0029816 8:-0.0360565 9:0.147115 10:-1 11:0.100819 12:0.0543763 13:0.018664 14:-0.111307 15:0.0366326 16:0.0459525 17:-0.351243 18:0.511725 19:0.0387416 20:-0.113526 21:0.114671 22:0.04221 23:-0.0630748 24:0.0640331 
19.1277 1:-0.700432 2:-0.998548 3:0.338551 4:-0.761037 5:-0.994989 6:0.176127 7:-0.149098 8:0.68814 9:0.223884 10:-0.795253 11:0.0367119 12:0.396268 13:0.134407 14:-0.0129819 15:0.356878 16:0.0722668 17:-0.292377 18:0.62936 19:0.00267794 20:0.423529 21:0.0537377 22:0.0795259 23:0.082059 24:0.30069 
19.1277 1:-0.764057 2:-0.988567 3:0.187098 4:-0.949672 5:-1 6:0.206373 7:-0.101026 8:0.409294 9:0.115108 10:-1 11:-0.14388 12:-0.0412033 13:-0.139477 14:-0.467501 15:0.0654947 16:-0.256988 17:-0.520532 18:0.285626 19:-0.24456 20:-0.181357 21:0.00946027 22:-0.292679 23:-0.30468 24:-0.10757 
19.1277 1:-0.641569 2:-0.989804 3:-0.0573676 4:-0.683229 5:-1 6:0.309183 7:-0.135098 8:0.773196 9:0.0181964 10:-1 11:0.266833 12:0.0363738 13:0.0668779 14:-0.351284 15:0.171756 16:-0.137906 17:-0.45971 18:0.375105 19:-0.119166 20:0.103596 21:0.164767 22:-0.195455 23:-0.175375 24:-0.0449141 
19.1277 1:-0.46705 2:-0.966509 3:-0.158683 4:-1 5:-1 6:0.304539 7:-0.0211639 8:0.248243 9:0.0142146 10:-1 11:-0.00496518 12:0.0622238 13:0.240831 14:-0.0944668 15:0.213077 16:0.0583787 17:-0.377721 18:0.37536 19:-0.0463919 20:0.132301 21:0.185113 22:0.0175828 23:-0.0885583 24:-0.0582239 
19.1277 1:-1 2:-1 3:0.397838 4:-1 5:-1 6:0.513824 7:0.0597958 8:-0.00913504 9:0.255714 10:-1 11:-0.826515 12:-0.200083 13:0.319948 14:-0.203815 15:0.0270609 16:0.00771758 17:-0.358936 18:0.439273 19:0.0172248 20:-0.0439027 21:0.402584 22:0.08748 23:-0.107072 24:0.11783 
-19.1277 1:-0.620307 2:-0.977746 3:-0.238082 4:-0.800512 5:-0.993975 6:-0.0845773 7:-0.342036 8:0.1803 9:-0.295911 10:-0.204658 11:-0.391092 12:-0.365293 13:-0.381296 14:-0.556074 15:-0.101318 16:-0.43726 17:-0.637327 18:0.103677 19:-0.420632 20:-0.218557 21:-0.429733 22:-0.501587 23:-0.443018 24:-0.29668 
-19.1277 1:-0.515312 2:-1 3:0.243372 4:-1 5:-1 6:-0.0570233 7:-0.388744 8:0.187289 9:-0.0447679 10:-0.945193 11:-0.29012 12:-0.225967 13:-0.199987 14:-0.300907 15:-0.0447844 16:-0.133108 17:-0.446901 18:0.358405 19:-0.21412 20:-0.192285 21:-0.233975 22:-0.00719037 23:-0.138015 24:0.026806 
-19.1277 1:-0.519719 2:-0.988132 3:0.190602 4:-0.722873 5:-0.98276 6:0.0255714 7:-0.766351 8:0.265665 9:-0.269126 10:-0.894404 11:-0.559829 12:-0.447863 13:-0.538329 14:-0.632856 15:-0.0844858 16:-0.555198 17:-0.737377 18:-0.0999625 19:-0.610399 20:-0.18666 21:-0.35343 22:-0.47766 23:-0.465036 24:-0.304882 
19.1277 1:-1 2:-1 3:-0.0185189 4:-1 5:-1 6:0.335064 7:-0.0679521 8:0.250004 9:-0.145449 10:-0.247052 11:-0.0331872 12:0.131398 13:0.101104 14:-0.275921 15:0.283302 16:0.0804722 17:-0.34683 18:0.335795 19:0.0982809 20:0.09306 21:0.515937 22:-0.0311326 23:-0.102102 24:-0.0119493 
19.1277 1:-1 2:-1 3:-0.0604646 4:-1 5:-1 6:-0.0280213 7:0.286279 8:0.0109584 9:0.198846 10:-1 11:-0.200539 12:-0.165362 13:0.249573 14:-0.167813 15:0.298998 16:0.3268 17:-0.170773 18:0.59947 19:0.261306 20:-0.0967178 21:0.928566 22:0.173716 23:-0.0623062 24:0.00969944 
19.1277 1:-1 2:-1 3:0.536973 4:-1 5:-1 6:0.497259 7:0.24248 8:0.240491 9:0.532951 10:-1 11:-0.146895 12:0.232842 13:0.719762 14:0.304261 15:0.524432 16:0.651675 17:-0.0656578 18:0.685461 19:0.477055 20:0.211602 21:0.819428 22:0.442593 23:0.257934 24:0.301793 
19.1277 1:-1 2:-1 3:0.377784 4:-1 5:-1 6:0.31396 7:0.182665 8:0.350354 9:0.656024 10:-1 11:0.0954527 12:0.547428 13:0.696585 14:0.261981 15:0.606416 16:0.56168 17:0.0462401 18:0.643657 19:0.480194 20:0.432472 21:0.776604 22:0.378549 23:0.289444 24:0.290883 
19.1277 1:-1 2:-1 3:0.301856 4:-1 5:-1 6:0.314444 7:0.251047 8:0.563074 9:0.860605 10:-1 11:-0.102054 12:0.593686 13:0.861621 14:0.512477 15:0.795195 16:0.986153 17:0.135553 18:0.848174 19:0.622735 20:0.51353 21:0.692854 22:0.510035 23:0.43239 24:0.47744 
19.1277 1:-1 2:-1 3:0.127525 4:-1 5:-1 6:0.180913 7:0.0146889 8:0.304625 9:0.935036 10:-1 11:-0.0938431 12:0.336349 13:0.493673 14:0.0773866 15:0.334569 16:0.482143 17:-0.00210661 18:0.697691 19:0.369496 20:0.545747 21:0.504218 22:0.330287 23:0.169558 24:0.283906 
19.1277 1:-1 2:-1 3:0.093026 4:-1 5:-1 6:0.0524424 7:0.0945387 8:0.301467 9:0.848764 10:-1 11:-0.43251 12:0.397194 13:0.464013 14:0.0180673 15:0.182739 16:0.321405 17:-0.119651 18:0.584626 19:0.41085 20:0.401093 21:0.509161 22:0.305169 23:0.0168382 24:0.185701 
19.1277 1:-1 2:-1 3:0.441301 4:-1 5:-1 6:0.252206 7:0.0191189 8:0.191201 9:0.744851 10:-1 11:-0.569467 12:-0.0483119 13:0.362825 14:-0.0600757 15:0.291736 16:0.069874 17:-0.197384 18:0.541267 19:0.072036 20:0.0647914 21:0.767917 22:0.194311 23:0.129127 24:0.0365462 
19.1277 1:-1 2:-1 3:0.11201 4:-1 5:-1 6:0.192537 7:0.066382 8:0.333252 9:0.794825 10:-1 11:-0.447647 12:0.204608 13:0.449695 14:-0.0374138 15:0.318492 16:0.152125 17:-0.174873 18:0.473546 19:0.144226 20:0.273526 21:0.699423 22:0.187377 23:0.0371 24:0.132378 
19.1277 1:-1 2:-1 3:0.110066 4:-1 5:-1 6:0.253633 7:-0.00330316 8:0.034344 9:0.44777 10:-1 11:-0.699347 12:0.35435 13:0.551407 14:0.0742206 15:0.395051 16:0.312968 17:-0.176724 18:0.814514 19:0.18313 20:0.173085 21:0.472311 22:0.330361 23:0.0556092 24:0.433117 
19.1277 1:-1 2:-1 3:-0.096399 4:-1 5:-1 6:0.206466 7:0.0172371 8:-0.0421926 9:0.205886 10:-1 11:-0.384737 12:-0.18603 13:0.38799 14:0.0273926 15:0.11754 16:0.20269 17:-0.327508 18:0.461695 19:0.0208794 20:0.0890491 21:0.39384 22:0.062979 23:-0.0693256 24:0.06866 
19.1277 1:-0.731344 2:-0.985744 3:0.57477 4:-1 5:-1 6:0.639619 7:-0.0553683 8:0.232455 9:0.000878257 10:-1 11:-0.446207 12:-0.0732373 13:0.16883 14:-0.150486 15:0.489373 16:0.146392 17:-0.286637 18:0.346437 19:0.207556 20:-0.0512642 21:0.285451 22:0.0724801 23:-0.11528 24:0.0303453 
19.1277 1:-0.386932 2:-0.971065 3:0.197087 4:1 5:-0.982093 6:0.238518 7:-0.244377 8:0.302935 9:-0.12785 10:-0.569389 11:0.215032 12:0.106248 13:-0.0342039 14:-0.351546 15:-0.0201896 16:-0.0377397 17:-0.412449 18:0.47404 19:-0.0934924 20:-0.123868 21:0.226895 22:-0.0960664 23:-0.0538301 24:0.0642585 
19.1277 1:-0.345109 2:-0.980043 3:0.0844562 4:-0.814645 5:-0.991222 6:0.533606 7:-0.0898409 8:0.277113 9:-0.131082 10:-0.687822 11:-0.209743 12:0.00421851 13:0.0273723 14:-0.358617 15:0.220572 16:-0.117189 17:-0.425479 18:0.248112 19:0.0121054 20:-0.159859 21:0.205573 22:-0.0833492 23:-0.189776 24:0.011664 
19.1277 1:-0.315733 2:-0.984712 3:-0.189326 4:-0.708868 5:-0.988727 6:0.0145917 7:-0.284592 8:0.154804 9:-0.341252 10:-0.282611 11:-0.210209 12:-0.0795898 13:-0.288239 14:-0.469317 15:0.303271 16:-0.239739 17:-0.528099 18:0.122078 19:-0.299643 20:-0.185248 21:-0.348654 22:-0.396724 23:-0.30564 24:-0.145693 
19.1277 1:-1 2:-1 3:-0.163605 4:-1 5:-1 6:0.0408506 7:-0.401054 8:0.135211 9:-0.302954 10:-1 11:-0.15949 12:0.152513 13:-0.221189 14:-0.524513 15:-0.0759071 16:-0.378838 17:-0.592021 18:0.00345703 19:-0.277775 20:-0.101806 21:0.0176417 22:-0.23606 23:-0.108247 24:-0.0514641 
19.1277 1:-0.936842 2:-1 3:0.105899 4:-1 5:-1 6:-0.0834676 7:0.146188 8:0.482032 9:0.0659193 10:-1 11:0.196649 12:0.0988176 13:-0.0155469 14:-0.319639 15:0.131579 16:-0.0561651 17:-0.376185 18:0.351445 19:-0.0308547 20:0.225371 21:0.0395581 22:0.092226 23:0.0617606 24:0.156793 
19.1277 1:-0.725707 2:-1 3:0.201163 4:-1 5:-1 6:0.14394 7:0.0211381 8:0.52276 9:0.345321 10:-1 11:0.389485 12:0.143921 13:0.0618415 14:-0.263236 15:0.309455 16:-0.122741 17:-0.318259 18:0.431959 19:-0.0928164 20:0.234037 21:0.196338 22:0.26864 23:0.244595 24:0.143883 
19.1277 1:-1 2:-1 3:0.727492 4:-1 5:-1 6:0.548587 7:-0.134646 8:-0.00295946 9:0.686694 10:-1 11:-0.844332 12:-0.204172 13:0.272531 14:-0.201017 15:0.298196 16:0.0714132 17:-0.332384 18:0.340333 19:0.0717365 20:-0.174706 21:0.446969 22:0.0484284 23:-0.224297 24:0.159007 
19.1277 1:-1 2:-1 3:0.624156 4:-1 5:-1 6:0.41831 7:0.010375 8:0.0551589 9:0.602586 10:-1 11:-0.39375 12:-0.197061 13:0.276442 14:-0.189663 15:0.307848 16:-0.0305752 17:-0.326042 18:0.544904 19:-0.0490669 20:-0.137468 21:0.485082 22:-0.0194906 23:-0.143467 24:0.135116 
19.1277 1:-1 2:-1 3:0.267511 4:-1 5:-1 6:0.272743 7:-0.0307393 8:-0.131103 9:0.170358 10:-1 11:-0.803782 12:-0.348121 13:0.213262 14:-0.089367 15:0.147223 16:0.0308241 17:-0.361625 18:0.484649 19:0.0636044 20:-0.22551 21:0.289238 22:-0.0460444 23:-0.157983 24:-0.139717 
19.1277 1:-1 2:-1 3:-0.324704 4:-1 5:-1 6:0.134863 7:0.0363315 8:-0.104427 9:-0.0111359 10:-1 11:-0.330724 12:-0.144158 13:-0.041157 14:-0.360139 15:-0.0320691 16:-0.185248 17:-0.497924 18:0.4496 19:-0.0254916 20:-0.213463 21:0.172117 22:-0.243196 23:-0.308725 24:-0.0869114 
19.1277 1:-0.781773 2:-0.993833 3:-0.0635877 4:-0.365974 5:-1 6:0.331481 7:-0.23878 8:0.497383 9:-0.0689819 10:-1 11:0.30639 12:0.0832893 13:0.0862159 14:-0.196822 15:0.486485 16:0.00925613 17:-0.317464 18:0.519531 19:-0.0562876 20:0.32876 21:0.16603 22:0.0289217 23:0.00773271 24:-0.0316197 
19.1277 1:-0.333883 2:-0.963659 3:-0.25607 4:-0.593676 5:-0.993456 6:0.144527 7:-0.39513 8:0.390268 9:-0.304745 10:-0.781742 11:0.0176551 12:-0.368716 13:-0.156101 14:-0.448565 15:0.10851 16:-0.255347 17:-0.519224 18:0.290215 19:-0.356811 20:0.0131545 21:-0.0868743 22:-0.254504 23:-0.250412 24:-0.216336 
-19.1277 1:-0.650333 2:-0.980825 3:-0.152653 4:-0.818755 5:-0.993284 6:-0.255155 7:-0.634952 8:-0.331706 9:-0.492769 10:-0.905988 11:-0.572204 12:-0.312652 13:-0.547743 14:-0.550155 15:0.017764 16:-0.424553 17:-0.65583 18:-0.0896917 19:-0.454172 20:-0.540262 21:-0.29916 22:-0.427574 23:-0.403296 24:-0.167942 
19.1277 1:-1 2:-1 3:0.231407 4:-1 5:-1 6:-0.0526277 7:-0.058809 8:-0.0252622 9:0.493559 10:-1 11:-0.714278 12:-0.1834 13:0.0718231 14:-0.201995 15:-0.0623341 16:0.0612253 17:-0.357152 18:0.283427 19:-0.0151497 20:-0.281819 21:0.186387 22:0.244733 23:-0.0679152 24:0.231396 
-19.1277 1:-0.857873 2:-0.638401 3:-0.197517 4:-0.845517 5:-0.992023 6:-0.532888 7:-0.660135 8:-0.260391 9:-0.591051 10:-0.549417 11:-0.56755 12:-0.352439 13:-0.68586 14:-0.71895 15:-0.210387 16:-0.616095 17:-0.768364 18:0.0204566 19:-0.644306 20:-0.560189 21:-0.760528 22:-0.637689 23:-0.357432 24:-0.278527 
-19.1277 1:-0.793012 2:-0.653705 3:0.145849 4:-0.742979 5:-0.993744 6:-0.140965 7:-0.505363 8:0.206574 9:-0.475093 10:-0.463967 11:-0.49664 12:-0.150828 13:-0.249903 14:-0.291528 15:0.233311 16:-0.0807827 17:-0.451061 18:0.168518 19:-0.170907 20:-0.114667 21:-0.364391 22:-0.0750137 23:-0.165169 24:0.179179 
-19.1277 1:-1 2:-1 3:0.323368 4:-1 5:-1 6:0.171427 7:-0.603851 8:0.293918 9:0.136987 10:-1 11:-0.390238 12:-0.0750109 13:-0.232818 14:-0.31459 15:0.173585 16:-0.199133 17:-0.481728 18:0.262112 19:-0.235059 20:0.271807 21:-0.105061 22:0.140485 23:-0.0166057 24:0.31633 
-19.1277 1:-1 2:-1 3:0.114305 4:-1 5:-1 6:-0.0664832 7:-0.530892 8:-0.141226 9:0.0666075 10:-1 11:-0.205139 12:0.104919 13:-0.273955 14:-0.325677 15:0.211229 16:-0.258578 17:-0.460957 18:0.377831 19:-0.254504 20:-0.295696 21:-0.114668 22:0.00656618 23:0.152409 24:0.340585 
-19.1277 1:-0.710202 2:-0.987241 3:-0.357716 4:-0.825865 5:-0.990021 6:-0.213761 7:-0.550124 8:0.158251 9:-0.344178 10:-0.400528 11:-0.732059 12:-0.337862 13:-0.45062 14:-0.514989 15:0.0401276 16:-0.387957 17:-0.551867 18:0.327471 19:-0.346246 20:-0.265992 21:-0.292251 22:-0.181968 23:-0.31991 24:0.117657 
-19.1277 1:-0.688197 2:-0.962645 3:-0.165373 4:-0.746152 5:-1 6:0.201691 7:-0.595806 8:0.251103 9:-0.288411 10:-0.299669 11:-0.368797 12:-0.137488 13:-0.48528 14:-0.60968 15:0.103487 16:-0.458587 17:-0.687745 18:0.025309 19:-0.513198 20:-0.0880633 21:-0.276332 22:-0.521528 23:-0.45722 24:-0.118538 
-19.1277 1:-0.87894 2:-1 3:-0.161079 4:-0.777445 5:-0.994064 6:0.223831 7:-0.647137 8:0.293211 9:-0.249813 10:-0.890603 11:-0.381447 12:-0.190481 13:-0.503819 14:-0.6735 15:0.121302 16:-0.492785 17:-0.691057 18:0.0721677 19:-0.601744 20:-0.0818242 21:-0.342695 22:-0.546874 23:-0.485749 24:-0.0741157 
-19.1277 1:-0.802945 2:-0.981001 3:-0.6717 4:-1 5:-0.98839 6:-0.3836 7:-0.993264 8:-0.723964 9:-0.78007 10:-0.521236 11:-0.837674 12:-0.793251 13:-0.95202 14:-0.953819 15:-0.643151 16:-0.959948 17:-0.933874 18:-0.113135 19:-0.918596 20:-0.707491 21:-0.915124 22:-0.939677 23:-0.753408 24:-0.616179 
-19.1277 1:-0.692944 2:-0.994562 3:-0.495183 4:-0.951742 5:-0.989648 6:-0.51956 7:-0.978711 8:-0.470244 9:-0.670833 10:-0.306005 11:-0.68385 12:-0.723813 13:-0.959494 14:-0.940828 15:-0.525956 16:-0.915892 17:-0.958296 18:-0.123529 19:-0.923648 20:-0.496796 21:-0.88297 22:-0.912491 23:-0.595938 24:-0.435543 
-19.1277 1:-0.811495 2:-0.989799 3:-0.626804 4:-0.836604 5:-0.991538 6:-0.455644 7:-0.970628 8:-0.60261 9:-0.614524 10:-0.754796 11:-0.892299 12:-0.769553 13:-0.942461 14:-0.933537 15:-0.647037 16:-0.925416 17:-0.935162 18:-0.341806 19:-0.898957 20:-0.716772 21:-0.905871 22:-0.900041 23:-0.865198 24:-0.696123 
-19.1277 1:-0.802353 2:-0.971739 3:-0.867854 4:-0.980719 5:-0.989222 6:-0.940227 7:-0.996463 8:-0.882652 9:-0.979617 10:-0.405911 11:-0.962155 12:-0.948684 13:-0.984615 14:-0.963884 15:-0.910622 16:-1 17:-0.975589 18:-0.856288 19:-0.958422 20:-0.974063 21:-0.965914 22:-0.937448 23:-0.931942 24:-0.911839 
-19.1277 1:-0.907907 2:-0.838982 3:-0.831206 4:-0.673807 5:-0.968945 6:-0.495098 7:-0.931083 8:-0.807108 9:-0.965947 10:-0.548538 11:-0.893129 12:-0.721948 13:-0.972793 14:-0.647791 15:-0.649369 16:-0.977319 17:-0.958288 18:-0.384005 19:-0.964385 20:-0.815624 21:-0.979282 22:-0.956075 23:-0.845043 24:-0.535134 
-19.1277 1:-0.599968 2:-0.903201 3:-0.774587 4:-0.658542 5:-0.990042 6:-0.601181 7:-0.945496 8:-0.784107 9:-0.91618 10:-0.597297 11:-0.874074 12:-0.785315 13:-0.969965 14:-0.84067 15:-0.634872 16:-0.957819 17:-0.979665 18:-0.141365 19:-0.983295 20:-0.713094 21:-1 22:-1 23:-0.718423 24:-0.495496 
-19.1277 1:-1 2:-0.995659 3:-0.819599 4:-0.582886 5:-0.989631 6:-0.599006 7:-0.989222 8:-0.653186 9:-0.83518 10:-0.766219 11:-0.823023 12:-0.776521 13:-0.960818 14:-0.968277 15:-0.588855 16:-0.99663 17:-0.926166 18:-0.216198 19:-0.986106 20:-0.489412 21:-0.938125 22:-0.941009 23:-0.66824 24:-0.622304 
-19.1277 1:-0.786983 2:-0.98804 3:-0.631983 4:-0.740878 5:-0.992945 6:-0.515607 7:-0.980607 8:-0.812356 9:-0.779372 10:-0.921036 11:-0.857455 12:-0.853826 13:-0.979045 14:-1 15:-0.617732 16:-0.973316 17:-0.959557 18:-0.170241 19:-0.974031 20:-0.768979 21:-0.995638 22:-0.947471 23:-0.783189 24:-0.585387 
-19.1277 1:-0.732794 2:-0.953156 3:-0.674323 4:-0.56238 5:-0.991856 6:-0.383025 7:-0.983619 8:-0.717155 9:-0.804152 10:-0.754773 11:-0.878352 12:-0.665323 13:-0.989314 14:-0.986261 15:-0.436692 16:-0.945006 17:-0.97061 18:-0.0418126 19:-0.949788 20:-0.784787 21:-0.98277 22:-0.904223 23:-0.697055 24:-0.299449 
-19.1277 1:-0.772108 2:-0.983402 3:-0.510733 4:-0.904089 5:-0.98832 6:-0.375026 7:-0.976887 8:-0.405993 9:-0.584731 10:-0.644079 11:-0.494787 12:-0.508355 13:-0.929833 14:-0.954329 15:-0.231157 16:-0.914107 17:-0.943707 18:-0.0163934 19:-0.914619 20:-0.263278 21:-0.926209 22:-0.916295 23:-0.360326 24:-0.350361 
-19.1277 1:-1 2:-0.980395 3:-0.438413 4:-0.501929 5:-0.997398 6:-0.416553 7:-0.953476 8:-0.513586 9:-0.731166 10:-0.605745 11:-0.746911 12:-0.718919 13:-0.955891 14:-0.945223 15:-0.367894 16:-0.949125 17:-0.96441 18:0.0122812 19:-0.954896 20:-0.532179 21:-0.921227 22:-0.918924 23:-0.584408 24:-0.406592 
-19.1277 1:-0.752997 2:-0.988149 3:-0.558679 4:-0.671598 5:-1 6:-0.176565 7:-0.983848 8:-0.527685 9:-0.718742 10:-0.346359 11:-0.793445 12:-0.695882 13:-0.939502 14:-0.97719 15:-0.357109 16:-0.950219 17:-0.969323 18:-0.0624248 19:-0.957508 20:-0.461111 21:-0.941225 22:-0.922923 23:-0.695722 24:-0.236265 
-19.1277 1:-0.75012 2:-1 3:-0.709286 4:-0.801576 5:-0.9917 6:-0.23892 7:-0.967935 8:-0.665995 9:-0.738935 10:-1 11:-0.813413 12:-0.697431 13:-0.967264 14:-0.974355 15:-0.31479 16:-0.9355 17:-0.986112 18:-0.0889528 19:-0.96471 20:-0.692418 21:-0.952797 22:-0.918354 23:-0.732456 24:-0.154658 
-19.1277 1:-0.623299 2:-0.986901 3:-0.623596 4:-0.506972 5:-0.996174 6:-0.502789 7:-0.992028 8:-0.7525 9:-0.781607 10:-0.653558 11:-0.92001 12:-0.701861 13:-0.974717 14:-0.977167 15:-0.541132 16:-0.964948 17:-0.957404 18:-0.160889 19:-0.95082 20:-0.657266 21:-0.952147 22:-0.959731 23:-0.700945 24:-0.416447 
-19.1277 1:-0.653656 2:-0.985018 3:-0.79594 4:-0.942359 5:-0.986442 6:-0.878318 7:-0.978673 8:-0.792165 9:-0.805409 10:-1 11:-0.990978 12:-0.916306 13:-0.985222 14:-0.98573 15:-0.888192 16:-0.924537 17:-0.976218 18:-0.738924 19:-0.988706 20:-0.9512 21:-0.989566 22:-0.914565 23:-0.922933 24:-0.906184 
-19.1277 1:-0.68813 2:-0.996424 3:-0.991196 4:-0.657689 5:-0.987363 6:-0.997443 7:-0.993149 8:-1 9:-0.98016 10:-0.494813 11:-0.9871 12:-1 13:-0.990881 14:-0.970084 15:-0.995519 16:-0.965776 17:-1 18:-1 19:-0.961388 20:-1 21:-0.963443 22:-1 23:-0.99407 24:-1 
-19.1277 1:-1 2:-0.986726 3:-0.986909 4:-0.657104 5:-1 6:-1 7:-0.988597 8:-0.992055 9:-0.972065 10:-1 11:-0.974238 12:-0.960544 13:-0.94442 14:-0.926306 15:-0.987491 16:-0.983504 17:-0.996579 18:-0.956719 19:-0.970371 20:-0.991679 21:-0.909968 22:-1 23:-1 24:-0.983964 
-19.1277 1:-0.503169 2:-1 3:-0.970263 4:-0.760893 5:-0.994475 6:-0.948893 7:-1 8:-0.971836 9:-1 10:-1 11:-0.978306 12:-0.940093 13:-0.966618 14:-0.942384 15:-0.943791 16:-1 17:-0.980305 18:-0.835844 19:-0.980642 20:-0.941771 21:-0.954011 22:-0.948452 23:-0.965299 24:-0.888078 
-19.1277 1:-0.658849 2:-0.954827 3:-0.97099 4:-0.743137 5:-1 6:-0.855088 7:-1 8:-0.964147 9:-0.964841 10:-1 11:-1 12:-0.923203 13:-0.963584 14:-0.960821 15:-0.854576 16:-0.980098 17:-1 18:-0.803579 19:-1 20:-0.944844 21:-0.977649 22:-0.98295 23:-0.977429 24:-0.898573 
-19.1277 1:-0.993411 2:-0.982725 3:-0.766651 4:-0.898273 5:-0.995989 6:-0.416257 7:-1 8:-0.543795 9:-0.709261 10:-0.530691 11:-0.815651 12:-0.63871 13:-0.983188 14:-0.953021 15:-0.39986 16:-0.949976 17:-0.986771 18:-0.04683 19:-0.965121 20:-0.453509 21:-0.941841 22:-0.906176 23:-0.682115 24:-0.286296 
-19.1277 1:-0.683766 2:-0.982049 3:-0.505742 4:-0.68334 5:-0.982481 6:-0.283263 7:-0.975062 8:-0.609218 9:-0.566455 10:-0.691243 11:-0.694038 12:-0.416131 13:-0.948455 14:-0.94685 15:-0.171205 16:-0.926012 17:-0.957651 18:0.0504386 19:-0.904679 20:-0.59127 21:-0.880967 22:-0.914141 23:-0.510757 24:-0.0991456 
-19.1277 1:-0.859749 2:-0.987769 3:-0.179096 4:-1 5:-1 6:-0.235894 7:-0.942434 8:-0.388993 9:-0.400897 10:-0.43062 11:-0.556748 12:-0.537726 13:-0.853468 14:-0.8658 15:-0.344478 16:-0.843498 17:-0.890498 18:-0.0259313 19:-0.84408 20:-0.582568 21:-0.837371 22:-0.814094 23:-0.609124 24:-0.356562 
-19.1277 1:-0.174046 2:-1 3:0.107068 4:-0.838062 5:-1 6:-0.110385 7:-0.633918 8:-0.120967 9:-0.143647 10:-1 11:-0.393283 12:-0.411577 13:-0.353466 14:-0.415792 15:0.0478017 16:-0.226346 17:-0.514849 18:0.306429 19:-0.417332 20:-0.439174 21:-0.190812 22:-0.258924 23:-0.298758 24:-0.0674326 
-19.1277 1:-0.836972 2:-0.988287 3:0.0169299 4:-0.768402 5:-0.989942 6:0.175258 7:-0.3029 8:0.287985 9:-0.26467 10:-0.183654 11:-0.192811 12:-0.145282 13:-0.396688 14:-0.588411 15:-0.0725419 16:-0.417072 17:-0.658909 18:0.14868 19:-0.457056 20:-0.201536 21:-0.342184 22:-0.460705 23:-0.375201 24:-0.166133 
-19.1277 1:-0.504355 2:-0.983393 3:-0.143934 4:-0.789899 5:-0.985781 6:-0.0873032 7:-0.573476 8:-0.00797592 9:-0.325004 10:-0.472863 11:-0.0685451 12:-0.346545 13:-0.44003 14:-0.593648 15:-0.125027 16:-0.434721 17:-0.644936 18:0.258167 19:-0.513624 20:-0.434185 21:-0.37028 22:-0.426678 23:-0.384726 24:-0.265048 
-19.1277 1:-0.915487 2:-0.995239 3:0.242142 4:-1 5:-0.988287 6:0.0510568 7:-0.676998 8:0.202829 9:-0.144262 10:-1 11:-0.383853 12:-0.429156 13:-0.417134 14:-0.530055 15:-0.102836 16:-0.430307 17:-0.648371 18:-0.0762122 19:-0.496734 20:-0.370257 21:-0.202729 22:-0.360933 23:-0.339297 24:-0.270038 
-19.1277 1:-0.615986 2:-0.990784 3:-0.684498 4:-0.836913 5:-0.989285 6:-0.926762 7:-0.985248 8:-0.683004 9:-0.794517 10:-0.653661 11:-0.940252 12:-0.889449 13:-0.961844 14:-0.948302 15:-0.932977 16:-0.913965 17:-0.958541 18:-0.834579 19:-0.944113 20:-0.9387 21:-0.936558 22:-0.953213 23:-0.899296 24:-0.893675 
-19.1277 1:-0.314551 2:-0.953461 3:-0.512197 4:-0.949965 5:-0.986489 6:-0.276317 7:-0.974572 8:-0.463251 9:-0.790277 10:-0.858691 11:-0.620335 12:-0.604952 13:-0.945431 14:-0.963282 15:-0.340426 16:-0.923801 17:-0.959959 18:0.101766 19:-0.900586 20:-0.33512 21:-0.957866 22:-0.962121 23:-0.234759 24:-0.319663 
-19.1277 1:-0.867532 2:-0.996263 3:-0.563058 4:-0.483599 5:-0.994401 6:-0.485794 7:-0.966574 8:-0.439241 9:-0.645746 10:-0.913495 11:-0.723417 12:-0.504304 13:-0.914031 14:-0.939525 15:-0.396281 16:-0.919838 17:-0.955032 18:0.0020535 19:-0.892633 20:-0.336149 21:-0.913635 22:-0.91923 23:-0.414182 24:-0.361263 
-19.1277 1:-0.336016 2:-0.944901 3:-0.0472909 4:-0.963967 5:-0.995841 6:-0.295754 7:-0.85904 8:-0.170072 9:-0.287683 10:-0.871337 11:-0.478323 12:-0.463969 13:-0.699888 14:-0.69636 15:-0.202106 16:-0.632578 17:-0.765543 18:0.0943098 19:-0.724454 20:-0.487537 21:-0.71997 22:-0.646414 23:-0.400526 24:-0.420668 
-19.1277 1:-0.310012 2:-0.97978 3:0.219205 4:-0.697336 5:-0.984421 6:-0.00391851 7:-0.779682 8:-0.15085 9:-0.207223 10:-0.883766 11:-0.565 12:-0.206042 13:-0.426707 14:-0.481048 15:0.168047 16:-0.324275 17:-0.585042 18:0.153267 19:-0.508612 20:-0.453565 21:-0.443681 22:-0.326317 23:-0.407666 24:0.248725 
-19.1277 1:-0.491039 2:-0.978079 3:0.0609701 4:-0.912121 5:-0.994849 6:-0.135921 7:-0.772368 8:-0.157391 9:-0.131743 10:-0.987264 11:-0.321903 12:-0.333081 13:-0.472115 14:-0.512222 15:0.0935165 16:-0.357789 17:-0.611837 18:0.298996 19:-0.53783 20:-0.421223 21:-0.407402 22:-0.299922 23:-0.23463 24:-0.110744 
-19.1277 1:-0.700589 2:-0.992825 3:0.25917 4:-0.740593 5:-0.969056 6:-0.10374 7:-0.762074 8:0.0667294 9:-0.176779 10:-0.814025 11:-0.609452 12:-0.11619 13:-0.518932 14:-0.549542 15:-0.0417207 16:-0.503442 17:-0.642892 18:0.199621 19:-0.589261 20:-0.0754025 21:-0.427295 22:-0.364783 23:-0.426482 24:0.0519529 
-19.1277 1:-0.740003 2:-0.982789 3:-0.209079 4:-0.710804 5:-0.958598 6:0.194445 7:-0.791909 8:-0.154059 9:-0.0843361 10:-0.770977 11:-0.899149 12:-0.296942 13:-0.53 14:-0.598703 15:0.163103 16:-0.473266 17:-0.634155 18:0.168543 19:-0.627637 20:-0.472862 21:-0.447915 22:-0.31423 23:-0.494063 24:0.139531 
-19.1277 1:-0.840066 2:-0.98871 3:-0.323768 4:-0.775872 5:-0.991162 6:-0.2625 7:-0.84882 8:-0.107891 9:-0.108654 10:-0.759697 11:-0.969961 12:-0.3281 13:-0.626252 14:-0.590089 15:-0.0769385 16:-0.523692 17:-0.667148 18:0.274269 19:-0.665408 20:-0.234772 21:-0.474203 22:-0.449903 23:-0.52578 24:0.059967 
-19.1277 1:-0.44616 2:-0.991361 3:-0.495 4:-0.824937 5:-0.976382 6:-0.325387 7:-0.896534 8:-0.190326 9:-0.421297 10:-0.714062 11:-0.985602 12:-0.513787 13:-0.796825 14:-0.779825 15:-0.2759 16:-0.720736 17:-0.83632 18:0.0803965 19:-0.784056 20:-0.160309 21:-0.665993 22:-0.689332 23:-0.720186 24:-0.192467 
-19.1277 1:-0.396005 2:-0.99238 3:-0.563422 4:-1 5:-0.989942 6:-0.439386 7:-0.955159 8:-0.496366 9:-0.488256 10:-0.749268 11:-0.896635 12:-0.718475 13:-0.873725 14:-0.860159 15:-0.679463 16:-0.792747 17:-0.875796 18:-0.414169 19:-0.83932 20:-0.812731 21:-0.835836 22:-0.813385 23:-0.836118 24:-0.689583 
-19.1277 1:-0.737146 2:-1 3:-0.578159 4:-0.633294 5:-1 6:-0.693774 7:-0.932892 8:-0.520175 9:-0.536356 10:-0.882711 11:-0.902539 12:-0.73954 13:-0.798767 14:-0.783182 15:-0.753444 16:-0.704673 17:-0.837097 18:-0.601624 19:-0.786283 20:-0.803547 21:-0.712481 22:-0.74078 23:-0.747957 24:-0.785196 
-19.1277 1:-0.868468 2:-1 3:-0.418923 4:-0.540579 5:-0.987852 6:-0.306167 7:-0.921754 8:-0.48953 9:-0.719923 10:-0.823835 11:-0.767778 12:-0.638452 13:-0.902573 14:-0.882288 15:-0.589986 16:-0.890313 17:-0.920421 18:-0.374004 19:-0.855067 20:-0.612537 21:-0.778097 22:-0.80029 23:-0.693958 24:-0.623462 
19.1277 1:-1 2:-1 3:-0.0966951 4:-1 5:-1 6:-0.0447477 7:-0.188127 8:-0.312737 9:0.102587 10:-1 11:-0.825833 12:-0.471448 13:0.151343 14:-0.26827 15:0.0454643 16:-0.0901963 17:-0.451553 18:0.30527 19:-0.114169 20:-0.33956 21:0.0848544 22:-0.0877514 23:-0.262904 24:-0.0879878 
19.1277 1:-1 2:-1 3:0.357732 4:-1 5:-1 6:0.277884 7:0.00715529 8:-0.0831513 9:0.206873 10:-1 11:-0.0606829 12:-0.216814 13:0.213066 14:-0.231727 15:0.087031 16:-0.0298867 17:-0.349352 18:0.504067 19:-0.0210751 20:-0.158992 21:0.342904 22:0.233928 23:0.0790178 24:0.0653888 
19.1277 1:-1 2:-1 3:0.104341 4:-1 5:-1 6:0.313217 7:-0.0473738 8:0.412101 9:0.915763 10:-1 11:-0.263587 12:0.129088 13:0.452329 14:0.0301689 15:0.370331 16:0.249025 17:-0.214481 18:0.618408 19:0.187564 20:0.331637 21:0.493571 22:0.176005 23:0.040621 24:0.169658 
19.1277 1:-1 2:-1 3:0.259331 4:-1 5:-1 6:0.356162 7:0.0675794 8:0.370062 9:0.658419 10:-1 11:-0.612489 12:-0.192144 13:0.617501 14:0.0979132 15:0.479892 16:0.461382 17:-0.113527 18:0.886732 19:0.364635 20:0.332028 21:0.65333 22:0.446902 23:0.064102 24:0.247737 
19.1277 1:-1 2:-1 3:0.198721 4:-1 5:-1 6:0.261505 7:0.0264821 8:0.136736 9:0.225492 10:-1 11:-0.628491 12:-0.386077 13:0.340604 14:0.0274374 15:0.28001 16:0.251914 17:-0.295067 18:0.581457 19:0.0145482 20:0.0133519 21:0.261903 22:0.156135 23:-0.101244 24:0.100558 
19.1277 1:-0.671953 2:-0.96405 3:-0.114667 4:-0.983112 5:-0.994443 6:0.444186 7:-0.238856 8:0.232632 9:-0.0972678 10:-1 11:-0.156396 12:-0.211728 13:0.0775483 14:-0.140305 15:0.268131 16:0.172419 17:-0.293853 18:0.587514 19:-0.0278438 20:0.220041 21:0.153063 22:0.0313811 23:-0.0870284 24:0.0170866 
19.1277 1:-0.710209 2:-0.981144 3:0.220579 4:-0.683572 5:-0.987547 6:0.215671 7:-0.310137 8:0.597262 9:-0.206315 10:-0.589932 11:0.178497 12:0.135364 13:0.0231595 14:-0.344134 15:0.014933 16:-0.038348 17:-0.418174 18:0.433586 19:-0.155943 20:0.105133 21:-0.161375 22:-0.0586593 23:-0.10793 24:0.0233957 
-19.1277 1:-0.702497 2:-0.97882 3:-0.0186783 4:-0.720717 5:-0.99461 6:-0.135555 7:-0.544042 8:-0.134062 9:-0.300387 10:0.208695 11:-0.53183 12:-0.241283 13:-0.401575 14:-0.43858 15:-0.0296426 16:-0.325468 17:-0.567131 18:0.118223 19:-0.42942 20:-0.368348 21:-0.350781 22:-0.395917 23:-0.39432 24:-0.191632 
-19.1277 1:-0.497361 2:-0.961736 3:-0.101884 4:-0.594938 5:-0.983188 6:-0.212448 7:-0.588073 8:0.132813 9:-0.319659 10:-0.711451 11:-0.0964489 12:-0.312894 13:-0.408638 14:-0.364612 15:0.130254 16:-0.236442 17:-0.525146 18:0.151639 19:-0.299068 20:0.0151178 21:-0.280905 22:-0.216673 23:-0.138528 24:-0.0640757 
-19.1277 1:-0.704374 2:-0.985244 3:0.156456 4:-1 5:-0.994966 6:-0.02997 7:-0.366131 8:0.360079 9:0.0243393 10:-0.783693 11:0.00307176 12:-0.181171 13:-0.211365 14:-0.216872 15:0.258376 16:-0.0617652 17:-0.368176 18:0.446119 19:-0.157146 20:-0.115599 21:-0.231577 22:0.0562347 23:0.0980247 24:-0.0224653 
19.1277 1:-1 2:-1 3:0.101693 4:-1 5:-1 6:0.155561 7:-0.164429 8:0.401339 9:0.488162 10:-1 11:-0.251418 12:-0.145293 13:0.143232 14:-0.121692 15:0.296178 16:0.0407419 17:-0.232737 18:0.574745 19:0.0714164 20:0.462187 21:0.434334 22:0.459386 23:0.235655 24:0.509643 
19.1277 1:-1 2:-1 3:0.428048 4:-1 5:-1 6:0.0782427 7:0.11516 8:0.183607 9:0.76212 10:-1 11:-0.882248 12:0.251391 13:0.391414 14:-0.0497594 15:0.331592 16:0.223221 17:-0.243863 18:0.604777 19:0.187751 20:0.29674 21:0.337798 22:0.269976 23:-0.0986581 24:0.556709 
-19.1277 1:-0.980713 2:-0.967085 3:-0.654946 4:-0.664088 5:-0.972078 6:-0.953849 7:-0.967652 8:-0.669651 9:-0.895381 10:-1 11:-0.946997 12:-0.855292 13:-0.913553 14:-0.919016 15:-0.887461 16:-0.871202 17:-0.93303 18:-0.891553 19:-0.887887 20:-0.921331 21:-0.902345 22:-0.903162 23:-0.909884 24:-0.916336 
-19.1277 1:-0.806184 2:-0.296126 3:-0.458968 4:-0.832624 5:-0.949101 6:-0.120675 7:-0.955059 8:-0.575043 9:-0.818398 10:-0.698464 11:-0.679971 12:-0.413077 13:-0.884643 14:-0.526634 15:-0.365004 16:-0.888616 17:-0.950111 18:0.0690347 19:-0.890376 20:-0.615231 21:-0.890044 22:-0.877797 23:-0.638718 24:-0.208089 
-19.1277 1:-0.65709 2:-0.696047 3:-0.213156 4:-0.904899 5:-0.988653 6:-0.281752 7:-0.878849 8:-0.343412 9:-0.651321 10:-0.687628 11:-0.731669 12:-0.446352 13:-0.789952 14:-0.758607 15:-0.314551 16:-0.763923 17:-0.841836 18:-0.115742 19:-0.805437 20:-0.4053 21:-0.821023 22:-0.753671 23:-0.704207 24:-0.39137 
-19.1277 1:-0.937802 2:-0.980709 3:-0.248729 4:-1 5:-0.995746 6:-0.326034 7:-0.850066 8:-0.148164 9:-0.518381 10:-0.734988 11:-0.576752 12:-0.355392 13:-0.711251 14:-0.734707 15:-0.276921 16:-0.631716 17:-0.770453 18:0.0832622 19:-0.713375 20:-0.116712 21:-0.696704 22:-0.624333 23:-0.512056 24:-0.195244 
-19.1277 1:-0.506296 2:-0.991029 3:-0.326117 4:-0.371482 5:-0.972231 6:-0.222201 7:-0.850573 8:-0.153738 9:-0.221606 10:-0.662039 11:-0.524437 12:-0.195241 13:-0.601889 14:-0.610997 15:0.0117973 16:-0.600778 17:-0.704802 18:0.0518197 19:-0.638796 20:-0.359862 21:-0.576925 22:-0.535572 23:-0.462595 24:0.00305966 
-19.1277 1:-0.637776 2:-0.967019 3:0.127725 4:-0.453433 5:-0.999142 6:-0.0516809 7:-0.873783 8:-0.149 9:-0.150671 10:-0.54731 11:-0.651712 12:-0.265594 13:-0.562853 14:-0.586294 15:0.144184 16:-0.492727 17:-0.663252 18:0.0544479 19:-0.625816 20:-0.504692 21:-0.515163 22:-0.377284 23:-0.4574 24:0.122784 
-19.1277 1:-0.602581 2:-0.983269 3:0.217285 4:-0.597995 5:-0.983636 6:0.0447369 7:-0.823173 8:-0.0606567 9:-0.211377 10:-0.657832 11:-0.613617 12:-0.229713 13:-0.459778 14:-0.558766 15:0.142062 16:-0.427059 17:-0.635233 18:0.131507 19:-0.566113 20:-0.530403 21:-0.397249 22:-0.299015 23:-0.438153 24:0.179388 
-19.1277 1:-0.871946 2:-0.98775 3:-0.116159 4:-0.868158 5:-0.990681 6:-0.273949 7:-0.82612 8:0.317956 9:-0.0767381 10:-0.604605 11:-0.0523224 12:-0.295375 13:-0.503256 14:-0.549795 15:0.0456302 16:-0.506342 17:-0.618136 18:0.211623 19:-0.568518 20:0.116364 21:-0.440232 22:-0.345874 23:0.000735891 24:0.0342617 
-19.1277 1:-0.537568 2:-0.987392 3:-0.498217 4:-0.519706 5:-0.988562 6:-0.293078 7:-0.8364 8:-0.00312421 9:-0.39453 10:-0.616853 11:-0.185832 12:-0.42367 13:-0.658146 14:-0.676529 15:-0.0869098 16:-0.655075 17:-0.73436 18:-0.0726275 19:-0.681128 20:-0.230613 21:-0.551693 22:-0.537336 23:-0.245921 24:-0.0628844 
-19.1277 1:-0.777333 2:-0.986942 3:-0.135852 4:-1 5:-0.99454 6:-0.316905 7:-0.842679 8:0.0272092 9:-0.511831 10:-0.996183 11:-0.497625 12:-0.326879 13:-0.779095 14:-0.805273 15:-0.250742 16:-0.734782 17:-0.810822 18:-0.0274427 19:-0.803771 20:-0.305258 21:-0.727974 22:-0.75534 23:-0.473006 24:-0.325062 
-19.1277 1:-0.811755 2:-0.975782 3:-0.132236 4:-0.734623 5:-0.999011 6:-0.426406 7:-0.874143 8:-0.116326 9:-0.511374 10:-0.615496 11:-0.669839 12:-0.472435 13:-0.766473 14:-0.775789 15:-0.392226 16:-0.740676 17:-0.865237 18:-0.156114 19:-0.785247 20:-0.409413 21:-0.735336 22:-0.769696 23:-0.616133 24:-0.489687 
19.1277 1:-1 2:-1 3:0.560495 4:-1 5:-1 6:0.37649 7:0.142969 8:0.153535 9:0.223496 10:-0.674519 11:0.080617 12:-0.147566 13:0.249992 14:-0.0607828 15:0.255026 16:0.274434 17:-0.173824 18:0.585365 19:0.236058 20:-0.119896 21:0.49471 22:0.15956 23:0.137242 24:-0.0372173 
19.1277 1:-1 2:-1 3:0.285964 4:-1 5:-1 6:0.163212 7:0.425709 8:0.173757 9:0.713097 10:-1 11:-0.34592 12:-0.0730507 13:0.450255 14:0.266206 15:0.535361 16:0.433703 17:0.0942498 18:0.741611 19:0.534603 20:0.0581523 21:0.682597 22:0.519071 23:0.222542 24:0.304476 
19.1277 1:-1 2:-1 3:0.361059 4:-1 5:-1 6:0.0702203 7:0.282923 8:0.274431 9:0.816663 10:-1 11:-0.557171 12:-0.0245637 13:0.498217 14:0.172797 15:0.288015 16:0.467965 17:-0.146116 18:0.718471 19:0.255156 20:0.155069 21:0.658309 22:0.475175 23:0.116892 24:0.445716 
19.1277 1:-1 2:-1 3:0.485605 4:-1 5:-1 6:0.109106 7:0.155843 8:0.330007 9:0.730997 10:-1 11:-0.649909 12:-0.119277 13:0.48722 14:0.0166639 15:0.374275 16:0.204548 17:-0.0987036 18:0.58672 19:0.208271 20:0.169253 21:0.787876 22:0.270577 23:-0.06693 24:0.25205 
19.1277 1:-1 2:-1 3:0.351316 4:-1 5:-1 6:0.1584 7:0.180917 8:0.524863 9:0.887663 10:-1 11:-0.538422 12:-0.000186832 13:0.609525 14:0.211557 15:0.528816 16:0.429908 17:-0.151073 18:0.683684 19:0.43242 20:0.37436 21:0.779481 22:0.460873 23:0.0574131 24:0.441457 
19.1277 1:-1 2:-1 3:0.522212 4:-1 5:-1 6:0.248532 7:-0.0317035 8:0.308956 9:0.507442 10:-1 11:-0.457698 12:0.224111 13:0.62137 14:0.185498 15:0.505188 16:0.599996 17:-0.0646619 18:0.680385 19:0.415511 20:0.170622 21:0.479444 22:0.430761 23:0.138107 24:0.217221 
19.1277 1:-1 2:-0.987152 3:0.169577 4:-1 5:-1 6:0.282467 7:-0.1215 8:0.127345 9:0.0426688 10:-1 11:-0.229953 12:0.278111 13:0.414767 14:0.0659484 15:0.338315 16:0.210531 17:-0.25986 18:0.445399 19:0.0736439 20:-0.0533901 21:0.248181 22:0.212645 23:0.0351373 24:0.085095 
19.1277 1:-0.495007 2:-0.980748 3:0.215326 4:-1 5:-0.996969 6:0.354918 7:-0.222723 8:0.286595 9:-0.0814314 10:-1 11:-0.0229259 12:0.174833 13:0.0175811 14:-0.175895 15:0.382137 16:0.126565 17:-0.257082 18:0.419172 19:0.0215769 20:0.0176119 21:0.212393 22:0.149555 23:-0.0335056 24:0.0715502 
19.1277 1:-0.529315 2:-0.978386 3:0.208479 4:-0.638287 5:-0.992093 6:0.079757 7:-0.432094 8:0.465552 9:-0.0970564 10:-0.964242 11:-0.117595 12:-0.0543067 13:0.0313742 14:-0.261133 15:0.0839266 16:-0.0716229 17:-0.359202 18:0.211336 19:-0.0855318 20:0.0103983 21:0.339726 22:0.0926604 23:0.123806 24:-0.0390623 
-19.1277 1:-0.731305 2:-0.947481 3:-0.570112 4:-0.625956 5:-0.93071 6:-0.937517 7:-0.868226 8:-0.621863 9:-0.889709 10:-0.28163 11:-0.924548 12:-0.783638 13:-0.736025 14:-0.735183 15:-0.73037 16:-0.579449 17:-0.795856 18:-0.82719 19:-0.710496 20:-0.832903 21:-0.728902 22:-0.684558 23:-0.74303 24:-0.784829 
-19.1277 1:-0.539646 2:-0.978844 3:-0.204056 4:-0.503384 5:-0.982398 6:-0.203095 7:-0.661433 8:-0.375337 9:-0.49415 10:-0.633141 11:-0.645408 12:-0.365244 13:-0.589328 14:-0.646508 15:-0.000265469 16:-0.518714 17:-0.692528 18:-0.131932 19:-0.520505 20:-0.616237 21:-0.60365 22:-0.526149 23:-0.543545 24:-0.0757201 
-19.1277 1:-0.217684 2:-0.980597 3:0.0620009 4:-0.737472 5:-0.995954 6:-0.237352 7:-0.647619 8:0.00520303 9:-0.287661 10:-0.717522 11:-0.204893 12:-0.134815 13:-0.34141 14:-0.332434 15:0.157685 16:-0.169521 17:-0.516478 18:0.131725 19:-0.313794 20:-0.240858 21:-0.378688 22:-0.170107 23:-0.0762012 24:-0.0564533 
19.1277 1:-1 2:-1 3:0.490387 4:-1 5:-1 6:0.298456 7:-0.153462 8:0.261223 9:0.67053 10:-1 11:-0.162576 12:0.304709 13:0.472027 14:0.267832 15:0.522648 16:0.549356 17:-0.108464 18:0.829399 19:0.269087 20:0.368468 21:0.481567 22:0.58118 23:0.217019 24:0.40709 
-19.1277 1:-0.703848 2:-0.147767 3:-0.345966 4:-1 5:-0.804391 6:-0.516843 7:-0.785132 8:-0.0749924 9:-0.79519 10:-0.771732 11:-0.453508 12:-0.589026 13:-0.647553 14:-0.497607 15:-0.453689 16:-0.55871 17:-0.740611 18:-0.0153607 19:-0.675536 20:-0.277437 21:-0.626027 22:-0.668166 23:-0.463877 24:-0.572289 
-19.1277 1:-0.574287 2:-0.202287 3:-0.57524 4:-0.842601 5:-0.840656 6:-0.495023 7:-0.83506 8:-0.164256 9:-0.846521 10:-0.631842 11:-0.336425 12:-0.50789 13:-0.765485 14:-0.472896 15:-0.545845 16:-0.746112 17:-0.813768 18:0.131095 19:-0.770668 20:-0.164235 21:-0.768972 22:-0.771032 23:-0.259255 24:-0.454135 
-19.1277 1:-0.601047 2:-0.586547 3:-0.506271 4:-0.77267 5:-0.857239 6:-0.260507 7:-0.801719 8:-0.30707 9:-0.797054 10:-0.721079 11:-0.516259 12:-0.220556 13:-0.682411 14:-0.381874 15:-0.362532 16:-0.607516 17:-0.777951 18:-0.0970108 19:-0.672949 20:-0.467667 21:-0.676716 22:-0.608758 23:-0.448412 24:-0.121782 
-19.1277 1:-0.654164 2:-0.990563 3:-0.346321 4:-0.865968 5:-0.991735 6:-0.278166 7:-0.897866 8:-0.372654 9:-0.625089 10:-1 11:-0.557855 12:-0.627563 13:-0.847299 14:-0.84375 15:-0.363808 16:-0.834905 17:-0.883846 18:-0.0407396 19:-0.823205 20:-0.531438 21:-0.816153 22:-0.810682 23:-0.612684 24:-0.372964 
-19.1277 1:-0.91511 2:-0.629456 3:-0.489582 4:-0.73524 5:-0.901298 6:-0.263371 7:-0.839423 8:-0.271227 9:-0.822047 10:-0.526914 11:-0.525544 12:-0.205282 13:-0.720707 14:-0.420993 15:-0.36382 16:-0.684259 17:-0.791708 18:-0.108062 19:-0.702358 20:-0.584752 21:-0.661947 22:-0.665644 23:-0.389831 24:-0.125911 
-19.1277 1:-0.451025 2:-0.125128 3:-0.114806 4:-0.760723 5:-0.959188 6:-0.482152 7:-0.758716 8:0.0194666 9:-0.63355 10:-0.796225 11:-0.45043 12:-0.224531 13:-0.63428 14:-0.489216 15:-0.22267 16:-0.624234 17:-0.748245 18:0.0653975 19:-0.651409 20:-0.0989575 21:-0.604407 22:-0.511594 23:-0.177248 24:-0.241774 
-19.1277 1:-0.566683 2:-0.95641 3:-0.120253 4:-0.774873 5:-0.964243 6:-0.309564 7:-0.696468 8:0.00652003 9:-0.4867 10:-0.251686 11:-0.539277 12:-0.299608 13:-0.572795 14:-0.635067 15:-0.19154 16:-0.433798 17:-0.663938 18:0.0836496 19:-0.494199 20:-0.107141 21:-0.466766 22:-0.411824 23:-0.423124 24:-0.131501 
-19.1277 1:-0.704683 2:-0.984855 3:-0.332821 4:-0.554323 5:-0.99592 6:-0.185831 7:-0.800551 8:-0.202167 9:-0.358603 10:-0.654286 11:-0.619682 12:-0.340965 13:-0.576818 14:-0.649801 15:0.00310086 16:-0.512538 17:-0.709117 18:-0.0101091 19:-0.554877 20:-0.439602 21:-0.472939 22:-0.440156 23:-0.565267 24:-0.0556596 
-19.1277 1:-0.777422 2:-0.978549 3:-0.208541 4:-0.689265 5:-0.971339 6:-0.0814378 7:-0.802015 8:-0.181341 9:-0.448163 10:-0.702543 11:-0.509566 12:-0.337445 13:-0.630553 14:-0.690605 15:-0.0165911 16:-0.597518 17:-0.767249 18:0.02541 19:-0.627266 20:-0.494824 21:-0.613416 22:-0.654994 23:-0.533177 24:0.0353657 
-19.1277 1:-0.506146 2:-0.992174 3:-0.0761972 4:-0.831975 5:-0.994321 6:-0.0893623 7:-0.875065 8:-0.211445 9:-0.437408 10:-0.617372 11:-0.292793 12:-0.320693 13:-0.668246 14:-0.703732 15:-0.0347111 16:-0.628108 17:-0.741395 18:-0.0779816 19:-0.712516 20:-0.580075 21:-0.64309 22:-0.642149 23:-0.435908 24:-0.114983 
-19.1277 1:-0.876362 2:-0.997908 3:-0.274376 4:-0.797875 5:-0.992239 6:-0.332648 7:-0.828452 8:-0.441482 9:-0.262749 10:-0.849765 11:-0.837734 12:-0.60647 13:-0.627831 14:-0.682992 15:-0.424458 16:-0.581507 17:-0.745247 18:-0.428443 19:-0.703931 20:-0.685156 21:-0.535549 22:-0.606568 23:-0.649745 24:-0.590991 
19.1277 1:-1 2:-1 3:-0.113428 4:-1 5:-1 6:-0.0488266 7:0.0552613 8:-0.0135798 9:-0.238114 10:0.0321073 11:-0.0971686 12:-0.332132 13:-0.0193346 14:-0.319037 15:0.130459 16:-0.048871 17:-0.318137 18:0.252262 19:0.0277138 20:-0.0925065 21:0.360805 22:-0.129699 23:-0.110137 24:-0.258076 
19.1277 1:-0.732942 2:-0.673558 3:0.195423 4:-0.879998 5:-1 6:-0.11 7:0.308487 8:0.584617 9:0.0647457 10:-0.854529 11:-0.15115 12:0.114161 13:0.123458 14:-0.0299813 15:0.427788 16:0.295461 17:-0.173483 18:0.499057 19:0.414329 20:0.478043 21:0.473349 22:0.0974506 23:0.167394 24:0.118409 
19.1277 1:-1 2:-0.526001 3:0.537683 4:-1 5:-1 6:-0.0687777 7:0.317769 8:0.660007 9:0.11152 10:-1 11:-0.383338 12:0.109737 13:0.576623 14:0.26738 15:0.347214 16:0.797518 17:-0.0889608 18:0.432393 19:0.442256 20:0.294017 21:0.361752 22:0.406585 23:0.144744 24:0.167406 
19.1277 1:-1 2:-1 3:0.232902 4:-1 5:-1 6:0.315787 7:0.0518767 8:0.478582 9:0.810457 10:-1 11:0.158945 12:0.209201 13:0.632234 14:0.506699 15:0.594307 16:0.735577 17:0.018266 18:0.885785 19:0.499158 20:0.570844 21:0.658426 22:0.553705 23:0.363744 24:0.412272 
19.1277 1:-1 2:-1 3:0.379759 4:-1 5:-1 6:0.335056 7:0.310041 8:0.241175 9:0.833343 10:-1 11:-0.458289 12:0.0470363 13:0.644532 14:0.346018 15:0.599243 16:0.42933 17:0.059473 18:0.540454 19:0.663736 20:0.193477 21:0.605038 22:0.687889 23:0.283345 24:0.655063 
19.1277 1:-1 2:-1 3:0.429638 4:-1 5:-1 6:0.103297 7:0.613211 8:0.288283 9:0.85571 10:-1 11:-0.644926 12:0.0920688 13:0.652811 14:0.108757 15:0.276092 16:0.427233 17:-0.130033 18:0.584689 19:0.495197 20:0.335607 21:0.878908 22:0.457454 23:0.184756 24:0.34808 
19.1277 1:-1 2:-1 3:0.312701 4:-1 5:-1 6:0.385383 7:0.19786 8:0.366294 9:0.872636 10:-1 11:-0.412966 12:0.25864 13:0.710832 14:0.182089 15:0.405501 16:0.602717 17:-0.139553 18:0.805453 19:0.455713 20:0.423721 21:0.80212 22:0.283737 23:0.128137 24:0.192004 
19.1277 1:-1 2:-1 3:0.645649 4:-1 5:-1 6:0.458863 7:0.229932 8:-0.0816544 9:0.664115 10:-1 11:-0.857523 12:0.102939 13:0.694555 14:0.340488 15:0.694121 16:0.464426 17:-0.0225305 18:0.757809 19:0.636155 20:0.00429518 21:0.576372 22:0.500304 23:0.102222 24:0.541533 
19.1277 1:-1 2:-1 3:0.0341251 4:-1 5:-1 6:0.0600792 7:-0.160958 8:0.116869 9:0.105804 10:-1 11:-0.243563 12:0.165714 13:0.334246 14:0.0636665 15:0.335478 16:0.172053 17:-0.199593 18:0.635058 19:0.0242373 20:0.112409 21:0.346409 22:0.30802 23:0.152007 24:0.140924 
19.1277 1:-0.577094 2:-0.983027 3:0.281528 4:-0.792416 5:-0.985535 6:0.0592068 7:-0.31727 8:0.237537 9:-0.229472 10:-0.668022 11:-0.311554 12:-0.105863 13:0.04039 14:-0.183736 15:0.303292 16:0.0728638 17:-0.307509 18:0.346872 19:-0.0716421 20:0.00483649 21:0.0721782 22:0.0335251 23:-0.113262 24:0.0551779 
19.1277 1:-0.345102 2:-0.95141 3:0.230201 4:-0.649874 5:-0.981769 6:0.137211 7:-0.352676 8:0.251394 9:-0.0883908 10:-0.487359 11:0.43826 12:-0.105466 13:-0.107502 14:-0.385503 15:0.00100633 16:-0.207663 17:-0.497768 18:0.251093 19:-0.308089 20:-0.229297 21:-0.00297801 22:-0.10245 23:-0.0108072 24:-0.15843 
-19.1277 1:-0.626778 2:-0.669708 3:-0.208348 4:-1 5:-0.851239 6:-0.413171 7:-0.719441 8:-0.222232 9:-0.796287 10:-1 11:-0.642813 12:-0.570827 13:-0.443946 14:-0.493165 15:-0.345838 16:-0.362853 17:-0.658793 18:-0.377352 19:-0.533167 20:-0.533204 21:-0.38206 22:-0.453745 23:-0.474285 24:-0.575245 
-19.1277 1:-0.450155 2:-0.779415 3:-0.327193 4:-0.692723 5:-0.986497 6:-0.439486 7:-0.840942 8:-0.362136 9:-0.684436 10:-0.461203 11:-0.669774 12:-0.454905 13:-0.809151 14:-0.751457 15:-0.187306 16:-0.75905 17:-0.856752 18:-0.152106 19:-0.800945 20:-0.45241 21:-0.812034 22:-0.752322 23:-0.511042 24:-0.332988 
-19.1277 1:-0.676183 2:-0.361975 3:-0.152503 4:-0.753926 5:-0.982895 6:-0.438949 7:-0.719262 8:-0.00105917 9:-0.455227 10:-0.501656 11:-0.346503 12:-0.176346 13:-0.524924 14:-0.453664 15:-0.126155 16:-0.424123 17:-0.675428 18:0.201923 19:-0.522799 20:-0.0714911 21:-0.584018 22:-0.411726 23:-0.0909693 24:-0.147654 
-19.1277 1:-0.195318 2:-0.986974 3:-0.00861926 4:-0.704048 5:-0.994649 6:-0.299221 7:-0.664973 8:0.278868 9:-0.14679 10:-0.726416 11:-0.118979 12:-0.0171566 13:-0.28658 14:-0.387501 15:0.0795318 16:-0.227474 17:-0.538038 18:0.228627 19:-0.336671 20:0.165216 21:-0.293494 22:-0.104535 23:0.234437 24:-0.0160073 
-19.1277 1:-0.904124 2:-0.98512 3:0.174116 4:-0.698886 5:-0.993738 6:0.0208088 7:-0.633063 8:-0.0353874 9:0.0173785 10:-0.860355 11:-0.493831 12:-0.0545716 13:-0.244342 14:-0.287802 15:0.196136 16:-0.126977 17:-0.466778 18:0.200225 19:-0.167578 20:-0.433001 21:-0.239986 22:0.000857494 23:-0.181402 24:0.319529 
-19.1277 1:-0.700938 2:-1 3:0.204333 4:-0.898325 5:-1 6:-0.125806 7:-0.504087 8:0.230493 9:-0.0525629 10:-0.863753 11:-0.304337 12:-0.311939 13:-0.288251 14:-0.332052 15:0.184523 16:-0.172744 17:-0.462868 18:0.360633 19:-0.242039 20:-0.0189217 21:-0.160459 22:-0.0484645 23:-0.0236924 24:-0.0611893 
-19.1277 1:-0.329977 2:-0.978919 3:0.0235415 4:-0.760777 5:-1 6:-0.183478 7:-0.653422 8:0.440334 9:0.0543474 10:-1 11:0.127157 12:0.0924553 13:-0.343983 14:-0.367645 15:0.160219 16:-0.204714 17:-0.496274 18:0.370168 19:-0.291335 20:0.292858 21:-0.153542 22:-0.00533135 23:0.322011 24:0.190116 
-19.1277 1:-0.62905 2:-0.98071 3:0.112419 4:-0.666102 5:-0.990862 6:0.104091 7:-0.679995 8:0.370017 9:0.167491 10:-1 11:0.216432 12:0.0442865 13:-0.20757 14:-0.305451 15:0.258204 16:-0.223884 17:-0.419823 18:0.350512 19:-0.240374 20:-0.0205667 21:-0.0900017 22:0.158114 23:0.232966 24:0.336822 
-19.1277 1:-0.926119 2:-1 3:0.111331 4:-0.683499 5:-0.994169 6:-0.221265 7:-0.635941 8:0.031501 9:-0.142335 10:-0.733848 11:0.168289 12:-0.223074 13:-0.400609 14:-0.421894 15:0.00440757 16:-0.279238 17:-0.505465 18:0.173863 19:-0.428732 20:-0.349418 21:-0.284585 22:-0.0836728 23:-0.000185049 24:-0.183509 
-19.1277 1:-0.345136 2:-0.994598 3:-0.139955 4:-0.624913 5:-0.99513 6:-0.361298 7:-0.744176 8:0.0029507 9:-0.424698 10:-0.756028 11:-0.111964 12:-0.325729 13:-0.594198 14:-0.613017 15:-0.208434 16:-0.500689 17:-0.693689 18:0.0241922 19:-0.572986 20:-0.238299 21:-0.467045 22:-0.351608 23:-0.0119338 24:-0.22619 
-19.1277 1:-0.192908 2:-0.993245 3:-0.418236 4:-0.649498 5:-0.993171 6:-0.263802 7:-0.765854 8:0.240938 9:-0.282472 10:-0.712588 11:-0.505951 12:-0.554093 13:-0.579096 14:-0.654046 15:-0.104756 16:-0.576735 17:-0.767457 18:0.103041 19:-0.654797 20:-0.143053 21:-0.527727 22:-0.582777 23:-0.523668 24:-0.334003 
-19.1277 1:-0.744649 2:-0.869659 3:-0.340943 4:-0.643223 5:-0.990813 6:-0.463179 7:-0.870741 8:-0.258583 9:-0.612641 10:-0.501549 11:-0.777866 12:-0.572533 13:-0.646269 14:-0.673814 15:-0.333954 16:-0.564789 17:-0.754376 18:-0.349887 19:-0.704739 20:-0.628635 21:-0.579633 22:-0.628001 23:-0.649663 24:-0.619758 
-19.1277 1:-0.858015 2:-0.730508 3:-0.0550689 4:-0.9397 5:-0.994091 6:-0.221421 7:-0.916829 8:-0.283734 9:-0.592567 10:-0.794936 11:-0.746509 12:-0.447403 13:-0.730154 14:-0.745444 15:-0.182626 16:-0.697186 17:-0.821705 18:-0.12905 19:-0.770856 20:-0.569822 21:-0.642866 22:-0.708046 23:-0.608671 24:-0.487566 
-19.1277 1:-0.351767 2:-0.758019 3:-0.20251 4:-0.917964 5:-0.992527 6:-0.380282 7:-0.842983 8:0.0251032 9:-0.58449 10:1 11:-0.52686 12:-0.375678 13:-0.659985 14:-0.72554 15:-0.20432 16:-0.636948 17:-0.814407 18:-0.0119265 19:-0.743297 20:-0.256802 21:-0.636054 22:-0.660226 23:-0.43066 24:-0.433813 
-19.1277 1:-0.779768 2:-0.992173 3:-0.154788 4:-0.807774 5:-0.996852 6:-0.249598 7:-0.751423 8:-0.264001 9:-0.572565 10:-0.745108 11:-0.103347 12:-0.514136 13:-0.683005 14:-0.759152 15:-0.204527 16:-0.68172 17:-0.795337 18:-0.0478824 19:-0.732407 20:-0.580053 21:-0.687171 22:-0.686691 23:-0.423285 24:-0.478268 
-19.1277 1:-0.844433 2:-0.981204 3:-0.198374 4:-0.775151 5:-0.988635 6:-0.213455 7:-0.805106 8:-0.271399 9:-0.585874 10:-0.983279 11:-0.413508 12:-0.511787 13:-0.732265 14:-0.783886 15:-0.235789 16:-0.731971 17:-0.828161 18:-0.119358 19:-0.759172 20:-0.558583 21:-0.660751 22:-0.717298 23:-0.506235 24:-0.49191 
-19.1277 1:-0.806013 2:-0.76973 3:-0.332843 4:-0.694333 5:-0.980594 6:-0.456424 7:-0.763819 8:-0.0463877 9:-0.620735 10:-1 11:-0.563536 12:-0.311733 13:-0.685625 14:-0.778299 15:-0.215868 16:-0.700219 17:-0.825632 18:0.0466027 19:-0.752332 20:-0.220697 21:-0.723881 22:-0.739242 23:-0.486548 24:-0.436505 
-19.1277 1:-0.640771 2:-0.961813 3:-0.0948767 4:-0.627394 5:-0.992097 6:-0.32036 7:-0.676747 8:-0.0892747 9:-0.465781 10:-0.842653 11:-0.517428 12:-0.306874 13:-0.545776 14:-0.653143 15:-0.0589405 16:-0.570898 17:-0.744136 18:0.0610372 19:-0.5523 20:-0.289319 21:-0.570679 22:-0.560491 23:-0.448554 24:-0.225277 
-19.1277 1:-0.594028 2:-0.990983 3:-0.145711 4:-0.722401 5:-0.988414 6:-0.241551 7:-0.788651 8:-0.0407904 9:-0.354039 10:-0.562594 11:-0.256566 12:-0.239426 13:-0.602344 14:-0.628611 15:-0.0649805 16:-0.539643 17:-0.700891 18:0.0743902 19:-0.575925 20:-0.090941 21:-0.526158 22:-0.437204 23:-0.253465 24:-0.0903071 
-19.1277 1:-0.712218 2:-0.965514 3:-0.323597 4:-0.88022 5:-0.989823 6:-0.411997 7:-0.796365 8:-0.102629 9:-0.565595 10:-0.592161 11:-0.56555 12:-0.363886 13:-0.703391 14:-0.705301 15:-0.133117 16:-0.657422 17:-0.76261 18:0.12775 19:-0.691888 20:-0.22775 21:-0.543463 22:-0.548852 23:-0.374119 24:-0.0109321 
-19.1277 1:-0.89709 2:-0.990786 3:-0.153213 4:-0.629996 5:-0.992811 6:-0.390777 7:-0.857384 8:-0.0268494 9:-0.486942 10:-0.725451 11:-0.70022 12:-0.347916 13:-0.661031 14:-0.711887 15:-0.193422 16:-0.619146 17:-0.773794 18:-0.0462714 19:-0.711467 20:-0.28241 21:-0.620275 22:-0.673091 23:-0.539834 24:-0.328406 
-19.1277 1:-1 2:-0.871485 3:-0.831954 4:-0.860035 5:-0.995749 6:-0.866797 7:-0.990733 8:-0.882863 9:-0.920915 10:-0.778313 11:-0.939693 12:-0.920952 13:-0.962622 14:-0.887142 15:-0.853408 16:-0.972479 17:-0.99288 18:-0.610612 19:-0.938761 20:-0.888633 21:-0.967098 22:-0.952563 23:-0.9473 24:-0.85697 
-19.1277 1:-1 2:-0.990344 3:-1 4:-1 5:-0.995644 6:-0.958349 7:-0.987728 8:-1 9:-0.997383 10:-1 11:-0.988293 12:-0.982972 13:-1 14:-0.991909 15:-0.944407 16:-0.970878 17:-0.98093 18:-0.885051 19:-0.921428 20:-0.972724 21:-0.970834 22:-0.924062 23:-0.881295 24:-0.936709 
-19.1277 1:-0.33843 2:-0.957072 3:-0.989677 4:-0.817819 5:-0.990654 6:-0.970577 7:-0.981926 8:-0.978908 9:-0.974075 10:-0.930053 11:-0.975505 12:-0.977251 13:-0.963527 14:-0.950809 15:-0.978716 16:-0.967113 17:-1 18:-0.969492 19:-0.980801 20:-1 21:-0.974867 22:-0.98611 23:-0.909808 24:-0.900872 
-19.1277 1:-0.547003 2:-1 3:-0.921762 4:-0.665766 5:-0.992803 6:-0.784476 7:-0.992181 8:-0.939618 9:-0.985318 10:-0.619841 11:-0.949948 12:-0.9014 13:-0.980636 14:-0.97386 15:-0.863727 16:-0.965458 17:-0.995914 18:-0.69973 19:-0.953522 20:-0.930275 21:-0.941891 22:-1 23:-0.94576 24:-0.811539 
-19.1277 1:-1 2:-0.986613 3:-0.904931 4:-0.827039 5:-0.990638 6:-0.57579 7:-0.983287 8:-0.719499 9:-0.932211 10:-0.476479 11:-0.929188 12:-0.829493 13:-1 14:-1 15:-0.699051 16:-0.939746 17:-0.97512 18:-0.416878 19:-0.950085 20:-0.766663 21:-0.991787 22:-0.93367 23:-0.866571 24:-0.533646 
-19.1277 1:-1 2:-0.965743 3:-0.405791 4:-0.786425 5:-0.984874 6:-0.203563 7:-1 8:-0.510945 9:-0.767074 10:-0.360034 11:-0.651283 12:-0.556116 13:-0.93843 14:-0.962419 15:-0.411521 16:-0.929394 17:-0.952296 18:0.151411 19:-0.934312 20:-0.575005 21:-0.965017 22:-0.946491 23:-0.207866 24:-0.176896 
-19.1277 1:-0.726118 2:-0.985619 3:-0.551942 4:-0.756751 5:-0.987257 6:-0.217414 7:-0.93688 8:-0.381258 9:-0.767832 10:-0.155877 11:-0.562786 12:-0.65436 13:-0.915622 14:-0.90658 15:-0.277107 16:-0.880816 17:-0.9251 18:0.0833888 19:-0.90655 20:-0.323169 21:-0.891843 22:-0.90191 23:-0.456086 24:-0.378757 
-19.1277 1:-0.711895 2:-0.994669 3:-0.680417 4:-0.647272 5:-0.987358 6:-0.26695 7:-0.984769 8:-0.524742 9:-0.800824 10:-1 11:-0.803221 12:-0.695376 13:-0.970785 14:-0.967389 15:-0.216297 16:-0.955923 17:-0.965378 18:0.0560391 19:-0.957519 20:-0.35829 21:-0.921854 22:-0.93105 23:-0.556057 24:-0.313408 
-19.1277 1:-0.912021 2:-0.910813 3:-0.562699 4:-0.720523 5:-0.989534 6:-0.341173 7:-0.96964 8:-0.676598 9:-0.750398 10:-1 11:-0.885964 12:-0.725783 13:-0.953692 14:-0.919154 15:-0.63347 16:-0.913818 17:-0.949428 18:-0.168474 19:-0.940718 20:-0.788641 21:-0.90914 22:-0.915523 23:-0.822789 24:-0.54334 
-19.1277 1:-0.67726 2:-0.990778 3:-0.789438 4:-0.758475 5:-1 6:-0.705555 7:-0.96041 8:-0.796776 9:-0.864965 10:-0.851174 11:-0.859209 12:-0.853112 13:-0.990827 14:-0.991996 15:-0.658987 16:-0.960754 17:-0.982877 18:-0.35268 19:-0.976585 20:-0.759944 21:-0.97157 22:-0.910848 23:-0.738922 24:-0.672653 
-19.1277 1:-0.813425 2:-0.862438 3:-0.7998 4:-1 5:-0.883362 6:-0.490935 7:-0.974789 8:-0.786198 9:-0.957004 10:-0.559689 11:-0.84946 12:-0.835404 13:-0.962339 14:-0.583689 15:-0.589038 16:-1 17:-0.983662 18:-0.290305 19:-0.954908 20:-0.678338 21:-1 22:-0.980999 23:-0.778481 24:-0.530514 
-19.1277 1:-0.353065 2:-0.703375 3:-0.825255 4:-1 5:-0.874709 6:-0.537291 7:-0.955392 8:-0.780043 9:-0.953915 10:-0.641727 11:-0.757674 12:-0.849522 13:-1 14:-0.732299 15:-0.765315 16:-0.984962 17:-0.803917 18:-0.158888 19:-0.958371 20:-0.696685 21:-0.998306 22:-0.902428 23:-0.694182 24:-0.701171 
-19.1277 1:-0.714412 2:-0.967132 3:-0.768017 4:-0.813513 5:-0.998994 6:-0.595196 7:-0.985734 8:-0.783123 9:-0.85231 10:-1 11:-0.94555 12:-0.80973 13:-0.991261 14:-1 15:-0.664119 16:-0.934425 17:-0.972948 18:-0.201137 19:-0.961763 20:-0.713432 21:-0.985356 22:-0.980046 23:-0.811521 24:-0.545916 
-19.1277 1:-1 2:-1 3:-0.799419 4:-0.726753 5:-0.979521 6:-0.59943 7:-0.974468 8:-0.775839 9:-0.907168 10:-0.322427 11:-0.906797 12:-0.851695 13:-0.989976 14:-0.968732 15:-0.610276 16:-0.961673 17:-0.968354 18:-0.329844 19:-0.978017 20:-0.689431 21:-0.977651 22:-0.888984 23:-0.766317 24:-0.636419 
-19.1277 1:-0.570896 2:-0.650231 3:-0.819026 4:-0.801465 5:-0.83674 6:-0.353664 7:-0.993443 8:-0.791017 9:-0.957084 10:0.0279138 11:-0.729573 12:-0.801952 13:-0.976856 14:-0.636753 15:-0.691222 16:-0.925978 17:-0.737582 18:-0.1228 19:-0.997935 20:-0.755875 21:-0.998999 22:-0.987594 23:-0.547731 24:-0.514228 
-19.1277 1:-0.2196 2:-0.725512 3:-0.753507 4:-0.607173 5:-0.974533 6:-0.466855 7:-0.978429 8:-0.801863 9:-0.931651 10:-1 11:-0.88985 12:-0.74148 13:-0.981594 14:-0.690056 15:-0.597483 16:-0.9702 17:-0.978474 18:-0.243027 19:-0.962543 20:-0.816923 21:-0.988841 22:-0.985916 23:-0.825158 24:-0.441964 
-19.1277 1:-1 2:-0.835 3:-0.813782 4:-0.730755 5:-0.704912 6:-0.39663 7:-0.98866 8:-0.721044 9:-0.991436 10:-0.695476 11:-0.805236 12:-0.808168 13:-0.965997 14:-0.3917 15:-0.772397 16:-0.991325 17:-0.635935 18:0.0612741 19:-1 20:-0.63245 21:-0.958904 22:-0.956709 23:-0.549186 24:-0.532875 
-19.1277 1:-1 2:-0.979851 3:-0.720631 4:-0.689399 5:-0.987172 6:-0.360201 7:-0.987838 8:-0.791916 9:-0.856136 10:-0.748036 11:-0.86595 12:-0.768758 13:-0.929401 14:-0.983611 15:-0.50216 16:-1 17:-0.980414 18:-0.213163 19:-0.951516 20:-0.769218 21:-0.969863 22:-0.994662 23:-0.84591 24:-0.460739 
-19.1277 1:-0.681076 2:-0.700584 3:-0.746729 4:-1 5:-0.981093 6:-0.598457 7:-0.978712 8:-0.749419 9:-0.881943 10:-1 11:-0.902325 12:-0.758243 13:-0.994731 14:-0.740111 15:-0.663401 16:-1 17:-0.967365 18:-0.0985605 19:-1 20:-0.633789 21:-0.945407 22:-1 23:-0.812299 24:-0.407871 
-19.1277 1:-1 2:-0.726142 3:-0.732228 4:-0.773878 5:-0.97071 6:-0.430552 7:-0.929014 8:-0.775753 9:-0.896745 10:-0.568882 11:-0.859484 12:-0.686993 13:-0.979587 14:-0.738265 15:-0.57519 16:-0.964656 17:-0.967912 18:-0.107159 19:-0.945137 20:-0.713907 21:-0.958635 22:-0.945378 23:-0.832293 24:-0.493536 
-19.1277 1:-0.513188 2:-0.757832 3:-0.820259 4:-0.48406 5:-0.60986 6:-0.445333 7:-0.961684 8:-0.71468 9:-0.995882 10:-0.693637 11:-0.766451 12:-0.864028 13:-0.958802 14:-0.380139 15:-0.762423 16:-0.951208 17:-0.679585 18:-0.01241 19:-0.951616 20:-0.640089 21:-0.967517 22:-0.963041 23:-0.56012 24:-0.567375 
-19.1277 1:-1 2:-0.877843 3:-0.755714 4:-0.735877 5:-0.99041 6:-0.543488 7:-0.978592 8:-0.762101 9:-0.926043 10:-1 11:-0.880028 12:-0.783198 13:-1 14:-0.876522 15:-0.496036 16:-0.974563 17:-1 18:-0.178656 19:-0.991165 20:-0.731257 21:-0.9761 22:-0.981857 23:-0.709078 24:-0.527084 
-19.1277 1:-1 2:-0.747714 3:-0.794769 4:-1 5:-0.992822 6:-0.584319 7:-0.97203 8:-0.835286 9:-0.932174 10:-1 11:-0.88688 12:-0.782773 13:-0.93416 14:-0.832561 15:-0.754028 16:-0.963831 17:-0.984264 18:-0.210371 19:-0.978976 20:-0.728598 21:-0.951784 22:-0.954322 23:-0.825662 24:-0.548878 
-19.1277 1:-0.820817 2:-0.748322 3:-0.825307 4:-0.795258 5:-0.965495 6:-0.618408 7:-0.979142 8:-0.786654 9:-0.942699 10:-0.56432 11:-0.892187 12:-0.767967 13:-0.948348 14:-0.846928 15:-0.638428 16:-0.966464 17:-0.973215 18:-0.227034 19:-0.972634 20:-0.707675 21:-0.974423 22:-0.931261 23:-0.776437 24:-0.454047 
-19.1277 1:-0.793042 2:-0.802535 3:-0.812149 4:-0.678147 5:-0.861035 6:-0.404528 7:-0.990834 8:-0.820913 9:-0.928479 10:-0.643949 11:-0.792285 12:-0.846224 13:-0.993971 14:-0.629599 15:-0.570725 16:-1 17:-0.874833 18:-0.188512 19:-1 20:-0.828106 21:-0.946911 22:-0.949497 23:-0.687038 24:-0.524048 
-19.1277 1:-0.858386 2:-0.654439 3:-0.859235 4:-0.905877 5:-0.815296 6:-0.277802 7:-0.975949 8:-0.831228 9:-0.957783 10:-0.455483 11:-0.677196 12:-0.759822 13:-1 14:-0.470838 15:-0.662707 16:-0.974938 17:-0.799508 18:-0.0996795 19:-0.983135 20:-0.806446 21:-0.965638 22:-0.93446 23:-0.617828 24:-0.5588 
-19.1277 1:-1 2:-0.528978 3:-0.820521 4:-0.7271 5:-0.82817 6:-0.254705 7:-0.964411 8:-0.775622 9:-0.979657 10:-1 11:-0.622975 12:-0.718512 13:-0.987504 14:-0.542981 15:-0.661791 16:-0.969496 17:-0.778044 18:0.0674315 19:-0.936556 20:-0.710488 21:-0.990547 22:-0.946583 23:-0.508844 24:-0.419571 
-19.1277 1:-0.151481 2:-0.98218 3:-0.806074 4:-0.682513 5:-0.993728 6:-0.551215 7:-0.984312 8:-0.719394 9:-0.843373 10:-0.896827 11:-0.900417 12:-0.723383 13:-0.970199 14:-0.961454 15:-0.606443 16:-0.993304 17:-0.985016 18:-0.0241684 19:-0.978709 20:-0.521071 21:-1 22:-0.944039 23:-0.63972 24:-0.468464 
-19.1277 1:-0.391963 2:-0.988421 3:-0.7297 4:-0.689968 5:-0.990473 6:-0.544978 7:-0.960279 8:-0.784459 9:-0.867095 10:-0.777238 11:-0.924762 12:-0.778868 13:-0.967528 14:-0.9562 15:-0.631174 16:-0.996367 17:-0.992266 18:-0.0971738 19:-0.900899 20:-0.663678 21:-0.986145 22:-0.966444 23:-0.750349 24:-0.459292 
-19.1277 1:-0.729486 2:-0.788778 3:-0.80178 4:-0.824421 5:-1 6:-0.565831 7:-0.995139 8:-0.728924 9:-0.895659 10:-0.975245 11:-0.889325 12:-0.762128 13:-0.976522 14:-0.871236 15:-0.512566 16:-0.96984 17:-0.976418 18:-0.20968 19:-0.998607 20:-0.643215 21:-0.984043 22:-0.993379 23:-0.705836 24:-0.509044 
-19.1277 1:-0.719924 2:-0.756122 3:-0.833288 4:-0.635687 5:-0.871197 6:-0.491983 7:-0.960962 8:-0.638448 9:-0.956473 10:0.17176 11:-0.743247 12:-0.829295 13:-0.982354 14:-0.673008 15:-0.603506 16:-0.967629 17:-0.788396 18:0.029115 19:-0.975108 20:-0.420294 21:-0.888326 22:-0.975558 23:-0.588618 24:-0.446983 
-19.1277 1:-0.757658 2:-1 3:-0.783899 4:-0.833996 5:-0.995221 6:-0.598248 7:-1 8:-0.732957 9:-0.827188 10:-0.538633 11:-0.903169 12:-0.74182 13:-0.993842 14:-0.982443 15:-0.591139 16:-0.989753 17:-0.98002 18:-0.108157 19:-0.954104 20:-0.582679 21:-0.973768 22:-0.962306 23:-0.686815 24:-0.502386 
-19.1277 1:-0.337606 2:-0.662336 3:-0.84968 4:-0.846191 5:-0.812779 6:-0.173346 7:-0.956541 8:-0.782138 9:-0.989023 10:-0.694665 11:-0.640666 12:-0.72073 13:-0.944777 14:-0.379908 15:-0.605674 16:-0.942711 17:-0.738535 18:-0.0831328 19:-0.987733 20:-0.773369 21:-0.998922 22:-0.9437 23:-0.518022 24:-0.457318 
-19.1277 1:-0.868679 2:-0.918145 3:-0.702458 4:-0.577766 5:-0.996894 6:-0.348379 7:-0.966591 8:-0.732919 9:-0.854418 10:-0.73108 11:-0.857917 12:-0.785429 13:-0.986739 14:-0.848678 15:-0.409158 16:-0.953256 17:-0.981828 18:-0.187402 19:-0.937044 20:-0.74895 21:-0.963334 22:-0.984009 23:-0.717913 24:-0.470093 
-19.1277 1:-0.600613 2:-0.575275 3:-0.832314 4:-0.681005 5:-0.875149 6:-0.555147 7:-0.976947 8:-0.691816 9:-0.995193 10:-0.181276 11:-0.6945 12:-0.810802 13:-0.912547 14:-0.590477 15:-0.5822 16:-0.982637 17:-0.709555 18:0.119788 19:-0.973845 20:-0.539995 21:-0.965226 22:-0.965441 23:-0.567502 24:-0.520884 
-19.1277 1:-0.786134 2:-1 3:-0.87213 4:-0.578246 5:-0.985195 6:-0.575599 7:-0.996045 8:-0.695645 9:-0.887333 10:-0.694932 11:-0.91981 12:-0.818052 13:-0.987701 14:-0.968145 15:-0.631349 16:-0.986094 17:-0.980587 18:-0.218841 19:-0.9711 20:-0.585609 21:-0.96863 22:-0.9673 23:-0.777475 24:-0.469357 
-19.1277 1:-0.878479 2:-0.92251 3:-0.740891 4:-0.670458 5:-0.990788 6:-0.463867 7:-0.973443 8:-0.784074 9:-0.912649 10:-0.975606 11:-0.838829 12:-0.782704 13:-0.972235 14:-0.896278 15:-0.619855 16:-0.937277 17:-0.990996 18:-0.320585 19:-0.970129 20:-0.799908 21:-0.955068 22:-1 23:-0.697957 24:-0.490487 
-19.1277 1:-0.71865 2:-0.953933 3:-0.802337 4:-0.756555 5:-0.998104 6:-0.479858 7:-1 8:-0.797321 9:-0.941503 10:-0.410024 11:-0.882784 12:-0.827629 13:-0.982396 14:-0.900413 15:-0.550478 16:-0.957859 17:-0.990668 18:-0.265539 19:-0.968971 20:-0.7106 21:-0.979655 22:-1 23:-0.729101 24:-0.481842 
-19.1277 1:-0.864937 2:-0.911402 3:-0.802149 4:-0.68553 5:-0.992063 6:-0.483574 7:-0.971146 8:-0.740736 9:-0.858451 10:-0.792495 11:-0.846893 12:-0.734022 13:-0.98666 14:-0.896373 15:-0.594203 16:-0.98028 17:-0.967114 18:-0.171802 19:-0.964802 20:-0.700709 21:-0.979058 22:-0.97628 23:-0.626754 24:-0.473713 
-19.1277 1:-0.864521 2:-1 3:-0.761416 4:-0.772212 5:-0.995334 6:-0.608057 7:-0.974919 8:-0.779111 9:-0.849661 10:-0.4728 11:-0.938682 12:-0.794882 13:-1 14:-0.964563 15:-0.600602 16:-0.97293 17:-0.974355 18:-0.22153 19:-0.986021 20:-0.574782 21:-0.992798 22:-0.954668 23:-0.709185 24:-0.429745 
-19.1277 1:-1 2:-0.717204 3:-0.784094 4:-0.767498 5:-0.958154 6:-0.585032 7:-0.97558 8:-0.752426 9:-0.923835 10:-0.783137 11:-0.884227 12:-0.737465 13:-0.9334 14:-0.776811 15:-0.601267 16:-0.966694 17:-0.984656 18:-0.131217 19:-0.935019 20:-0.550819 21:-0.967241 22:-0.955517 23:-0.739901 24:-0.377312 
-19.1277 1:-0.739244 2:-0.74427 3:-0.769009 4:-0.749769 5:-0.987139 6:-0.565434 7:-0.930621 8:-0.710289 9:-0.857131 10:-0.979211 11:-0.890118 12:-0.75592 13:-0.954409 14:-0.782368 15:-0.525913 16:-0.912591 17:-0.982372 18:-0.0262973 19:-0.978643 20:-0.522129 21:-0.973996 22:-0.976053 23:-0.654856 24:-0.42869 
-19.1277 1:-1 2:-0.57557 3:-0.720839 4:-0.833567 5:-0.97147 6:-0.440564 7:-0.977617 8:-0.784828 9:-0.92737 10:-0.64854 11:-0.836065 12:-0.718073 13:-0.986523 14:-0.780938 15:-0.610777 16:-0.987469 17:-0.976075 18:-0.155861 19:-0.972809 20:-0.680347 21:-0.932209 22:-0.961795 23:-0.767253 24:-0.446848 
-19.1277 1:-0.533927 2:-0.58851 3:-0.815416 4:-0.833717 5:-0.808896 6:-0.208271 7:-0.984672 8:-0.795038 9:-0.978288 10:-0.770484 11:-0.637181 12:-0.722589 13:-0.964228 14:-0.471402 15:-0.697728 16:-0.976198 17:-0.699057 18:0.0745109 19:-0.993275 20:-0.761695 21:-0.950651 22:-0.959846 23:-0.464662 24:-0.470092 
-19.1277 1:-0.980713 2:-0.889145 3:-0.670629 4:-0.730607 5:-0.992664 6:-0.351865 7:-0.954812 8:-0.745849 9:-0.885412 10:-0.859558 11:-0.787167 12:-0.784697 13:-0.949913 14:-0.881721 15:-0.430294 16:-0.990681 17:-0.992165 18:-0.138748 19:-0.94308 20:-0.748209 21:-0.965777 22:-0.978676 23:-0.630552 24:-0.447057 
-19.1277 1:-0.449266 2:-0.800574 3:-0.73564 4:-0.826472 5:-0.996197 6:-0.515944 7:-0.961552 8:-0.662943 9:-0.883933 10:-0.968698 11:-0.833744 12:-0.708337 13:-0.98333 14:-0.80824 15:-0.356338 16:-0.976889 17:-0.971505 18:0.0222517 19:-0.961757 20:-0.559759 21:-0.950399 22:-0.983235 23:-0.64241 24:-0.34028 
-19.1277 1:-1 2:-0.464127 3:-0.795891 4:-0.630081 5:-0.831952 6:-0.333668 7:-0.956947 8:-0.712451 9:-0.983663 10:-0.803038 11:-0.59251 12:-0.743955 13:-0.939797 14:-0.492444 15:-0.619296 16:-0.995092 17:-0.706777 18:0.0898361 19:-0.990901 20:-0.663394 21:-0.980215 22:-0.965288 23:-0.50055 24:-0.483493 
-19.1277 1:-0.717308 2:-0.9891 3:-0.765723 4:-0.778141 5:-0.98768 6:-0.486297 7:-0.956684 8:-0.67912 9:-0.85122 10:-1 11:-0.79117 12:-0.740155 13:-0.967329 14:-0.985997 15:-0.512885 16:-0.95727 17:-0.989364 18:0.0181395 19:-0.97188 20:-0.54176 21:-0.977042 22:-1 23:-0.583228 24:-0.399057 
-19.1277 1:-0.721269 2:-1 3:-0.689525 4:-0.804987 5:-0.992628 6:-0.515955 7:-0.967534 8:-0.7401 9:-0.851399 10:-0.739406 11:-0.870885 12:-0.732441 13:-0.981704 14:-0.994124 15:-0.522313 16:-0.953083 17:-0.99359 18:-0.0658926 19:-0.932173 20:-0.611168 21:-0.958938 22:-1 23:-0.659755 24:-0.410141 
-19.1277 1:-0.0890853 2:-0.692496 3:-0.715691 4:-0.547154 5:-0.820393 6:-0.163374 7:-0.967007 8:-0.70334 9:-0.925714 10:-0.859168 11:-0.639554 12:-0.788069 13:-0.96256 14:-0.496097 15:-0.474108 16:-0.984475 17:-0.925186 18:0.0490835 19:-0.966979 20:-0.649096 21:-0.961506 22:-0.979062 23:-0.594124 24:-0.212371 
-19.1277 1:-0.612003 2:-0.46931 3:-0.791783 4:-0.647979 5:-0.82467 6:-0.333944 7:-0.979403 8:-0.738637 9:-0.949407 10:-0.965033 11:-0.588243 12:-0.740883 13:-0.994704 14:-0.510663 15:-0.58879 16:-0.953833 17:-0.751378 18:0.107931 19:-0.962359 20:-0.58492 21:-0.994568 22:-0.955952 23:-0.50784 24:-0.443548 
-19.1277 1:-0.654817 2:-0.90948 3:-0.677807 4:-0.734224 5:-0.993529 6:-0.328707 7:-0.998621 8:-0.724187 9:-0.898121 10:-0.736911 11:-0.805643 12:-0.74893 13:-0.975229 14:-0.858734 15:-0.452214 16:-0.971792 17:-0.984676 18:-0.126801 19:-0.972069 20:-0.719869 21:-0.982389 22:-0.969763 23:-0.647894 24:-0.414823 
-19.1277 1:-0.6539 2:-0.901954 3:-0.649267 4:-0.606522 5:-0.99689 6:-0.315921 7:-0.980215 8:-0.744818 9:-0.860568 10:-0.181967 11:-0.821168 12:-0.772293 13:-0.972458 14:-0.862788 15:-0.438164 16:-0.992639 17:-0.988854 18:-0.0872793 19:-0.968366 20:-0.737476 21:-0.976097 22:-0.97811 23:-0.680804 24:-0.434097 
-19.1277 1:-0.805273 2:-0.766401 3:-0.762196 4:-0.78294 5:-0.858056 6:-0.371468 7:-0.993893 8:-0.734094 9:-0.930863 10:-0.462016 11:-0.787978 12:-0.829142 13:-0.924024 14:-0.577175 15:-0.509044 16:-0.995915 17:-0.948585 18:-0.00666174 19:-0.976624 20:-0.660963 21:-0.936258 22:-0.931175 23:-0.655693 24:-0.418939 
-19.1277 1:-0.625503 2:-0.905951 3:-0.694525 4:-0.8955 5:-0.988453 6:-0.427567 7:-0.976957 8:-0.770565 9:-0.898575 10:-0.476914 11:-0.810603 12:-0.795067 13:-0.966783 14:-0.86535 15:-0.489273 16:-0.997244 17:-0.975065 18:-0.200148 19:-0.947886 20:-0.750571 21:-0.944934 22:-0.976432 23:-0.69654 24:-0.478908 
-19.1277 1:-0.800368 2:-0.595603 3:-0.686939 4:-0.688514 5:-0.984113 6:-0.378031 7:-0.957913 8:-0.741818 9:-0.913808 10:-0.737123 11:-0.809334 12:-0.669789 13:-0.952281 14:-0.659753 15:-0.524472 16:-0.97946 17:-0.970606 18:-0.0967177 19:-0.98795 20:-0.691487 21:-0.966286 22:-0.990719 23:-0.716097 24:-0.265572 
-19.1277 1:-0.584846 2:-0.806811 3:-0.757351 4:-0.631825 5:-0.934805 6:-0.281271 7:-0.974505 8:-0.718167 9:-0.940481 10:-0.299729 11:-0.856535 12:-0.687756 13:-0.96457 14:-0.481482 15:-0.479945 16:-0.966542 17:-0.973882 18:-0.0411081 19:-0.921536 20:-0.645206 21:-0.964436 22:-0.980131 23:-0.712057 24:-0.242291 
-19.1277 1:-0.769146 2:-0.839636 3:-0.788627 4:-0.772102 5:-0.9884 6:-0.475191 7:-0.985403 8:-0.68023 9:-0.864504 10:-0.583495 11:-0.837775 12:-0.697558 13:-0.975931 14:-0.831571 15:-0.431029 16:-1 17:-0.980603 18:-0.127823 19:-0.973524 20:-0.620855 21:-0.948079 22:-0.957308 23:-0.55 24:-0.382913 
-19.1277 1:-0.696512 2:-0.561205 3:-0.821567 4:-0.806423 5:-0.825135 6:-0.355516 7:-0.969725 8:-0.74784 9:-0.933286 10:-0.329613 11:-0.638551 12:-0.763217 13:-0.976286 14:-0.536287 15:-0.579259 16:-0.980829 17:-0.796403 18:0.0733226 19:-0.990877 20:-0.653448 21:-0.965324 22:-0.976877 23:-0.477161 24:-0.409044 
-19.1277 1:-0.799159 2:-0.881004 3:-0.747612 4:-0.744531 5:-0.990617 6:-0.436112 7:-0.979964 8:-0.7715 9:-0.848815 10:-0.77122 11:-0.835529 12:-0.711369 13:-0.980296 14:-0.844464 15:-0.405805 16:-0.923725 17:-0.978935 18:-0.188611 19:-0.893773 20:-0.747522 21:-0.977803 22:-0.966973 23:-0.620547 24:-0.47105 
-19.1277 1:-0.740418 2:-0.791587 3:-0.779841 4:-0.698717 5:-0.971779 6:-0.571529 7:-0.98789 8:-0.707609 9:-0.892988 10:-0.725899 11:-0.877857 12:-0.719752 13:-0.974907 14:-0.804057 15:-0.592451 16:-0.986383 17:-0.980032 18:0.000517966 19:-0.988294 20:-0.496984 21:-0.965783 22:-0.976545 23:-0.712123 24:-0.272215 
-19.1277 1:-0.932037 2:-0.982411 3:-0.648633 4:-0.862651 5:-0.991948 6:-0.293776 7:-0.974394 8:-0.796906 9:-0.847581 10:-0.378528 11:-0.902464 12:-0.711935 13:-0.933286 14:-0.988964 15:-0.546792 16:-0.973055 17:-0.959565 18:-0.080673 19:-0.995264 20:-0.759824 21:-1 22:-0.945025 23:-0.793239 24:-0.301584 
-19.1277 1:-0.732965 2:-0.957092 3:-0.768232 4:-0.845087 5:-0.981578 6:-0.422823 7:-0.9757 8:-0.615205 9:-0.894707 10:-0.746662 11:-0.870588 12:-0.751242 13:-0.981208 14:-0.821859 15:-0.315648 16:-0.980218 17:-0.981914 18:0.00591443 19:-0.975383 20:-0.441006 21:-0.963993 22:-0.944001 23:-0.712053 24:-0.38416 
-19.1277 1:-0.33364 2:-0.843812 3:-0.762475 4:-0.90176 5:-0.90114 6:-0.274266 7:-0.983628 8:-0.671691 9:-0.929249 10:-1 11:-0.812864 12:-0.686834 13:-0.974509 14:-0.351656 15:-0.357226 16:-0.95881 17:-0.989079 18:-0.103974 19:-0.980008 20:-0.532475 21:-0.956781 22:-0.948831 23:-0.701648 24:-0.261146 
-19.1277 1:-0.936367 2:-0.970016 3:-0.802248 4:-0.362609 5:-0.993736 6:-0.458555 7:-0.951741 8:-0.662372 9:-0.861429 10:-0.709612 11:-0.912982 12:-0.737895 13:-0.955941 14:-0.820588 15:-0.402799 16:-0.93191 17:-1 18:-0.160793 19:-0.968769 20:-0.644001 21:-0.976001 22:-0.963288 23:-0.73429 24:-0.447245 
-19.1277 1:-0.711068 2:-0.747271 3:-0.764325 4:-0.850006 5:-0.979584 6:-0.596641 7:-0.995925 8:-0.638487 9:-0.932111 10:-0.858149 11:-0.875749 12:-0.745947 13:-0.983695 14:-0.810652 15:-0.477381 16:-0.978394 17:-0.98755 18:0.0267332 19:-0.962832 20:-0.512442 21:-0.94176 22:-0.939748 23:-0.773184 24:-0.434613 
-19.1277 1:-0.63282 2:-0.925763 3:-0.707385 4:-0.922546 5:-0.98928 6:-0.450945 7:-1 8:-0.745754 9:-0.903943 10:-0.827316 11:-0.834215 12:-0.798104 13:-0.962207 14:-0.850957 15:-0.485176 16:-0.977587 17:-0.98862 18:-0.110665 19:-0.937874 20:-0.752081 21:-1 22:-0.965286 23:-0.670845 24:-0.499426 
-19.1277 1:-1 2:-0.87207 3:-0.608403 4:-0.935497 5:-0.993365 6:-0.359115 7:-0.976057 8:-0.756884 9:-0.84892 10:-0.623287 11:-0.911285 12:-0.680858 13:-0.93714 14:-0.856181 15:-0.4255 16:-0.99364 17:-0.979137 18:-0.123484 19:-0.970865 20:-0.767388 21:-0.906341 22:-0.933869 23:-0.79308 24:-0.439637 
-19.1277 1:-1 2:-0.919149 3:-0.667368 4:-0.78315 5:-0.991194 6:-0.309273 7:-1 8:-0.728329 9:-0.858924 10:-0.6688 11:-0.898924 12:-0.702444 13:-0.956692 14:-0.772816 15:-0.416754 16:-0.962055 17:-0.978787 18:-0.0364675 19:-0.939729 20:-0.707591 21:-1 22:-0.95481 23:-0.713526 24:-0.407525 
-19.1277 1:-0.993089 2:-0.910356 3:-0.703158 4:-0.959405 5:-0.99254 6:-0.36566 7:-1 8:-0.697601 9:-0.825279 10:-0.936126 11:-0.914556 12:-0.734706 13:-0.976971 14:-0.826892 15:-0.369042 16:-0.978426 17:-0.984688 18:-0.106164 19:-0.976412 20:-0.613322 21:-0.992648 22:-0.945223 23:-0.770069 24:-0.372809 
-19.1277 1:-0.627261 2:-0.951359 3:-0.74853 4:-0.743461 5:-0.990103 6:-0.348755 7:-0.968174 8:-0.690676 9:-0.834913 10:-0.12294 11:-0.904605 12:-0.748639 13:-0.929044 14:-0.820286 15:-0.326432 16:-0.966635 17:-0.98548 18:-0.0928922 19:-0.956403 20:-0.630608 21:-0.963543 22:-0.92338 23:-0.733395 24:-0.401737 
-19.1277 1:-1 2:-0.941424 3:-0.723985 4:-0.402882 5:-0.982806 6:-0.393649 7:-0.97995 8:-0.707059 9:-0.833355 10:-1 11:-0.9171 12:-0.759382 13:-0.965623 14:-0.840141 15:-0.392668 16:-0.948783 17:-0.985564 18:-0.0537795 19:-0.963754 20:-0.678994 21:-0.970161 22:-0.94162 23:-0.78411 24:-0.357247 
-19.1277 1:-0.786377 2:-0.9703 3:-0.804851 4:-0.80832 5:-0.997998 6:-0.445633 7:-0.973588 8:-0.736584 9:-0.887482 10:-0.415208 11:-0.929197 12:-0.78272 13:-0.994556 14:-0.851072 15:-0.502492 16:-0.99193 17:-0.978729 18:-0.187042 19:-0.957444 20:-0.710371 21:-0.965409 22:-0.975526 23:-0.779637 24:-0.516194 
-19.1277 1:-0.166931 2:-0.960375 3:-0.761619 4:-0.828668 5:-1 6:-0.376585 7:-0.991638 8:-0.684499 9:-0.875511 10:-0.443764 11:-0.9147 12:-0.782684 13:-0.981843 14:-0.868298 15:-0.514939 16:-0.961858 17:-0.982275 18:-0.204542 19:-1 20:-0.692366 21:-0.953838 22:-0.929186 23:-0.801136 24:-0.527911 
-19.1277 1:-0.703896 2:-0.947694 3:-0.711758 4:-0.637545 5:-0.989687 6:-0.399966 7:-1 8:-0.675178 9:-0.896606 10:-0.884321 11:-0.925585 12:-0.781872 13:-0.909834 14:-0.862128 15:-0.432049 16:-0.919453 17:-0.993767 18:-0.129733 19:-0.955383 20:-0.641824 21:-0.977506 22:-0.948392 23:-0.81763 24:-0.445433 
-19.1277 1:-0.868793 2:-0.969934 3:-0.751228 4:-0.724568 5:-0.975302 6:-0.445147 7:-0.988748 8:-0.671698 9:-0.872017 10:-0.7325 11:-0.916463 12:-0.803047 13:-0.975479 14:-0.851447 15:-0.457466 16:-0.95175 17:-0.988477 18:-0.115495 19:-0.927945 20:-0.568883 21:-0.942973 22:-0.98307 23:-0.807951 24:-0.532228 
-19.1277 1:-0.465512 2:-0.914562 3:-0.712163 4:-0.658252 5:-0.996428 6:-0.472417 7:-0.974341 8:-0.728718 9:-0.89683 10:-1 11:-0.910853 12:-0.821526 13:-1 14:-0.895593 15:-0.496498 16:-0.933862 17:-0.987415 18:-0.0916253 19:-0.964848 20:-0.762339 21:-0.987845 22:-0.9493 23:-0.765152 24:-0.63039 
-19.1277 1:-0.568112 2:-0.953594 3:-0.733084 4:-0.759196 5:-0.998688 6:-0.44366 7:-0.990116 8:-0.706662 9:-0.857375 10:-1 11:-0.872741 12:-0.830994 13:-0.963917 14:-0.887409 15:-0.530062 16:-0.981347 17:-0.964963 18:-0.219655 19:-0.952122 20:-0.66517 21:-0.972305 22:-0.974387 23:-0.749647 24:-0.552939 
-19.1277 1:-0.852308 2:-0.842431 3:-0.731689 4:-0.800221 5:-0.985212 6:-0.612643 7:-0.988162 8:-0.705555 9:-0.901716 10:-0.739388 11:-0.927243 12:-0.78016 13:-0.972985 14:-0.866757 15:-0.496701 16:-0.983185 17:-0.973261 18:-0.184674 19:-0.939214 20:-0.6423 21:-0.969649 22:-0.916186 23:-0.744942 24:-0.555985 
-19.1277 1:-1 2:-0.67406 3:-0.63602 4:-0.743944 5:-0.949122 6:-0.28522 7:-0.990379 8:-0.721317 9:-0.899593 10:-0.276145 11:-0.865765 12:-0.776472 13:-0.977286 14:-0.539873 15:-0.511002 16:-0.988045 17:-0.973866 18:-0.175121 19:-0.972176 20:-0.793481 21:-0.96123 22:-0.98133 23:-0.77366 24:-0.556932 
-19.1277 1:-0.943647 2:-0.928906 3:-0.698003 4:-0.683562 5:-0.997171 6:-0.510114 7:-0.984236 8:-0.716071 9:-0.838139 10:-1 11:-0.910379 12:-0.815093 13:-0.951224 14:-0.907912 15:-0.547483 16:-0.932104 17:-0.976693 18:-0.233545 19:-0.964103 20:-0.77019 21:-0.971654 22:-0.932698 23:-0.725477 24:-0.625073 
-19.1277 1:-0.266951 2:-0.811475 3:-0.738477 4:-0.824975 5:-0.995352 6:-0.602781 7:-0.976371 8:-0.718306 9:-0.858746 10:-0.565354 11:-0.901007 12:-0.784107 13:-0.981816 14:-0.864657 15:-0.581839 16:-0.963018 17:-0.987785 18:-0.172286 19:-0.965598 20:-0.584743 21:-0.963768 22:-0.924285 23:-0.813493 24:-0.539276 
-19.1277 1:-0.663509 2:-0.84126 3:-0.687077 4:-1 5:-0.908228 6:-0.490757 7:-0.926766 8:-0.725025 9:-0.925876 10:-1 11:-0.834541 12:-0.853267 13:-0.963582 14:-0.72502 15:-0.638586 16:-0.961071 17:-0.924588 18:-0.316382 19:-0.978249 20:-0.821803 21:-0.963341 22:-0.941381 23:-0.79507 24:-0.730274 
-19.1277 1:-0.850167 2:-0.938896 3:-0.756211 4:-0.802139 5:-0.98511 6:-0.7057 7:-1 8:-0.74112 9:-0.882691 10:-0.825139 11:-0.95519 12:-0.856361 13:-0.967508 14:-0.929 15:-0.739691 16:-0.957427 17:-0.968386 18:-0.400208 19:-0.925452 20:-0.834445 21:-0.941772 22:-0.953726 23:-0.906009 24:-0.76496 
-19.1277 1:-0.674096 2:-0.907733 3:-0.761721 4:-0.445257 5:-0.990905 6:-0.729421 7:-0.994156 8:-0.716519 9:-0.830949 10:-0.885741 11:-0.952723 12:-0.863925 13:-0.954303 14:-0.928276 15:-0.735658 16:-0.969441 17:-0.975613 18:-0.455921 19:-0.927327 20:-0.872812 21:-0.976557 22:-0.972367 23:-0.854646 24:-0.789187 
-19.1277 1:-0.877802 2:-0.902751 3:-0.778098 4:-0.692259 5:-0.986595 6:-0.698299 7:-0.972498 8:-0.771007 9:-0.848579 10:-0.415274 11:-0.949974 12:-0.887021 13:-0.959222 14:-0.957893 15:-0.780964 16:-0.939976 17:-0.982968 18:-0.550609 19:-0.951726 20:-0.885926 21:-0.952493 22:-0.947954 23:-0.927377 24:-0.836808 
-19.1277 1:-0.630392 2:-0.941963 3:-0.732868 4:-0.811459 5:-0.951823 6:-0.74186 7:-0.957534 8:-0.70465 9:-0.960118 10:-0.649892 11:-0.908945 12:-0.876738 13:-0.933949 14:-0.886061 15:-0.829821 16:-0.939504 17:-0.940469 18:-0.708017 19:-0.949139 20:-0.917531 21:-0.979662 22:-0.942967 23:-0.867702 24:-0.874406 
-19.1277 1:-1 2:-0.951608 3:-0.743261 4:-1 5:-0.984558 6:-0.865557 7:-0.986983 8:-0.724267 9:-0.881688 10:-0.533335 11:-0.944434 12:-0.893319 13:-0.966108 14:-0.959038 15:-0.898085 16:-0.95599 17:-0.970203 18:-0.674071 19:-0.968979 20:-0.945393 21:-0.962724 22:-0.943524 23:-0.95305 24:-0.847596 
-19.1277 1:-1 2:-0.978211 3:-0.72116 4:-0.950604 5:-0.998645 6:-0.904012 7:-0.979444 8:-0.707434 9:-0.849783 10:-0.822327 11:-0.972929 12:-0.882592 13:-0.950306 14:-0.965792 15:-0.924318 16:-0.959283 17:-0.976075 18:-0.829693 19:-0.961873 20:-0.941097 21:-0.97588 22:-0.976617 23:-0.973876 24:-0.9166 
-19.1277 1:-1 2:-0.98935 3:-0.730609 4:-1 5:-0.98102 6:-0.940199 7:-0.967172 8:-0.657872 9:-0.887648 10:-1 11:-0.965024 12:-0.893851 13:-0.946859 14:-0.93717 15:-0.934054 16:-0.97529 17:-0.969374 18:-0.860185 19:-0.943943 20:-0.953272 21:-0.958824 22:-0.935769 23:-0.970539 24:-0.907763 
-19.1277 1:-0.500411 2:-0.985119 3:-0.738909 4:-0.928827 5:-0.993611 6:-0.976052 7:-0.963256 8:-0.724752 9:-0.904606 10:-0.478668 11:-0.952885 12:-0.907273 13:-0.99155 14:-0.965538 15:-0.937054 16:-0.950526 17:-0.954988 18:-0.895501 19:-0.967502 20:-0.934124 21:-0.982438 22:-0.96786 23:-0.956219 24:-0.913624 
-19.1277 1:-0.808388 2:-0.99361 3:-0.742232 4:-0.180794 5:-0.9756 6:-0.985805 7:-0.987609 8:-0.794256 9:-0.962685 10:-0.918154 11:-0.962094 12:-0.908788 13:-0.895368 14:-0.979589 15:-0.964361 16:-0.946887 17:-0.960768 18:-0.912271 19:-0.974373 20:-0.96118 21:-0.99333 22:-0.968557 23:-0.947037 24:-0.851824 
-19.1277 1:-0.895262 2:-0.976404 3:-0.809489 4:-0.736532 5:-0.978087 6:-0.989194 7:-0.984542 8:-0.817163 9:-0.990778 10:-0.711941 11:-0.975838 12:-0.906702 13:-0.932606 14:-0.974445 15:-0.963629 16:-0.95727 17:-0.944573 18:-0.9369 19:-0.954217 20:-0.895666 21:-1 22:-0.977899 23:-0.944841 24:-0.882661 
-19.1277 1:-0.741756 2:-0.932694 3:-0.860292 4:-0.675704 5:-0.984173 6:-0.992694 7:-0.960373 8:-0.86621 9:-0.932833 10:-0.649467 11:-0.966287 12:-0.937266 13:-0.976059 14:-0.955152 15:-0.952116 16:-0.978568 17:-0.978219 18:-0.922399 19:-0.976921 20:-0.937717 21:-0.936025 22:-0.977059 23:-0.869728 24:-0.90955 
-19.1277 1:-0.748466 2:-0.987517 3:-0.851105 4:-1 5:-0.985286 6:-0.999851 7:-0.974371 8:-0.837835 9:-0.986586 10:-0.741413 11:-0.970309 12:-0.929105 13:-0.985144 14:-0.969607 15:-0.965076 16:-0.977848 17:-0.950545 18:-0.958587 19:-0.974718 20:-0.933545 21:-0.922469 22:-0.990755 23:-0.955094 24:-0.952774 
-19.1277 1:-0.955823 2:-0.973617 3:-0.67973 4:-0.75258 5:-0.980384 6:-0.966228 7:-1 8:-0.756566 9:-0.965155 10:-0.758091 11:-0.944757 12:-0.886997 13:-0.957159 14:-0.945173 15:-0.94784 16:-0.961749 17:-0.964111 18:-0.90423 19:-0.923279 20:-0.950959 21:-0.941396 22:-0.92994 23:-0.93826 24:-0.963149 
-19.1277 1:-0.958978 2:-0.946823 3:-0.624711 4:-0.860935 5:-0.952535 6:-0.85495 7:-0.978987 8:-0.612241 9:-0.900419 10:-0.827353 11:-0.906498 12:-0.830476 13:-0.889396 14:-0.87387 15:-0.857711 16:-0.828532 17:-0.916545 18:-0.754319 19:-0.847634 20:-0.909113 21:-0.880018 22:-0.856335 23:-0.897505 24:-0.884888 
-19.1277 1:-1 2:-0.869512 3:-0.46037 4:-0.912048 5:-0.907867 6:-0.600888 7:-0.955634 8:-0.550608 9:-0.88488 10:-0.666991 11:-0.830544 12:-0.725663 13:-0.797147 14:-0.758633 15:-0.656506 16:-0.675482 17:-0.830436 18:-0.48622 19:-0.773529 20:-0.82556 21:-0.789573 22:-0.775157 23:-0.806007 24:-0.832865 
-19.1277 1:-0.58283 2:-0.727904 3:-0.425957 4:-0.442752 5:-0.853485 6:-0.497347 7:-0.901782 8:-0.456671 9:-0.824815 10:-0.816103 11:-0.696975 12:-0.685442 13:-0.764194 14:-0.637973 15:-0.619725 16:-0.661215 17:-0.804094 18:-0.312993 19:-0.753866 20:-0.695206 21:-0.737698 22:-0.751099 23:-0.711392 24:-0.762075 
-19.1277 1:-0.775943 2:-0.524418 3:-0.0919424 4:-0.974918 5:-0.899652 6:-0.299766 7:-0.790145 8:-0.189099 9:-0.64315 10:-0.962042 11:-0.655437 12:-0.455603 13:-0.526873 14:-0.520458 15:-0.419726 16:-0.50935 17:-0.697927 18:-0.331434 19:-0.56717 20:-0.572714 21:-0.364278 22:-0.521296 23:-0.504664 24:-0.559502 
-19.1277 1:-0.844144 2:-0.0776997 3:0.0757438 4:-0.616416 5:-0.928627 6:-0.25841 7:-0.668795 8:-0.0281168 9:-0.661967 10:-0.467661 11:-0.570214 12:-0.238314 13:-0.439928 14:-0.506154 15:-0.328878 16:-0.467436 17:-0.691807 18:-0.211323 19:-0.545629 20:-0.495327 21:-0.342103 22:-0.495185 23:-0.454421 24:-0.454282 
-19.1277 1:-0.863416 2:-0.516635 3:-0.0454455 4:-0.676739 5:-0.97816 6:-0.213078 7:-0.477455 8:0.227025 9:-0.55051 10:-0.481313 11:-0.492806 12:-0.252283 13:-0.440848 14:-0.584676 15:-0.193363 16:-0.484554 17:-0.688957 18:-0.109535 19:-0.5404 20:-0.236132 21:-0.374317 22:-0.49667 23:-0.419886 24:-0.439996 
-19.1277 1:-0.415317 2:-0.726427 3:-0.148585 4:-0.716158 5:-0.9632 6:-0.12895 7:-0.457426 8:0.165738 9:-0.516289 10:-0.713875 11:-0.425674 12:-0.372278 13:-0.392471 14:-0.540711 15:0.0138008 16:-0.428637 17:-0.639948 18:-0.0133623 19:-0.439195 20:-0.260308 21:-0.394306 22:-0.457263 23:-0.379187 24:-0.405536 
-19.1277 1:-0.539686 2:-0.686305 3:0.030173 4:-0.699852 5:-0.949 6:-0.0452703 7:-0.332203 8:-0.000588252 9:-0.458627 10:-0.598517 11:-0.274829 12:-0.301118 13:-0.400072 14:-0.542399 15:-0.0711503 16:-0.397503 17:-0.636691 18:0.00314187 19:-0.406099 20:-0.384033 21:-0.443567 22:-0.491241 23:-0.293837 24:-0.352192 
-19.1277 1:-0.939775 2:-0.756376 3:0.0838687 4:-0.55625 5:-0.977689 6:0.0315205 7:-0.427696 8:0.124662 9:-0.480373 10:-0.587605 11:-0.56481 12:-0.122212 13:-0.361846 14:-0.519868 15:0.156011 16:-0.390766 17:-0.600829 18:0.00863885 19:-0.395082 20:-0.214811 21:-0.430142 22:-0.45846 23:-0.454824 24:-0.280915 
