svm_type epsilon_svr
kernel_type linear
nr_class 2
total_sv 33
rho -0.107679
SV
1 1:-0.609641 2:-0.811677 3:-0.865897 4:-0.838592 5:-0.776612 6:-0.577197 7:-0.640198 8:-0.744905 9:-0.622282 10:-0.589144 11:-0.884916 12:-0.457671 13:-0.317395 14:-0.743851 15:-0.773007 16:-0.671067 17:-0.571789 18:-0.111111 19:-0.124343 20:0.245645 21:0.371194 22:-0.383042 23:-0.288956 24:-1 
1 1:-0.754656 2:-0.82351 3:-0.906909 4:-0.770985 5:-0.774547 6:-0.51612 7:-0.628571 8:-0.569707 9:-0.53279 10:-0.468891 11:-0.714921 12:-0.428426 13:-0.411886 14:-0.479015 15:-0.511601 16:-0.41944 17:-0.480396 18:-0.111111 19:0.0497002 20:0.515482 21:-0.116131 22:-0.348889 23:-0.611444 24:-1 
0.9249894840680177 1:-0.775848 2:-0.835053 3:-0.894114 4:-0.782068 5:-0.767664 6:-0.563732 7:-0.741639 8:-0.532134 9:-0.551037 10:-0.474451 11:-0.633024 12:-0.533947 13:-0.460036 14:-0.578752 15:-0.576934 16:-0.509989 17:-0.530188 18:0.222222 19:0.392177 20:0.375942 21:0.481397 22:-0.362407 23:-0.499101 24:-1 
-0.9539919506415914 1:-0.504965 2:-0.992966 3:-0.934988 4:-0.192071 5:-0.653851 6:-0.59921 7:-0.674603 8:-0.84043 9:-0.595062 10:-0.70966 11:-0.783069 12:-0.473532 13:-0.79602 14:-0.707789 15:-0.883191 16:-0.660072 17:-0.553376 18:-1 19:-0.740332 20:0.223455 21:0.0701313 22:-0.249558 23:-0.156929 24:-1 
0.3984247034946669 1:0.078927 2:-0.920709 3:-0.29962 4:-0.498792 5:-0.803924 6:1 7:1 8:1 9:1 10:1 11:1 12:0.748186 13:1 14:0.329914 15:1 16:0.488804 17:1 18:-1 19:-0.593111 20:0.913576 21:-1 22:-0.953981 23:-0.932588 24:-1 
0.1965602666373452 1:-0.7826 2:-0.879553 3:-0.800385 4:-0.70155 5:-0.801325 6:0.200397 7:-0.441246 8:0.123161 9:-0.540382 10:-0.0878632 11:-0.539835 12:0.306647 13:-0.672034 14:-0.564599 15:-0.608802 16:-0.0161596 17:-0.397043 18:-0.444444 19:-0.201337 20:0.87655 21:-0.769372 22:-0.850293 23:-0.655811 24:-1 
-0.2843139844941727 1:0.850487 2:0.84417 3:1 4:-0.803073 5:-0.640377 6:-0.646645 7:-0.371622 8:-0.361628 9:-0.265854 10:-0.474928 11:-0.653887 12:-0.871556 13:-0.690064 14:-0.526888 15:-0.522872 16:-0.778958 17:-0.423379 18:0.333333 19:0.0158933 20:0.00889557 21:0.281278 22:-0.0708245 23:-0.334345 24:0.230769 
0.4402685392144555 1:0.317453 2:-0.483195 3:-0.354957 4:-0.806136 5:-0.623899 6:-0.448226 7:-0.85473 8:-0.538793 9:-0.789952 10:-0.460798 11:-0.849966 12:-0.923212 13:-0.819395 14:-0.71626 15:-0.759397 16:-0.81681 17:-0.756124 18:-0.666667 19:-0.688102 20:-0.17253 21:0.21852 22:-0.143997 23:-0.183395 24:1 
-1 1:-0.878827 2:-0.887262 3:-0.911606 4:-0.540901 5:-0.836915 6:-0.305004 7:-1 8:0.27433 9:-0.950203 10:-0.475225 11:-1 12:-0.282192 13:-0.498312 14:-0.206913 15:-0.880032 16:-0.490712 17:-0.934092 18:-0.888889 19:-0.487918 20:-0.0465034 21:-0.0810115 22:0.351512 23:-0.843074 24:-1 
0.3519435086590357 1:-0.948548 2:-0.831488 3:-0.762868 4:-0.69277 5:-0.152956 6:-0.190872 7:-0.755952 8:-0.353605 9:-0.696296 10:-0.502276 11:-1 12:-0.201571 13:-0.592039 14:-0.445968 15:-0.824786 16:-0.529137 17:-0.866013 18:-1 19:-0.770212 20:-0.823797 21:-0.596464 22:0.591628 23:0.323224 24:-1 
1 1:-0.197042 2:-0.765925 3:-0.781944 4:-0.6075 5:-0.736504 6:0.450805 7:-0.219722 8:-0.421216 9:-0.383521 10:-0.433147 11:-0.783069 12:-0.251019 13:-0.327759 14:-0.683244 15:-0.605229 16:-0.520955 17:-0.356258 18:-0.333333 19:0.036581 20:0.168782 21:0.301095 22:0.794549 23:-0.613791 24:-1 
0.43188623120447 1:-0.612694 2:-0.831583 3:-0.787237 4:0.192097 5:-0.387451 6:0.172593 7:-1 8:-0.615741 9:-1 10:-0.550135 11:-0.699634 12:0.192106 13:-0.811711 14:-0.604571 15:-0.959566 16:-0.702878 17:-0.628958 18:-1 19:-0.453997 20:-0.338447 21:-0.334598 22:-0.0879023 23:-0.785798 24:-1 
-0.1524783328520584 1:-0.78031 2:-0.933387 3:-0.935047 4:0.0451293 5:-0.992136 6:-0.0158678 7:-0.511904 8:-0.759296 9:-0.696296 10:-0.70966 11:-0.349205 12:-0.201571 13:-0.89801 14:-0.495059 15:-1 16:-0.676439 17:-0.330066 18:-1 19:-0.398831 20:-0.63677 21:-0.175471 22:0.0974115 23:-0.8238 24:-1 
-0.2051965542304696 1:-0.795099 2:0.584621 3:-0.330811 4:-0.531183 5:-0.799095 6:-0.59921 7:-0.0238064 8:-0.732248 9:-0.730041 10:-0.70966 11:-0.783069 12:-0.918558 13:-1 14:-0.675062 15:-0.35755 16:-0.823741 17:-0.821351 18:-1 19:-0.894007 20:0.0101577 21:-0.098112 22:0.390353 23:-0.924215 24:-1 
-0.3085640570401493 1:-0.104955 2:-0.930363 3:-0.800824 4:-0.553444 5:-0.497785 6:0.73144 7:-0.0501928 8:0.264798 9:-0.638839 10:0.153511 11:-0.683398 12:0.0810811 13:-0.338443 14:0.326226 15:-0.872141 16:-0.255767 17:-0.826179 18:-1 19:-0.509587 20:-0.412015 21:0.37827 22:-0.240161 23:-0.318152 24:-1 
-0.6984149169359654 1:-0.776387 2:-0.825963 3:-0.936884 4:-0.791156 5:-0.574867 6:-0.169275 7:-0.310086 8:-0.441302 9:-0.543891 10:-0.249001 11:-0.699888 12:-0.190524 13:-0.392747 14:-0.638156 15:-0.487806 16:-0.117529 17:-0.335243 18:0.444444 19:0.53521 20:0.656587 21:0.0350577 22:0.0454923 23:-0.427151 24:-1 
-0.1477283240127799 1:-0.816405 2:-0.904114 3:-0.932884 4:-0.618063 5:-0.706625 6:-0.610877 7:0.610716 8:-0.718724 9:0.366668 10:-1 11:-0.804762 12:-0.913613 13:-0.449254 14:-0.313421 15:0.28782 16:-0.872842 17:-0.598039 18:-1 19:-0.862417 20:-0.478653 21:0.587128 22:-0.717823 23:1 24:-1 
-1 1:-0.908228 2:-0.829662 3:-0.911765 4:-0.728516 5:-0.811899 6:0.0841313 7:-0.227377 8:-0.369057 9:-0.413062 10:-0.324516 11:-0.691263 12:-0.148592 13:-0.299157 14:-0.669217 15:-0.512151 16:-0.176081 17:-0.364619 18:0.333333 19:0.63848 20:0.386848 21:0.0955539 22:0.24553 23:-0.582418 24:-1 
0.7220903221762238 1:-0.386753 2:-0.7181 3:-0.91243 4:-0.723444 5:-0.933057 6:0.544138 7:0.464287 8:0.181901 9:-0.817778 10:-0.377845 11:-0.609524 12:0.198953 13:-0.755224 14:0.48186 15:-0.500641 16:-0.519318 17:-0.758823 18:-1 19:-0.485914 20:-1 21:-0.641048 22:1 23:-0.354441 24:-1 
-0.702147162803573 1:-0.549872 2:-0.983113 3:-0.937029 4:-0.60866 5:-0.833249 6:-0.453375 7:-0.633928 8:-0.171046 9:-0.164814 10:-0.657815 11:-0.755952 12:-0.702226 13:-0.923507 14:0.695407 15:0.182692 16:-0.32046 17:-0.698529 18:-1 19:0.305512 20:-0.387657 21:0.813567 22:0.858609 23:-0.984596 24:-1 
0.1166042958228082 1:-0.657567 2:-0.725419 3:-0.877417 4:-0.134375 5:-0.912001 6:0.143222 7:-0.467532 8:0.221733 9:-0.889562 10:-0.898193 11:-0.645022 12:-0.0195144 13:-0.777476 14:1 15:0.337998 16:-0.913015 17:-1 18:-1 19:0.322976 20:-0.525383 21:-0.111107 22:0.638527 23:-0.79048 24:-1 
-1 1:-0.387067 2:-0.92895 3:-0.861079 4:-0.708134 5:-0.887429 6:-0.258182 7:-0.839447 8:-0.515883 9:-0.9334 10:-0.340471 11:-0.959545 12:-0.831618 13:-0.763117 14:-0.905594 15:-0.844148 16:-0.795684 17:-0.983342 18:-0.888889 19:-0.818763 20:0.296819 21:0.972266 22:-0.838315 23:-0.89488 24:-1 
-0.3276174810131259 1:-0.986054 2:-0.897346 3:-0.968029 4:-0.804231 5:-0.935 6:0.551379 7:-0.416961 8:0.603258 9:-0.587429 10:0.262903 11:-0.7491 12:-0.183669 13:-0.445756 14:-0.686347 15:-0.776125 16:-0.224376 17:-0.590801 18:-0.555556 19:-0.440342 20:0.953527 21:-0.901937 22:-0.221823 23:-0.520442 24:-1 
0.8836772654683518 1:-0.553141 2:-0.824681 3:-0.918472 4:-0.760454 5:-0.735146 6:0.0541303 7:-0.0591601 8:-0.350003 9:-0.409646 10:-0.350194 11:-0.532717 12:-0.852629 13:-0.677559 14:-0.867064 15:-0.733833 16:-0.714629 17:-0.488982 18:0.777778 19:0.482238 20:0.185016 21:0.473792 22:0.4547 23:-0.568235 24:-1 
1 1:-1 2:-0.927803 3:-0.879947 4:-0.739194 5:-0.624114 6:-1 7:0.0680689 8:-0.559785 9:-0.0781685 10:-0.421761 11:-0.908123 12:-1 13:-0.568041 14:-0.255378 15:-0.925792 16:-0.635426 17:-0.650056 18:-1 19:-0.375629 20:-0.151255 21:1 22:-1 23:-0.631284 24:-1 
0.1317845729536847 1:-0.908279 2:-0.4606 3:-0.875211 4:-0.811261 5:-0.90453 6:-0.504246 7:-0.675947 8:-0.672495 9:-0.690099 10:-0.449223 11:-0.757844 12:-0.687996 13:-0.748639 14:-0.755929 15:-0.75106 16:-0.676439 17:-0.669308 18:-0.333333 19:-0.512003 20:0.933627 21:-0.901718 22:-0.925117 23:-0.785692 24:-1 
-1 1:-0.986395 2:-0.943295 3:-0.989654 4:-0.707217 5:-0.730607 6:-0.109684 7:-0.230411 8:-0.293375 9:-0.278952 10:-0.0340568 11:-0.412837 12:-0.58925 13:-0.562377 14:-0.793657 15:-0.834145 16:-0.570646 17:-0.630469 18:-0.333333 19:-0.353944 20:1 21:-0.928664 22:-0.928923 23:-0.760132 24:-1 
-1 1:-0.149723 2:-0.880127 3:-0.786411 4:-0.893445 5:-0.573686 6:-0.797545 7:0.108512 8:-1 9:-0.282176 10:-0.652053 11:-0.158313 12:-0.672146 13:-0.387705 14:-0.459877 15:-0.204864 16:-0.694989 17:-0.0398536 18:1 19:0.123378 20:-0.580215 21:0.0673655 22:-0.406215 23:-0.367661 24:-0.578949 
1 1:-0.988491 2:-0.950368 3:-1 4:-0.777207 5:-0.886717 6:-0.577415 7:-0.57124 8:-0.647842 9:-0.709895 10:-0.413397 11:-0.703878 12:-0.690611 13:-0.674881 14:-0.720287 15:-0.715068 16:-0.570145 17:-0.689603 18:-0.444444 19:-0.535267 20:0.976208 21:-0.968691 22:-0.863925 23:-0.800711 24:-1 
0.1433500610877917 1:-0.95595 2:-0.777521 3:-0.94711 4:-0.836157 5:-0.865192 6:-0.694576 7:-0.648772 8:-0.679563 9:-0.455179 10:-0.518507 11:-0.792535 12:-0.612414 13:-0.916051 14:-0.785766 15:-0.803959 16:-0.647833 17:-0.805822 18:-0.555556 19:-0.566761 20:0.949506 21:-0.917545 22:-0.900435 23:-0.694144 24:-1 
-1 1:-0.216411 2:-0.882171 3:-0.789951 4:-1 5:-0.762943 6:-0.0158678 7:0.201108 8:-0.551938 9:-0.483191 10:-0.496515 11:-0.531987 12:-0.32725 13:-0.045696 14:-0.435058 15:-0.508856 16:-0.680532 17:-0.367622 18:-0.555556 19:-0.599463 20:-0.256453 21:-0.700041 22:-0.214394 23:-0.119582 24:-1 
0.189103492997799 1:-0.440488 2:-0.892552 3:-0.676919 4:-0.965699 5:-0.83 6:-0.80613 7:-0.808981 8:-0.866966 9:-0.650134 10:-0.59749 11:-0.988423 12:-0.851384 13:-0.83595 14:-0.620104 15:-0.489017 16:-0.629809 17:-0.830522 18:-0.888889 19:-1 20:-0.104502 21:0.07921 22:-0.509961 23:-0.589685 24:-1 
-0.1502299797607642 1:-0.893086 2:-0.95623 3:-0.999354 4:0.243864 5:1 6:-0.505876 7:-0.760883 8:-0.743065 9:-0.8282 10:-0.502276 11:-0.840589 12:1 13:-0.913458 14:-0.828881 15:-0.553463 16:0.15827 17:0.307865 18:-0.888889 19:-0.286136 20:0.698163 21:-0.673268 22:-0.935643 23:-0.795273 24:-1 
