svm_type epsilon_svr
kernel_type linear
nr_class 2
total_sv 192
rho 833.812
SV
-1 1:22.870921 2:22.573571 3:123.4205 4:22.076216 5:22.228612 6:149.0177 7:65.587964 8:106.97831 9:109.95488 10:20.564334 11:75.235537 12:99.295274 13:84.709986 14:77.417719 15:97.115485 16:72.196121 17:70.687538 18:105.95388 19:63.081656 20:91.373427 21:84.619358 22:67.822954 23:74.850759 24:76.212219 
-1 1:23.202188 2:20 3:140.56923 4:21.084762 5:22.53561 6:197.55842 7:67.768721 8:120.72738 9:118.60937 10:22.780434 11:81.394357 12:107.14284 13:95.474845 14:78.905958 15:108.41695 16:75.483196 17:73.966505 18:115.40439 19:67.112802 20:105.18265 21:87.60232 22:71.45976 23:76.825976 24:83.903575 
-1 1:20 2:20 3:140.67431 4:20 5:20 6:317.49712 7:117.16771 8:100.37569 9:113.62494 10:20 11:50.543688 12:118.76223 13:92.343461 14:86.101947 15:125.96583 16:87.497933 17:93.361076 18:159.036 19:91.717464 20:111.69736 21:108.82676 22:80.989243 23:64.712383 24:89.672536 
1 1:20 2:20 3:124.304 4:20 5:20 6:184.75729 7:109.87726 8:117.14488 9:135.60215 10:20 11:20 12:181.55006 13:104.6976 14:92.357891 15:141.2862 16:93.351285 17:88.529604 18:155.49012 19:90.750493 20:109.69135 21:108.08877 22:84.56649 23:77.183113 24:112.17278 
-1 1:20 2:20 3:140.02442 4:20 5:20 6:188.93802 7:135.18689 8:105.61053 9:165.89783 10:20 11:20 12:143.01724 13:113.75758 14:115.00459 15:121.0905 16:105.87686 17:100.79662 18:173.99953 19:94.28164 20:144.85758 21:109.07529 22:78.329759 23:85.051222 24:99.736385 
1 1:20 2:20 3:105.53987 4:20 5:20 6:162.30942 7:111.69189 8:64.532207 9:170.66065 10:20 11:20 12:150.85287 13:109.90893 14:97.235028 15:110.09167 16:93.412829 17:92.557496 18:142.5458 19:96.083912 20:96.299966 21:110.77772 22:72.305868 23:80.425182 24:103.37358 
0.7550011037958931 1:20 2:20 3:156.48303 4:20 5:20 6:206.96328 7:140.68941 8:80.744173 9:201.53324 10:20 11:20 12:129.91324 13:113.70531 14:105.03889 15:100.98636 16:107.23437 17:101.22603 18:154.57382 19:98.21907 20:133.39284 21:111.25918 22:74.535729 23:80.503934 24:100.29641 
1 1:20 2:20 3:110.1282 4:20 5:20 6:221.3517 7:120.19644 8:56.489653 9:207.60202 10:20 11:20 12:176.96003 13:125.06968 14:107.80526 15:126.06261 16:110.01602 17:104.21723 18:151.07305 19:103.90122 20:95.892238 21:126.57984 22:80.514591 23:80.856199 24:105.5077 
-1 1:20 2:20 3:97.094806 4:20 5:20 6:182.86099 7:148.87226 8:63.780695 9:220.38178 10:20 11:20 12:131.51853 13:144.44087 14:106.67579 15:123.46947 16:88.133056 17:98.508605 18:139.43894 19:102.67775 20:98.078048 21:125.90908 22:87.48666 23:85.946915 24:105.02077 
1 1:20 2:20 3:136.49978 4:20 5:20 6:213.76672 7:103.83693 8:65.948172 9:124.87306 10:20 11:20 12:77.715999 13:120.21724 14:89.041677 15:103.54866 16:76.346174 17:76.628784 18:133.43772 19:80.372497 20:90.069981 21:103.44277 22:63.668579 23:68.442271 24:83.302227 
0.5909493704788602 1:20 2:20 3:95.2689 4:20 5:20 6:184.41545 7:119.79219 8:46.919358 9:124.08715 10:20 11:20 12:143.86231 13:124.44377 14:91.872447 15:125.54553 16:76.781611 17:82.179451 18:125.55022 19:85.798049 20:70.944204 21:99.350472 22:62.960923 23:71.197601 24:88.815731 
1 1:20 2:20 3:119.24039 4:20 5:20 6:218.71505 7:121.32149 8:124.30197 9:127.03729 10:20 11:20 12:142.4913 13:117.32476 14:88.268143 15:108.26867 16:77.172152 17:75.325029 18:138.42881 19:80.739062 20:111.52055 21:100.6044 22:66.074024 23:72.925247 24:88.555024 
1 1:23.828184 2:23.138521 3:110.2688 4:20.335087 5:24.537803 6:249.12117 7:87.691733 8:102.70861 9:107.72733 10:21.993006 11:20.162278 12:118.11246 13:86.312599 14:68.055161 15:109.96034 16:63.196092 17:66.009371 18:124.20261 19:68.76191 20:84.447624 21:79.471019 22:58.707914 23:64.86452 24:82.81195 
-1 1:21.908359 2:20.307764 3:105.13941 4:22.824359 5:21.379139 6:205.67578 7:98.285734 8:95.574316 9:91.761036 10:21.539766 11:108.14277 12:128.10241 13:88.444447 14:82.636565 15:138.5472 16:82.316895 17:83.621552 18:138.03142 19:86.514102 20:107.58979 21:97.988396 22:71.419204 23:70.95544 24:90.31683 
1 1:20 2:20 3:95.171769 4:20 5:20 6:170.43379 7:111.55963 8:118.71633 9:136.82422 10:21.183534 11:93.4049 12:132.34132 13:107.6465 14:101.17085 15:140.65443 16:93.031788 17:95.198898 18:173.65965 19:90.294432 20:121.35285 21:114.45172 22:83.101902 23:79.046667 24:108.02913 
-0.9667036347498824 1:20 2:20 3:121.66908 4:20 5:20 6:240.8252 7:114.83343 8:75.643275 9:146.6472 10:20 11:51.997944 12:146.68385 13:118.2658 14:113.6235 15:119.72199 16:107.36645 17:101.05826 18:164.33373 19:103.63004 20:105.82492 21:112.23031 22:83.604951 23:84.053061 24:109.13409 
1 1:20 2:20 3:148.99786 4:20 5:20 6:200.99078 7:129.21976 8:76.391501 9:185.64436 10:20 11:20 12:182.09506 13:122.83725 14:111.59286 15:100.73903 16:105.25949 17:101.18333 18:159.88813 19:95.12962 20:120.70561 21:106.51105 22:77.711063 23:86.358602 24:117.30017 
1 1:20 2:20 3:129.20803 4:20 5:20 6:214.20403 7:117.44352 8:64.263426 9:185.82909 10:20 11:20 12:144.70052 13:114.85598 14:107.10285 15:96.13446 16:100.75971 17:95.642347 18:161.90883 19:87.228482 20:106.48251 21:107.8288 22:81.163507 23:84.770043 24:105.19549 
1 1:20 2:20 3:118.94836 4:20 5:20 6:238.83213 7:100.38667 8:48.111552 9:195.64187 10:20 11:20 12:108.4677 13:114.66358 14:108.40091 15:119.50176 16:109.62473 17:109.14131 18:167.71877 19:96.264165 20:103.13328 21:112.08925 22:77.367912 23:74.936499 24:99.470046 
1 1:20 2:20 3:113.85557 4:20 5:20 6:272.53342 7:95.33581 8:61.257038 9:214.81519 10:20 11:20 12:138.77863 13:124.90802 14:102.67129 15:110.2953 16:88.728022 17:98.652052 18:157.68192 19:92.450846 20:94.448201 21:116.79186 22:75.459613 23:78.620473 24:99.410542 
-1 1:20 2:20 3:168.96626 4:20 5:20 6:282.89907 7:97.360023 8:73.69427 9:193.69847 10:20 11:20 12:115.54787 13:123.29607 14:85.648804 15:119.24075 16:76.400747 17:86.317577 18:140.70156 19:77.566141 20:107.09965 21:104.75116 22:70.2571 23:74.286861 24:96.619246 
-1 1:20 2:20 3:174.60162 4:20 5:20 6:262.20882 7:97.155192 8:83.133797 9:173.20614 10:20 11:20 12:137.40172 13:131.52697 14:102.19037 15:114.28902 16:88.500133 17:91.586699 18:156.33434 19:85.45497 20:111.62644 21:101.89686 22:80.288098 23:82.865086 24:96.293105 
0.1043494215477511 1:20 2:20 3:162.08481 4:20 5:20 6:235.0615 7:105.88446 8:99.908739 9:176.22047 10:20 11:20 12:191.21357 13:133.72968 14:103.39895 15:114.4816 16:87.152419 17:88.884436 18:163.73654 19:84.663982 20:124.16539 21:102.24556 22:79.391045 23:81.182794 24:105.36736 
1 1:20 2:20 3:144.92244 4:20 5:20 6:214.93815 7:97.83951 8:94.931466 9:122.60318 10:20 11:20 12:180.12601 13:105.52177 14:98.089304 15:116.42512 16:86.15846 17:82.902418 18:149.88984 19:78.552578 20:115.86531 21:93.508431 22:71.09622 23:73.516242 24:99.303447 
1 1:21.256588 2:22.620972 3:107.46653 4:20.702967 5:20.646462 6:136.57548 7:36.895514 8:83.028859 9:90.802637 10:20 11:58.447054 12:89.866912 13:48.638294 14:60.649039 15:95.986983 16:51.665265 17:55.085344 18:121.20044 19:40.482031 20:67.659308 21:38.339604 22:47.265795 23:54.827271 24:80.110516 
1 1:20 2:20 3:92.95845 4:20 5:20 6:230.07091 7:57.768924 8:65.483787 9:140.98348 10:20 11:20 12:117.23043 13:74.864049 14:64.300008 15:115.61232 16:59.458398 17:67.057862 18:142.97229 19:55.371987 20:78.593151 21:75.732514 22:60.600059 23:74.238467 24:103.35666 
1 1:20 2:20 3:145.21808 4:20 5:20 6:228.80669 7:54.570842 8:87.829676 9:147.52999 10:20 11:20 12:164.4542 13:80.476341 14:62.563639 15:81.778598 16:57.311869 17:64.235342 18:136.69626 19:54.702814 20:108.54749 21:74.13259 22:59.442678 23:71.78099 24:104.40302 
-1 1:20 2:20 3:116.91378 4:20 5:20 6:249.49592 7:55.038832 8:62.805011 9:142.75956 10:20 11:20 12:124.1311 13:85.810659 14:64.911751 15:105.53672 16:59.107565 17:63.417085 18:140.86169 19:56.821982 20:72.28884 21:79.416654 22:57.306359 23:62.789089 24:95.268606 
1 1:20 2:20 3:114.21922 4:20 5:20 6:246.67431 7:87.920788 8:71.194404 9:156.17416 10:20 11:20 12:117.09782 13:113.90038 14:99.153702 15:158.45298 16:93.796624 17:87.72967 18:167.95383 19:85.29411 20:77.374769 21:91.86668 22:74.503053 23:82.726611 24:105.1166 
1 1:20 2:24.608314 3:152.97984 4:20 5:20 6:226.51065 7:107.42763 8:135.56409 9:122.33031 10:20 11:20 12:134.28652 13:96.84812 14:80.02045 15:117.92776 16:84.741413 17:79.371501 18:145.78672 19:76.803685 20:111.88959 21:85.011524 22:64.356715 23:73.665935 24:82.991167 
-1 1:24.147881 2:22.025172 3:112.7486 4:21.762803 5:20.980906 6:231.22428 7:91.324957 8:99.815104 9:110.3113 10:24.03826 11:22.440228 12:165.00988 13:74.613835 14:64.153519 15:100.444 16:60.606189 17:68.826119 18:125.47386 19:65.968843 20:81.490068 21:78.222611 22:54.298837 23:62.524274 24:85.717052 
-1 1:23.641809 2:24.050908 3:134.09408 4:22.805051 5:22.484531 6:232.58734 7:82.62455 8:123.42097 9:104.28558 10:23.615323 11:22.50226 12:168.09114 13:74.935149 14:68.682514 15:98.501868 16:61.689004 17:61.583126 18:122.2805 19:64.577563 20:99.106914 21:75.136623 22:51.862564 23:58.493461 24:87.00829 
-1 1:20.734093 2:27.436832 3:152.86046 4:23.013346 5:21.94831 6:233.74604 7:61.928469 8:94.403406 9:112.42964 10:24.407595 11:21.555812 12:137.67606 13:77.531339 14:71.668208 15:95.384146 16:65.054736 17:65.859347 18:110.98736 19:60.320043 20:74.279158 21:79.133224 22:65.109232 23:67.047754 24:90.796018 
-1 1:20 2:20 3:98.827405 4:20 5:20.645765 6:192.13251 7:85.55441 8:102.34402 9:96.317877 10:23.882697 11:118.12727 12:117.87524 13:82.49841 14:78.74935 15:131.37164 16:75.728085 17:76.020104 18:130.22387 19:72.503175 20:107.40096 21:73.603455 22:59.028509 23:65.175139 24:87.386726 
-1 1:22.52761 2:21.457073 3:133.92558 4:20 5:20 6:180.52888 7:96.508225 8:116.29841 9:104.10681 10:23.819918 11:64.139729 12:159.35292 13:86.788637 14:91.233208 15:138.79692 16:90.632403 17:91.410824 18:146.75609 19:87.644866 20:128.81625 21:88.025796 22:79.587328 23:74.048412 24:108.6878 
-1 1:20 2:20 3:157.66912 4:20 5:20 6:243.97678 7:104.36631 8:104.45374 9:152.21911 10:20 11:20.988606 12:134.86617 13:98.140748 14:94.384915 15:122.65672 16:93.946219 17:86.857886 18:166.4253 19:85.323225 20:137.55577 21:92.083518 22:80.812809 23:83.123465 24:107.37271 
-1 1:20 2:20 3:112.09795 4:20 5:20 6:284.67523 7:96.851723 8:80.9936 9:153.44735 10:20 11:21.226784 12:126.41144 13:100.62643 14:99.415482 15:130.48366 16:97.374286 17:91.542126 18:168.1298 19:85.499877 20:107.61543 21:101.36096 22:81.50493 23:81.599542 24:102.43059 
1 1:20 2:20 3:169.32368 4:20 5:20 6:201.17517 7:102.225 8:89.286576 9:187.75933 10:20 11:20 12:228.32469 13:121.8494 14:114.8591 15:112.6992 16:98.118512 17:103.47553 18:177.92301 19:91.821082 20:145.24035 21:108.98669 22:82.949837 23:99.556706 24:134.41271 
-1 1:20 2:20 3:113.98469 4:20 5:20 6:251.08694 7:85.596336 8:57.004311 9:182.74544 10:20 11:20 12:138.25916 13:102.19919 14:86.763928 15:102.5094 16:83.658402 17:88.921688 18:155.65704 19:79.706476 20:104.48472 21:103.65983 22:76.503489 23:80.022158 24:99.787035 
-1 1:20 2:20 3:89.57154 4:20 5:20 6:203.35295 7:84.712665 8:52.312913 9:192.93906 10:20 11:20 12:185.54656 13:112.99678 14:86.883919 15:102.54865 16:80.7259 17:86.660688 18:147.74992 19:82.0583 20:81.690972 21:112.506 22:68.258247 23:73.0715 24:98.397965 
-1 1:20 2:20 3:96.566952 4:20 5:20.634414 6:207.03672 7:91.187722 8:49.49434 9:187.10769 10:20 11:20 12:121.66985 13:124.12211 14:85.220493 15:124.27756 16:78.316988 17:83.009666 18:138.44706 19:80.642287 20:71.446201 21:112.73644 22:70.259527 23:72.97363 24:100.29573 
-1 1:20 2:20 3:94.621579 4:20 5:20 6:231.06086 7:92.810644 8:57.807921 9:192.1062 10:20 11:20 12:114.86123 13:120.76581 14:84.903443 15:122.29892 16:77.094739 17:79.369117 18:145.74272 19:75.918628 20:83.832611 21:107.04838 22:69.588433 23:70.319407 24:97.316612 
-1 1:20 2:20 3:151.64183 4:20 5:20 6:256.248 7:89.842714 8:79.446816 9:171.52926 10:20 11:20 12:159.12731 13:124.14817 14:102.66707 15:122.03562 16:91.396081 17:86.977031 18:174.95877 19:82.215486 20:106.33721 21:99.941634 22:80.310237 23:91.205431 24:106.27547 
1 1:20 2:20 3:150.03524 4:20 5:20 6:218.52727 7:87.239592 8:107.33566 9:143.03245 10:20 11:20 12:101.16758 13:106.4225 14:99.674081 15:140.94681 16:91.209759 17:82.77337 18:161.96788 19:80.856717 20:116.0692 21:85.168481 22:75.321414 23:81.277448 24:94.195511 
-1 1:24.996247 2:20 3:131.19796 4:20 5:20 6:222.98208 7:89.609505 8:77.408377 9:124.40705 10:20 11:20 12:123.74174 13:100.83773 14:81.477126 15:123.19927 16:83.916866 17:79.008089 18:149.34261 19:79.199509 20:78.242149 21:86.83343 22:63.219075 23:75.014444 24:88.10207 
1 1:24.559035 2:23.412117 3:128.99379 4:22.331126 5:23.764087 6:214.26787 7:63.761808 8:113.0919 9:94.896049 10:21.276925 11:20.429774 12:156.94926 13:67.984934 14:62.073017 15:98.792098 16:58.031466 17:71.034498 18:128.97534 19:59.650511 20:102.78129 21:63.688547 22:55.2934 23:58.899154 24:90.064607 
1 1:22.468412 2:22.339311 3:89.187206 4:21.977919 5:20.692632 6:163.3922 7:70.838281 8:72.61122 9:97.183536 10:22.153843 11:21.16478 12:119.12879 13:70.324575 14:63.367204 15:95.080601 16:62.82229 17:66.952492 18:136.61367 19:61.892899 20:71.529694 21:65.364532 22:49.878756 23:57.389697 24:77.143474 
-0.2998103151334406 1:23.349544 2:20 3:157.16117 4:20 5:22.287797 6:243.1246 7:63.545485 8:109.81825 9:106.33072 10:23.248883 11:22.130659 12:144.05817 13:68.466877 14:60.693395 15:87.904013 16:57.151666 17:56.57552 18:111.22787 19:56.340907 20:78.802927 21:69.68476 22:55.238005 23:59.339373 24:84.43418 
-1 1:22.567151 2:24.123198 3:77.630009 4:22.294872 5:21.369017 6:86.76167 7:37.839544 8:58.722106 9:78.72891 10:22.39936 11:32.320921 12:66.216442 13:43.788628 14:46.601169 15:54.639972 16:46.458325 17:43.411026 18:77.707251 19:36.094674 20:47.586643 21:44.869029 22:37.128565 23:37.881411 24:42.130569 
1 1:22.909934 2:22.79439 3:90.220322 4:22.699717 5:20.780072 6:95.304021 7:36.480076 8:66.872087 9:78.580589 10:23.454907 11:42.817885 12:71.636611 13:43.856595 14:48.873103 15:62.37709 16:47.301399 17:42.394488 18:88.603715 19:34.948797 20:51.271058 21:41.794364 22:35.839303 23:39.254045 24:47.544686 
-1 1:23.202833 2:22.350916 3:128.69793 4:25.794977 5:22.296084 6:190.11443 7:64.085539 8:88.365327 9:110.02248 10:21.920122 11:21.046554 12:95.4743 13:63.335887 14:76.042504 15:104.64159 16:65.294916 17:69.965103 18:137.36453 19:62.376621 20:107.20743 21:64.137559 22:63.215112 23:66.366934 24:86.342746 
-1 1:20 2:20 3:130.23966 4:20 5:20 6:265.2447 7:80.604993 8:101.39793 9:141.94004 10:23.407433 11:23.105855 12:115.83005 13:79.961465 14:83.15303 15:132.04234 16:74.612751 17:79.508421 18:176.4701 19:71.427357 20:117.63995 21:79.052057 22:67.728139 23:79.331122 24:107.03361 
1 1:20 2:20 3:110.05145 4:20 5:20 6:227.22982 7:73.496676 8:73.700755 9:167.44589 10:20 11:20 12:147.32972 13:86.537275 14:97.861153 15:119.40207 16:84.325561 17:87.904321 18:171.8942 19:76.51372 20:77.188325 21:98.251761 22:79.225253 23:96.196488 24:122.64258 
-1 1:20 2:20 3:140.49596 4:20 5:20 6:207.57168 7:81.538743 8:102.39187 9:150.94451 10:20 11:20 12:130.46308 13:90.731694 14:74.877692 15:101.01848 16:62.378618 17:75.598449 18:145.09189 19:67.976405 20:128.24383 21:93.286493 22:63.405331 23:77.360815 24:95.356946 
-1 1:20 2:20 3:100.44631 4:20 5:20 6:205.09835 7:70.248407 8:75.674044 9:147.14413 10:20 11:20 12:106.97277 13:91.547013 14:70.020673 15:108.08369 16:62.608764 17:73.504836 18:150.73054 19:61.91991 20:107.32826 21:87.952331 22:62.797783 23:72.465186 24:99.370033 
-1 1:20 2:20 3:137.57437 4:20 5:20 6:208.87154 7:68.35183 8:83.643162 9:154.09803 10:20 11:20 12:163.25402 13:97.574192 14:70.856055 15:93.492125 16:65.50493 17:71.469936 18:123.49415 19:63.959183 20:82.350093 21:86.967657 22:60.363013 23:62.616701 24:110.05284 
-1 1:20 2:20 3:143.66452 4:20 5:20 6:225.64122 7:58.641531 8:86.375457 9:145.2353 10:20 11:20 12:162.98592 13:101.10552 14:85.916294 15:117.26558 16:80.023067 17:75.450384 18:140.79694 19:65.551754 20:97.465986 21:81.280392 22:72.35909 23:73.850211 24:114.19409 
-1 1:20 2:21.861644 3:155.20628 4:21.724699 5:20 6:213.68095 7:82.958015 8:138.41581 9:146.52147 10:20 11:20 12:124.03353 13:87.425662 14:88.991439 15:123.28743 16:83.50792 17:84.841935 18:168.19068 19:79.63538 20:138.39665 21:79.186232 22:77.511913 23:81.261966 24:105.06227 
-1 1:20 2:23.554987 3:121.5379 4:24.103678 5:20 6:225.07972 7:70.375055 8:77.246934 9:120.10278 10:20 11:20 12:121.03941 13:83.431882 14:80.735014 15:114.60334 16:79.729013 17:84.189681 18:151.97616 19:68.679311 20:75.395968 21:79.442859 22:67.840616 23:74.261657 24:92.355593 
-1 1:22.283279 2:21.530445 3:108.75116 4:25.03271 5:20 6:188.78109 7:83.883259 8:123.8278 9:115.61029 10:20 11:20 12:160.79736 13:83.715328 14:76.631955 15:108.5049 16:73.549266 17:76.242872 18:148.80273 19:75.710081 20:127.36406 21:73.295722 22:70.201046 23:76.998992 24:98.577816 
1 1:21.316135 2:21.414323 3:129.73707 4:23.39204 5:21.946848 6:210.85224 7:70.772121 8:97.928179 9:106.83502 10:21.951909 11:25.536322 12:131.31257 13:71.353928 14:71.80624 15:105.98674 16:70.058198 17:71.693807 18:141.31128 19:61.918349 20:97.710838 21:70.839335 22:57.505274 23:65.092551 24:85.566357 
-1 1:20 2:21.016428 3:91.104394 4:21.802442 5:20.646265 6:206.00122 7:61.222121 8:91.96517 9:86.886327 10:22.239548 11:20 12:138.12571 13:60.259733 14:53.729808 15:90.656798 16:49.135836 17:57.859912 18:122.07644 19:50.442738 20:72.236375 21:56.865544 22:45.367185 23:48.379533 24:83.724695 
0.4073092657352497 1:20.693882 2:20 3:65.380173 4:21.013543 5:20.721371 6:69.439637 7:27.896234 8:48.796789 9:78.413104 10:21.382058 11:26.688766 12:54.237572 13:36.078146 14:43.498535 15:43.111225 16:41.634373 17:39.013689 18:64.498424 19:32.430796 20:35.894867 21:36.03879 22:33.008466 23:34.200387 24:38.197941 
-1 1:21.595947 2:20.905308 3:89.497626 4:21.382503 5:20 6:161.02772 7:38.583205 8:79.371472 9:80.942208 10:20.071068 11:107.55163 12:102.04963 13:43.341422 14:45.138748 15:102.14155 16:41.822901 17:40.48636 18:111.3449 19:38.464458 20:82.318087 21:34.640851 22:36.990335 23:58.484713 24:79.327125 
-1 1:23.673746 2:22.554756 3:80.20914 4:21.492896 5:24.063418 6:158.79045 7:41.572623 8:60.773591 9:73.867238 10:21.962589 11:39.337756 12:103.50237 13:41.885144 14:43.457645 15:101.97506 16:41.998555 17:43.28078 18:112.13137 19:39.210034 20:55.785883 21:37.349951 22:37.386481 23:40.303427 24:82.004661 
-1 1:26.252062 2:20.605551 3:102.28632 4:21.878609 5:21.910796 6:169.04046 7:41.154117 8:59.294558 9:84.731893 10:21.808852 11:39.049328 12:110.97912 13:49.511551 14:54.882707 15:103.31048 16:51.059495 17:52.330693 18:112.97877 19:44.198456 20:54.170513 21:42.112219 22:46.224883 23:48.022216 24:83.535859 
0.5886505860518846 1:23.332945 2:26.012286 3:87.747241 4:22.169873 5:23.348652 6:191.22011 7:33.97828 8:67.322387 9:94.582622 10:23.487716 11:23.170245 12:115.05599 13:49.324825 14:55.605356 15:121.98071 16:49.514126 17:52.083971 18:121.20158 19:40.825413 20:54.116087 21:45.814115 22:45.405709 23:45.88789 24:93.271614 
1 1:21.123106 2:21 3:104.99874 4:21.814822 5:22.070782 6:159.54719 7:27.301836 8:89.728823 9:96.854391 10:21.910453 11:21.286542 12:117.1926 13:43.791818 14:45.615162 15:93.784182 16:42.407194 17:40.717069 18:112.10672 19:34.18974 20:100.37807 21:39.854237 22:36.45226 23:39.566737 24:81.23684 
1 1:21.316622 2:22.627007 3:81.204305 4:24.15279 5:22.662859 6:109.4546 7:26.721248 8:84.182621 9:85.523657 10:21.274155 11:20 12:84.168444 13:35.034362 14:35.942759 15:82.345895 16:34.036243 17:34.545776 18:130.30945 19:29.702296 20:105.71254 21:34.8297 22:31.727446 23:33.353912 24:77.868133 
1 1:21.354962 2:22.954022 3:74.25623 4:22.044729 5:21.155004 6:158.85982 7:25.242648 8:56.543856 9:82.540575 10:22.073384 11:23.22552 12:80.955035 13:35.745979 14:34.421653 15:100.4694 16:31.984442 17:35.776878 18:118.52305 19:30.544094 20:57.717793 21:34.716421 22:30.546831 23:33.868067 24:78.619687 
1 1:21.655469 2:21.663055 3:99.55432 4:22.841524 5:23.971265 6:156.61263 7:24.893044 8:68.359664 9:81.46107 10:20 11:23.797202 12:117.522 13:33.710191 14:34.211193 15:84.267016 16:32.739688 17:32.018883 18:106.93572 19:29.39189 20:94.412508 21:33.017604 22:29.871429 23:31.320291 24:80.843371 
1 1:22.163204 2:22.573318 3:106.56009 4:20.222125 5:20 6:153.21058 7:24.660871 8:64.636257 9:81.642225 10:22.379855 11:22.812242 12:91.882097 13:30.732059 14:31.777875 15:77.939502 16:32.594158 17:33.002585 18:109.12609 19:27.909937 20:65.620444 21:30.671286 22:29.286228 23:31.847619 24:71.675891 
1 1:23.456387 2:24.805515 3:127.89712 4:22.337103 5:21.113865 6:231.09989 7:93.334393 8:103.47955 9:97.743232 10:22.853824 11:71.776362 12:134.92476 13:90.644268 14:67.316006 15:109.89517 16:68.209288 17:67.711605 18:129.72737 19:72.424518 20:102.38357 21:104.56039 22:68.021794 23:58.018737 24:82.757827 
1 1:20.493437 2:20.714267 3:89.723402 4:21.687792 5:21.904919 6:226.01532 7:87.116489 8:77.786409 9:88.940923 10:23.231024 11:42.791703 12:114.79215 13:87.175587 14:67.907377 15:120.93639 16:70.381212 17:68.678648 18:134.48308 19:73.782769 20:73.802107 21:97.945672 22:70.321005 23:57.067211 24:78.403893 
-1 1:20.871052 2:20 3:126.08077 4:20 5:20 6:243.65339 7:116.83734 8:92.498109 9:135.49604 10:21.778587 11:24.532591 12:134.49507 13:109.91381 14:95.270535 15:119.33134 16:90.769911 17:84.102277 18:161.82274 19:93.668766 20:83.805021 21:110.52457 22:77.035773 23:74.461556 24:97.442542 
-1 1:20 2:20 3:133.99612 4:20 5:20 6:270.86177 7:127.11973 8:82.484432 9:176.22837 10:20 11:20 12:155.55059 13:123.38026 14:122.57072 15:132.93518 16:116.68304 17:107.38915 18:173.62411 19:106.89151 20:99.618168 21:115.00622 22:80.473222 23:95.392271 24:109.03534 
1 1:20 2:20 3:112.23635 4:20 5:20 6:248.88453 7:97.366425 8:89.989114 9:161.58148 10:20 11:20.474889 12:128.77294 13:82.621134 14:74.504924 15:123.15337 16:68.942503 17:79.485631 18:149.52206 19:75.235479 20:93.104176 21:89.869271 22:73.555486 23:78.610531 24:110.31955 
-1 1:20 2:20 3:152.98504 4:20 5:20 6:274.03973 7:105.31339 8:112.16424 9:199.14717 10:20 11:20 12:115.14163 13:119.57635 14:92.46283 15:111.49767 16:87.085239 17:92.66156 18:148.70031 19:80.874391 20:133.90429 21:106.39293 22:72.97614 23:71.474054 24:95.600005 
-1 1:20 2:20 3:176.3515 4:20 5:20 6:277.12698 7:110.70123 8:104.29686 9:184.19882 10:20 11:20 12:127.11155 13:129.97442 14:87.32023 15:98.282438 16:79.355225 17:86.759754 18:140.27863 19:76.72772 20:112.77347 21:107.28086 22:69.154018 23:75.387083 24:94.335055 
-1 1:20 2:20 3:121.78648 4:20 5:20 6:223.49917 7:116.57364 8:115.98585 9:169.84709 10:20 11:20 12:205.96789 13:112.086 14:79.825804 15:116.82429 16:73.363546 17:74.149024 18:125.64955 19:80.565367 20:99.145481 21:97.771289 22:58.460569 23:65.279542 24:92.505225 
1 1:20 2:20 3:110.47754 4:20 5:20 6:238.88618 7:115.7749 8:113.29737 9:108.83018 10:20 11:79.734501 12:144.52467 13:86.24449 14:73.555472 15:112.55251 16:67.090238 17:68.588789 18:131.76186 19:76.456635 20:103.70937 21:91.28927 22:56.296663 23:61.264097 24:88.50129 
1 1:25.590644 2:23.686009 3:149.02644 4:22.308577 5:21.872846 6:210.21437 7:122.75264 8:87.079824 9:120.96979 10:20 11:54.418552 12:123.93614 13:85.861904 14:71.961976 15:95.399387 16:68.237088 17:65.426113 18:126.70798 19:73.685111 20:70.461622 21:78.404576 22:58.470654 23:62.782555 24:81.965991 
-1 1:22.079118 2:21.102377 3:100.82696 4:20 5:20 6:205.60397 7:135.96816 8:86.359773 9:115.71495 10:20 11:53.379574 12:153.88076 13:100.354 14:85.371566 15:134.3971 16:84.157375 17:85.818153 18:147.48949 19:94.528956 20:90.969781 21:86.082743 22:63.077297 23:66.166349 24:89.64401 
1 1:22.881232 2:20.993111 3:134.1284 4:21.253343 5:22.632939 6:213.02614 7:120.15282 8:85.022681 9:126.84749 10:20 11:21.218622 12:159.4411 13:107.4223 14:91.255332 15:114.68224 16:82.597684 17:76.018163 18:148.10765 19:94.641401 20:78.626181 21:92.506699 22:67.354596 23:71.41919 24:93.167702 
-1 1:22.485651 2:24.434857 3:105.408 4:22.535281 5:22.171673 6:199.15239 7:105.68207 8:79.758091 9:104.97882 10:24.061094 11:25.661681 12:138.82799 13:90.034948 14:76.413894 15:125.50197 16:74.207318 17:74.212186 18:143.57539 19:77.410765 20:79.477209 21:80.480833 22:63.240901 23:64.492688 24:93.701279 
-1 1:20.09902 2:22.896304 3:120.74673 4:21.835893 5:22.518113 6:226.62037 7:87.587248 8:103.78053 9:123.93871 10:23.177226 11:47.054847 12:129.60639 13:93.451574 14:80.123067 15:117.78703 16:74.657046 17:72.815536 18:120.98562 19:69.865275 20:89.837542 21:89.860407 22:73.199083 23:75.208676 24:91.568184 
1 1:20.599271 2:22.939264 3:125.06165 4:20.916975 5:24.968408 6:145.70801 7:64.169337 8:94.182052 9:105.78311 10:20.404004 11:56.107197 12:99.183213 13:98.538898 14:94.714515 15:97.264337 16:92.434537 17:89.487443 18:115.09498 19:82.298508 20:100.97522 21:110.64058 22:88.916359 23:94.828267 24:91.297213 
1 1:23.00706 2:22.510584 3:134.80437 4:22.152659 5:21.164309 6:196.43658 7:98.12486 8:85.945822 9:114.16938 10:21.509442 11:65.419476 12:145.67212 13:96.231536 14:84.505405 15:136.73624 16:91.930188 17:89.833942 18:151.99862 19:93.116785 20:87.671598 21:112.06833 22:82.964095 23:66.598348 24:96.614949 
-1 1:20 2:20 3:116.02972 4:20 5:20 6:214.17553 7:122.77106 8:94.836301 9:148.17851 10:20 11:96.350012 12:151.81526 13:128.09894 14:117.71337 15:131.27768 16:104.78622 17:97.924257 18:178.62809 19:96.788753 20:98.049043 21:124.76201 22:84.967512 23:79.268407 24:108.94209 
-1 1:20 2:20 3:126.36241 4:20 5:20 6:245.62051 7:130.72215 8:86.84173 9:152.62075 10:20 11:48.986992 12:129.42549 13:123.50671 14:109.68862 15:127.38974 16:102.43882 17:100.2299 18:166.98773 19:103.85081 20:113.21008 21:125.31113 22:85.309586 23:81.201642 24:104.18955 
1 1:20 2:20 3:159.83378 4:20 5:20 6:289.59848 7:114.74797 8:78.549179 9:189.33773 10:20 11:36.294431 12:120.04531 13:144.34054 14:146.38027 15:138.63876 16:121.81839 17:122.89017 18:171.96027 19:104.77517 20:125.05842 21:113.41193 22:90.270378 23:87.712578 24:108.99534 
-0.9579688104166679 1:20 2:20 3:139.11624 4:20 5:20 6:203.96337 7:119.18222 8:79.198113 9:204.85021 10:20 11:42.609008 12:206.82264 13:135.39549 14:118.24151 15:117.21982 16:127.21729 17:117.62724 18:157.92935 19:111.76758 20:109.07641 21:129.68908 22:83.136539 23:83.356186 24:126.00684 
1 1:20 2:20 3:105.05202 4:20 5:20 6:162.94387 7:156.86244 8:76.028303 9:202.48095 10:20 11:48.605485 12:198.7002 13:114.35723 14:106.36883 15:116.81291 16:99.759351 17:110.44808 18:164.75176 19:105.76298 20:125.07963 21:111.90083 22:89.183629 23:76.298604 24:108.972 
-1 1:20 2:20 3:119.14905 4:20 5:20 6:232.57024 7:126.45303 8:88.241236 9:200.93533 10:20 11:29.122341 12:100.08962 13:142.18611 14:114.08652 15:113.30677 16:105.65707 17:107.35005 18:151.6701 19:104.60143 20:129.94428 21:129.96282 22:89.635074 23:85.429744 24:102.6641 
-1 1:20 2:20 3:119.24341 4:20 5:20 6:198.02822 7:139.50652 8:96.36717 9:209.83592 10:20 11:46.506576 12:158.70014 13:150.85461 14:116.97817 15:117.88286 16:104.77388 17:106.69499 18:150.02406 19:105.58692 20:132.72922 21:138.99919 22:90.564783 23:87.991138 24:105.13676 
1 1:20 2:20 3:127.67294 4:20 5:20 6:213.07101 7:116.20604 8:64.843135 9:145.3782 10:20 11:26.508159 12:85.865142 13:122.60944 14:101.32148 15:110.23917 16:89.86926 17:88.266388 18:142.62384 19:90.349875 20:96.422973 21:102.9363 22:79.373228 23:76.835141 24:99.932316 
1 1:20 2:20 3:147.74886 4:20 5:20 6:243.93449 7:134.48498 8:72.792511 9:133.2212 10:20 11:25.08447 12:96.300505 13:122.36759 14:99.325879 15:124.42071 16:91.246942 17:80.354729 18:145.51986 19:92.999568 20:83.924036 21:100.41538 22:74.855814 23:73.819628 24:97.810798 
1 1:20.605643 2:20.727922 3:149.79661 4:20 5:20 6:289.36202 7:115.37767 8:95.001516 9:129.143 10:20 11:42.554337 12:121.03928 13:110.22404 14:90.452645 15:135.6467 16:90.063315 17:82.506604 18:138.33496 19:88.320141 20:84.00947 21:98.891596 22:68.514274 23:70.682183 24:95.228002 
1 1:24.015509 2:24.339796 3:128.24915 4:22.749438 5:21.756497 6:237.35045 7:119.80164 8:95.178402 9:126.11042 10:22.252013 11:35.914578 12:134.68666 13:106.346 14:87.321951 15:126.24452 16:83.761024 17:84.234703 18:146.79907 19:92.524718 20:81.716249 21:94.210088 22:68.515489 23:70.465406 24:95.625893 
-1 1:22.292716 2:22.224535 3:110.3668 4:21.673418 5:22.224864 6:182.05604 7:128.53603 8:119.34771 9:124.38178 10:21.300039 11:59.875635 12:119.25788 13:100.04961 14:77.02676 15:116.37354 16:73.011395 17:74.885767 18:137.04655 19:91.621703 20:105.7671 21:99.805628 22:66.214748 23:69.82723 24:84.177413 
-1 1:22.738863 2:22.394535 3:122.85203 4:22.089151 5:23.738021 6:109.80324 7:70.324275 8:84.132615 9:99.053895 10:22.038529 11:57.598657 12:94.428948 13:73.297614 14:66.447076 15:86.494596 16:63.772405 17:61.874967 18:94.181038 19:57.446623 20:67.501311 21:66.956211 22:55.316812 23:56.638786 24:58.442293 
-1 1:21.57411 2:22.285151 3:106.48075 4:25.013845 5:22.081634 6:132.14816 7:62.946825 8:72.038258 9:85.607012 10:20.418504 11:69.158866 12:116.60536 13:56.76332 14:62.086615 15:105.37221 16:62.742224 17:59.347572 18:112.75436 19:61.548556 20:64.022061 21:66.439633 22:53.41534 23:61.418725 24:85.72566 
-1 1:20.285383 2:20 3:110.14561 4:20 5:20 6:148.36868 7:73.247051 8:107.74109 9:107.98273 10:22.12859 11:144.68868 12:131.64275 13:69.377148 14:85.34687 15:122.06328 16:76.179361 17:77.345613 18:137.4085 19:68.050278 20:123.05666 21:73.892741 22:68.737392 23:85.632913 24:88.882664 
-1 1:24.543494 2:22.548548 3:115.82563 4:20.74347 5:22.604446 6:149.39564 7:71.03998 8:127.66909 9:123.48328 10:22.793883 11:129.22397 12:169.96345 13:88.944779 14:85.268585 15:122.71794 16:78.072953 17:85.02487 18:143.64192 19:71.60923 20:116.79978 21:74.837038 22:69.379044 23:87.733262 24:106.23902 
-1 1:21.250968 2:20 3:159.54193 4:20 5:20 6:224.18033 7:91.955916 8:90.062332 9:124.4703 10:20 11:127.34077 12:129.59447 13:84.75648 14:82.336396 15:107.04228 16:70.758024 17:74.27218 18:142.77489 19:66.92937 20:83.310533 21:74.580325 22:60.311739 23:72.209408 24:87.867261 
1 1:23.526704 2:20.933515 3:82.874152 4:21.819547 5:22.580996 6:164.07917 7:58.753467 8:104.48906 9:77.504934 10:23.088338 11:123.75819 12:109.77467 13:56.852088 14:57.641826 15:89.815208 16:50.674699 17:54.328332 18:108.9004 19:52.412334 20:96.895385 21:68.53403 22:55.717837 23:66.924673 24:84.560744 
-1 1:22.187182 2:21.011313 3:96.716554 4:21.988963 5:22.088404 6:176.51746 7:86.076301 8:103.79877 9:93.777259 10:24.191322 11:140.06844 12:115.07892 13:74.122368 14:61.718924 15:105.40535 16:58.89737 17:57.113175 18:123.25029 19:55.638313 20:89.877221 21:63.266839 22:52.444289 23:69.958588 24:68.58108 
-1 1:20 2:20 3:170.4721 4:20 5:20 6:223.25173 7:97.171761 8:92.456785 9:161.4311 10:20 11:94.328572 12:137.02735 13:94.659257 14:79.488696 15:117.98768 16:69.827991 17:77.671367 18:147.27348 19:63.416644 20:77.996136 21:84.490914 22:67.052391 23:70.51507 24:91.596283 
-1 1:20 2:20 3:149.25995 4:20 5:20 6:183.13566 7:88.852104 8:123.02785 9:168.05236 10:20 11:146.36811 12:166.71802 13:106.59103 14:80.661392 15:125.08135 16:76.397234 17:82.33507 18:159.19068 19:68.95073 20:110.91289 21:94.313447 22:66.967882 23:82.532585 24:102.62487 
1 1:20 2:20 3:182.83414 4:20 5:20 6:236.49797 7:105.33812 8:83.309065 9:172.14377 10:20 11:38.547321 12:136.78931 13:126.51891 14:102.27775 15:145.02672 16:95.868629 17:93.670133 18:166.57639 19:97.799625 20:83.906949 21:96.544271 22:82.468667 23:76.629267 24:124.7268 
-1 1:21.64241 2:20.383914 3:117.07482 4:20 5:20 6:202.01883 7:97.136323 8:95.242783 9:116.52603 10:20 11:48.686448 12:185.81457 13:102.34909 14:85.112074 15:134.80241 16:87.639485 17:77.115561 18:145.12938 19:83.567897 20:93.607813 21:78.626155 22:68.54567 23:61.87438 24:111.60728 
-1 1:20.499814 2:22.165171 3:131.86828 4:20.294898 5:20 6:216.76811 7:93.515085 8:83.152766 9:115.74073 10:20 11:51.024703 12:166.04079 13:91.81712 14:78.672522 15:134.07767 16:82.908391 17:76.925582 18:138.10727 19:77.164384 20:73.19104 21:79.084764 22:65.324583 23:62.680814 24:102.274 
1 1:21.791302 2:22.541047 3:149.17107 4:21.276297 5:21.549496 6:248.46589 7:72.301621 8:115.65208 9:113.7552 10:22.332406 11:115.24777 12:139.55414 13:77.794372 14:67.951923 15:116.47571 16:64.888413 17:57.219718 18:113.67933 19:60.895868 20:104.37271 21:82.786286 22:60.431109 23:68.855181 24:95.236965 
1 1:20.898845 2:22.950419 3:126.75652 4:22.413421 5:21.486101 6:232.12357 7:68.895662 8:105.76489 9:95.539351 10:23.7747 11:108.33562 12:137.96935 13:72.244226 14:59.930991 15:109.01036 16:57.854293 17:59.400848 18:122.48714 19:58.616588 20:92.917005 21:76.067275 22:53.837861 23:62.797708 24:86.171546 
1 1:22.650729 2:23.265264 3:112.33351 4:20.621233 5:21.544635 6:145.97978 7:52.212043 8:86.466576 9:116.21051 10:23.090669 11:51.70044 12:102.59835 13:84.048694 14:77.325814 15:88.884489 16:72.144932 17:73.241056 18:102.82656 19:62.012857 20:81.143176 21:87.943003 22:70.099234 23:74.618585 24:75.183083 
-0.9197349299091093 1:21.176969 2:63.123333 3:123.30597 4:21.444781 5:21.96106 6:114.77138 7:60.208322 8:99.882498 9:81.466993 10:21.110328 11:92.277485 12:153.36171 13:75.147918 14:76.967095 15:111.1489 16:73.479175 17:72.183278 18:134.29549 19:66.065433 20:107.82264 21:57.321155 22:63.334468 23:80.777821 24:90.53193 
-1 1:21.68019 2:20.571155 3:155.30713 4:21.909365 5:20.507506 6:174.4768 7:73.082511 8:94.907242 9:125.18504 10:21.036166 11:108.85381 12:120.40273 13:83.976765 14:89.851192 15:110.36351 16:75.569084 17:79.702168 18:148.28676 19:66.903393 20:88.778801 21:65.828988 22:74.342918 23:85.501919 24:92.636666 
1 1:20 2:20 3:139.51056 4:20 5:20 6:199.64982 7:65.082091 8:110.65716 9:152.3324 10:20.155865 11:85.709194 12:145.66348 13:81.507887 14:87.516945 15:130.46896 16:77.246945 17:80.255654 18:163.15943 19:71.689708 20:118.3251 21:78.524753 22:77.566249 23:88.048177 24:121.67167 
1 1:20 2:20 3:133.79886 4:20 5:20 6:195.40408 7:65.583226 8:105.64409 9:149.23463 10:20 11:84.478675 12:126.64478 13:74.435645 14:83.801833 15:117.37148 16:74.850679 17:76.931869 18:165.50074 19:66.332231 20:76.096316 21:76.98918 22:79.118746 23:84.312405 24:107.13164 
-0.3283665744194756 1:20 2:20 3:112.21174 4:20 5:20 6:157.47221 7:69.133406 8:109.30056 9:139.70864 10:20 11:69.765695 12:155.34128 13:71.973373 14:74.497 15:121.68532 16:67.247062 17:73.784215 18:155.89335 19:67.995691 20:103.91106 21:79.148208 22:73.949374 23:80.559087 24:114.64403 
-1 1:20 2:20 3:156.24702 4:20 5:20 6:212.77509 7:66.138326 8:87.2931 9:146.5758 10:20 11:55.032264 12:135.52665 13:87.658944 14:75.357182 15:116.51489 16:70.983122 17:70.859889 18:154.91941 19:64.577898 20:91.672846 21:82.694659 22:77.970497 23:73.933257 24:111.12457 
-1 1:22.475047 2:20 3:129.32897 4:20 5:20 6:217.33778 7:64.953139 8:112.08863 9:143.84929 10:20 11:60.235838 12:135.40996 13:90.634455 14:81.921107 15:139.5754 16:72.869367 17:78.474754 18:159.4211 19:68.319344 20:116.91131 21:75.934072 22:76.232714 23:71.708151 24:109.85328 
-1 1:20.716013 2:22.830279 3:126.67645 4:21.445821 5:21.164308 6:193.05131 7:75.11833 8:108.56133 9:140.71654 10:20 11:53.481612 12:191.87497 13:90.130641 14:82.066991 15:133.53335 16:85.249087 17:79.206391 18:151.00666 19:71.392771 20:116.45739 21:80.318147 22:76.891383 23:68.228131 24:121.4108 
-1 1:21.081121 2:22.621261 3:133.45457 4:22.083737 5:20.222125 6:205.9608 7:90.597105 8:127.11121 9:141.69755 10:21.071068 11:88.952231 12:191.81659 13:89.931423 14:83.3305 15:130.73366 16:80.995753 17:84.359931 18:153.96063 19:74.949872 20:126.64388 21:83.595128 22:86.425682 23:76.983858 24:116.0017 
-1 1:22.535831 2:21.940328 3:126.87699 4:22.997169 5:23.434184 6:172.77394 7:77.192372 8:89.712729 9:98.811036 10:22.439287 11:62.878034 12:128.70984 13:46.379649 14:62.579915 15:102.64284 16:65.503997 17:67.215471 18:130.73456 19:60.120759 20:86.547136 21:66.135798 22:65.178674 23:64.681749 24:89.702136 
-1 1:21.588799 2:21.655812 3:80.825992 4:21.367393 5:23.584642 6:151.01139 7:54.949503 8:86.978119 9:85.873682 10:21.97918 11:88.438904 12:90.598755 13:60.268338 14:55.267911 15:98.715678 16:56.882044 17:53.492827 18:129.86208 19:48.619477 20:78.080543 21:54.909165 22:47.633616 23:56.229162 24:75.220392 
1 1:20 2:21.17704 3:107.81457 4:23.495396 5:21.009245 6:170.45935 7:48.961455 8:109.66876 9:94.060362 10:20.447171 11:81.637486 12:93.670216 13:55.926389 14:50.876482 15:101.71999 16:48.115334 17:50.459591 18:116.8402 19:44.025574 20:88.819096 21:56.45074 22:44.057412 23:49.965536 24:70.771178 
-1 1:22.085502 2:20.71858 3:82.663991 4:20 5:23.267969 6:87.358785 7:35.061066 8:72.682005 9:104.10029 10:21.77488 11:34.523643 12:72.028043 13:53.519897 14:53.531994 15:62.577493 16:53.613485 17:52.340219 18:72.617961 19:45.399748 20:56.808696 21:57.810259 22:47.510533 23:51.700937 24:54.102276 
-1 1:27.571726 2:21.227837 3:100.02352 4:20.905823 5:21.657819 6:158.4639 7:59.417157 8:81.695217 9:85.12921 10:21.525109 11:108.37423 12:93.564777 13:52.936872 14:49.798757 15:86.766456 16:46.067766 17:46.823376 18:109.61574 19:45.463183 20:62.340489 21:54.352926 22:48.419076 23:62.57762 24:64.330195 
1 1:21.666611 2:20.581316 3:127.14137 4:21.382058 5:22.410882 6:167.70016 7:92.901372 8:111.59992 9:111.87563 10:21.888347 11:103.71527 12:115.68811 13:81.415624 14:69.223082 15:93.347074 16:70.008796 17:69.636662 18:127.22743 19:64.601814 20:98.546457 21:82.490395 22:56.673507 23:65.287662 24:76.913824 
0.5351621524639016 1:20 2:20 3:147.08456 4:20 5:20 6:245.10995 7:108.96263 8:85.109566 9:134.93045 10:20 11:136.24583 12:162.71093 13:96.979939 14:96.868436 15:106.839 16:87.180187 17:85.458086 18:158.27005 19:81.934547 20:95.383156 21:86.777844 22:73.22684 23:78.012035 24:95.842667 
1 1:21.912078 2:20.183084 3:143.95375 4:22.011196 5:21.162278 6:197.76823 7:95.473491 8:134.02543 9:142.622 10:21.212471 11:129.47612 12:208.90158 13:105.72656 14:105.37319 15:133.38993 16:88.870316 17:91.397543 18:168.80117 19:79.784265 20:141.05275 21:83.127447 22:75.132602 23:86.899792 24:112.52197 
-1 1:20.093369 2:20 3:149.34459 4:20 5:20 6:220.97933 7:97.30247 8:112.55595 9:160.1988 10:20 11:107.61615 12:131.02368 13:89.707662 14:83.123959 15:106.36715 16:70.919053 17:75.507749 18:163.38186 19:71.147607 20:90.621608 21:90.270928 22:75.551569 23:76.563104 24:106.44051 
-1 1:20.519509 2:22.06702 3:116.8767 4:20.883097 5:20 6:251.62001 7:99.18373 8:83.558892 9:126.76016 10:20 11:103.43888 12:133.92124 13:102.91572 14:82.501957 15:125.71656 16:70.647907 17:79.925524 18:138.71087 19:75.130361 20:83.192783 21:77.161662 22:67.538767 23:68.947009 24:95.610992 
1 1:21.505974 2:21.441753 3:130.12031 4:20.423575 5:20 6:202.16381 7:99.737359 8:115.19075 9:131.72364 10:20 11:110.40578 12:149.79782 13:85.029277 14:66.059028 15:109.23191 16:67.722693 17:68.377192 18:138.02883 19:65.042828 20:89.614993 21:80.47487 22:56.123679 23:63.216529 24:83.748303 
1 1:22.287784 2:21.285784 3:107.79124 4:22.666059 5:20 6:217.1046 7:96.715183 8:139.77053 9:122.01401 10:20 11:153.7768 12:160.27874 13:100.62344 14:76.111342 15:118.04183 16:75.371158 17:74.514031 18:146.03932 19:72.519391 20:113.84663 21:89.77899 22:61.089003 23:71.134935 24:88.164195 
1 1:23.401704 2:24.223558 3:98.53731 4:20 5:20 6:216.42965 7:106.82096 8:104.31257 9:121.61506 10:20 11:125.07505 12:163.77115 13:113.76898 14:98.325064 15:121.46765 16:87.978301 17:82.786527 18:146.06213 19:76.858497 20:116.28758 21:90.997898 22:71.969097 23:76.451466 24:87.226133 
1 1:20 2:20 3:149.36894 4:20 5:20 6:246.84385 7:114.00194 8:86.927977 9:145.81108 10:20 11:38.319941 12:128.33265 13:119.74784 14:88.866829 15:106.04543 16:84.724404 17:84.681869 18:151.78388 19:80.651617 20:101.30373 21:104.02617 22:75.538829 23:75.317695 24:99.634244 
-1 1:21.793122 2:22.522234 3:103.15937 4:21.548046 5:23.389549 6:146.13419 7:65.360988 8:94.53512 9:76.321042 10:22.374414 11:63.256103 12:107.87607 13:64.513491 14:59.957654 15:92.110017 16:57.016848 17:59.139175 18:100.61661 19:58.339516 20:83.332911 21:72.457728 22:55.584076 23:64.552333 24:66.808693 
-1 1:20.830106 2:24.087871 3:108.06541 4:22.015623 5:20 6:138.76545 7:72.637459 8:86.569203 9:81.513495 10:22.733393 11:82.170978 12:132.58485 13:70.291939 14:59.968665 15:97.005607 16:58.483716 17:55.127002 18:116.55571 19:54.939204 20:79.605432 21:65.34408 22:51.586708 23:65.079867 24:72.183969 
-1 1:22.423495 2:22.806485 3:91.285126 4:21.678964 5:21.397638 6:159.88159 7:78.36023 8:99.723355 9:90.54334 10:24.709853 11:84.300268 12:106.01221 13:66.755152 14:58.397846 15:95.401774 16:56.14409 17:56.592858 18:121.74006 19:54.544605 20:86.45162 21:54.163602 22:45.454499 23:54.744917 24:70.420054 
-1 1:23.093657 2:20 3:135.26022 4:20 5:20 6:163.88587 7:74.21729 8:100.19541 9:115.70555 10:20.324555 11:94.962909 12:124.83561 13:80.456574 14:80.468809 15:100.08887 16:75.679363 17:75.806438 18:144.5443 19:66.857759 20:88.685733 21:65.891104 22:70.703905 23:73.422803 24:93.21895 
-0.2593828274734489 1:20 2:20 3:115.97027 4:20 5:20 6:157.98953 7:61.845746 8:73.635668 9:125.73632 10:20 11:76.811974 12:105.28411 13:74.959453 14:73.98539 15:95.129177 16:70.532512 17:69.266686 18:137.22405 19:57.787858 20:79.64641 21:75.354333 22:70.865185 23:81.891357 24:91.501123 
1 1:20 2:20 3:139.73025 4:20 5:20 6:208.95776 7:65.911703 8:94.216487 9:171.55069 10:20 11:60.433286 12:129.50939 13:96.435404 14:83.580163 15:112.70062 16:79.400627 17:79.213313 18:145.72188 19:72.13251 20:92.003822 21:88.367048 22:77.018974 23:77.483303 24:125.70058 
1 1:20 2:20 3:133.42173 4:20 5:20 6:203.52384 7:67.095837 8:89.575457 9:161.40137 10:20 11:68.01213 12:119.64566 13:98.56519 14:82.929603 15:111.52154 16:70.939645 17:83.669083 18:139.31911 19:73.349236 20:98.727683 21:86.634874 22:81.01666 23:77.567029 24:112.89057 
-1 1:20 2:20 3:114.30823 4:20 5:20 6:171.08904 7:70.311193 8:102.01901 9:153.33983 10:20 11:113.0676 12:221.73074 13:97.513552 14:85.428477 15:127.37529 16:82.407239 17:76.008526 18:149.81514 19:66.516801 20:107.36471 21:83.690163 22:71.247408 23:81.718697 24:115.03584 
-1 1:20.689526 2:20 3:151.76347 4:20 5:20 6:205.88444 7:80.714078 8:122.47404 9:156.71214 10:20 11:142.58323 12:184.26646 13:101.59217 14:87.659647 15:134.49442 16:84.826365 17:82.977908 18:167.426 19:75.863982 20:120.16273 21:86.280024 22:82.09739 23:87.707192 24:107.19455 
-1 1:21.181738 2:20 3:109.47519 4:20 5:20 6:198.25531 7:68.565528 8:116.50069 9:128.00438 10:20 11:99.849731 12:160.67066 13:99.016406 14:77.190451 15:136.15256 16:80.307342 17:79.118192 18:151.11888 19:67.049535 20:113.2503 21:74.384508 22:61.221549 23:68.540766 24:101.84911 
1 1:22.573916 2:22.85252 3:96.519704 4:21.867835 5:22.29764 6:172.58113 7:75.825632 8:97.14328 9:100.60859 10:22.881845 11:52.16469 12:157.49405 13:69.537567 14:63.016356 15:112.21382 16:58.013677 17:60.474565 18:129.61275 19:62.644414 20:83.085822 21:63.904499 22:55.177262 23:55.034668 24:95.419528 
-1 1:21.436503 2:23.882829 3:104.77448 4:21.108043 5:20.974862 6:171.34701 7:73.465286 8:99.03699 9:89.762113 10:21.670757 11:58.088851 12:153.70424 13:69.810845 14:58.552657 15:109.49933 16:64.233644 17:62.400181 18:135.43665 19:60.718605 20:98.766598 21:64.564589 22:49.845381 23:50.606479 24:98.407912 
1 1:25.053051 2:23.257479 3:101.93367 4:22.0923 5:21.449321 6:171.29665 7:59.653805 8:115.14434 9:88.793197 10:22.258846 11:44.54698 12:117.02583 13:58.496064 14:52.395816 15:102.83907 16:51.499852 17:55.47871 18:125.46018 19:52.654028 20:107.03769 21:53.885663 22:45.432784 23:48.638719 24:97.056052 
1 1:23.065524 2:21.496659 3:130.4403 4:22.332396 5:23.998827 6:175.88888 7:40.724258 8:105.48938 9:93.22687 10:20.625316 11:66.481759 12:94.856807 13:54.888226 14:51.756532 15:96.797306 16:48.569038 17:46.498077 18:103.50946 19:43.229811 20:89.164091 21:58.734813 22:46.676476 23:53.396589 24:69.841953 
1 1:20 2:20 3:111.33961 4:20 5:20 6:220.86574 7:102.67094 8:104.43153 9:105.61823 10:24.458805 11:122.09482 12:173.11682 13:103.20992 14:82.629982 15:127.28993 16:89.397337 17:85.903364 18:142.52014 19:85.484553 20:112.95064 21:110.81697 22:69.481149 23:75.622083 24:90.487518 
-1 1:20 2:20 3:107.50837 4:20 5:20 6:168.10056 7:134.09055 8:88.285192 9:140.11348 10:20 11:104.42256 12:133.02355 13:114.42963 14:91.980907 15:128.59119 16:105.21864 17:103.66707 18:166.12532 19:95.204841 20:96.812489 21:135.53676 22:79.942991 23:78.059097 24:92.013295 
-1 1:20 2:20 3:162.07722 4:20 5:20 6:244.43654 7:130.20571 8:103.78894 9:173.58773 10:20 11:110.08732 12:186.82228 13:149.96157 14:132.81344 15:147.28156 16:126.08496 17:114.27296 18:173.82353 19:108.06882 20:123.03113 21:128.99851 22:93.674832 23:97.670063 24:112.59971 
-1 1:20 2:20 3:147.53726 4:20 5:20 6:217.79876 7:124.90019 8:111.20964 9:185.91852 10:20 11:135.67911 12:229.32375 13:148.21008 14:129.15639 15:154.07868 16:120.30471 17:125.5632 18:170.08106 19:108.25598 20:141.81328 21:126.43302 22:90.404065 23:99.599719 24:111.83077 
1 1:20 2:20 3:140.60208 4:20 5:20 6:217.86914 7:130.96562 8:125.57785 9:206.41568 10:20 11:114.82258 12:235.57347 13:160.6818 14:150.82332 15:169.72996 16:147.56803 17:134.57469 18:188.3902 19:116.75489 20:148.70615 21:121.4157 22:97.119208 23:108.3535 24:124.9791 
1 1:20 2:20 3:124.679 4:20 5:20 6:198.46374 7:110.00105 8:108.12091 9:213.87301 10:20 11:115.68959 12:200.80631 13:132.87616 14:113.1897 15:131.54038 16:115.19614 17:120.68513 18:174.9184 19:101.65565 20:151.44585 21:110.11489 22:87.939269 23:92.258063 24:111.33904 
1 1:20 2:20 3:121.52793 4:20 5:20 6:179.7939 7:117.08357 8:107.90757 9:205.2293 10:20 11:79.926537 12:209.02667 13:130.63478 14:108.05881 15:118.95241 16:104.87213 17:108.8252 18:164.79646 19:104.12137 20:139.14486 21:110.41099 22:86.65644 23:82.905772 24:104.41767 
1 1:20 2:20 3:153.33876 4:20 5:20 6:208.82443 7:110.39398 8:100.45966 9:194.81821 10:20 11:65.464038 12:148.83743 13:122.98804 14:101.29975 15:127.98913 16:88.716632 17:100.9821 18:160.91474 19:83.919709 20:110.54677 21:125.91258 22:80.994827 23:89.782169 24:93.905428 
1 1:20 2:20 3:123.26185 4:20 5:20 6:200.1531 7:114.58613 8:110.0545 9:199.82513 10:20 11:78.328155 12:183.00773 13:129.55277 14:103.25992 15:130.20744 16:93.999476 17:103.25344 18:154.85212 19:88.224009 20:128.29698 21:121.80923 22:80.640668 23:84.146575 24:100.65957 
1 1:20 2:20 3:123.08428 4:20 5:20 6:209.03185 7:108.40518 8:89.864772 9:165.05335 10:20 11:51.748814 12:203.23837 13:137.23906 14:112.91585 15:136.55479 16:104.33023 17:103.06663 18:185.37683 19:90.54362 20:119.75572 21:108.20338 22:87.943052 23:85.280045 24:121.85526 
1 1:20 2:20 3:104.22618 4:20 5:20 6:202.17725 7:110.22706 8:84.695107 9:140.8188 10:20 11:84.971381 12:130.23131 13:124.88972 14:108.86542 15:113.54688 16:97.247214 17:87.85292 18:153.79114 19:80.86952 20:112.60957 21:103.50236 22:74.287535 23:77.629243 24:96.168765 
1 1:21.714771 2:21.797873 3:165.52957 4:20 5:20 6:265.12495 7:103.7871 8:103.24615 9:120.27889 10:20 11:78.480172 12:145.46993 13:108.32789 14:93.479635 15:144.3749 16:93.631301 17:91.97665 18:143.47283 19:92.000023 20:100.67773 21:97.008964 22:74.772766 23:74.815049 24:93.468393 
1 1:23.91308 2:23.64898 3:131.0327 4:36.832707 5:24.153649 6:206.83528 7:87.022418 8:108.00672 9:107.38146 10:22.549992 11:148.30666 12:169.71897 13:92.984738 14:76.088717 15:102.12799 16:81.804741 17:79.28252 18:154.89636 19:74.05015 20:94.503739 21:93.500991 22:66.164908 23:78.578163 24:95.858559 
1 1:24.180027 2:22.516797 3:120.74517 4:21.560014 5:22.03618 6:249.71876 7:100.72945 8:106.26257 9:107.05769 10:21.848654 11:103.45062 12:155.93445 13:97.638016 14:75.47711 15:122.08906 16:76.701831 17:77.967822 18:134.67042 19:80.346376 20:91.443133 21:92.22361 22:66.814389 23:70.253035 24:92.151759 
1 1:21.42809 2:55.520985 3:106.84824 4:21.858414 5:24.959588 6:122.13868 7:59.573168 8:83.047906 9:58.398393 10:21.302682 11:74.930892 12:100.71733 13:67.049628 14:62.273254 15:92.32749 16:60.524862 17:60.374506 18:94.272778 19:57.893367 20:81.234773 21:80.726592 22:62.235944 23:74.352116 24:72.667613 
1 1:24.367526 2:21.927993 3:95.738391 4:22.450271 5:22.614826 6:174.29328 7:83.455345 8:98.001241 9:86.000507 10:24.248235 11:103.40148 12:144.61169 13:73.787457 14:65.902004 15:128.9455 16:68.830596 17:67.613738 18:123.38739 19:61.758488 20:89.284133 21:59.02093 22:50.809984 23:63.157735 24:81.061435 
1 1:21.060004 2:23.876996 3:105.70871 4:22.666747 5:20.88439 6:196.48141 7:61.335865 8:94.881723 9:73.327504 10:22.498867 11:81.458205 12:118.14709 13:66.768015 14:58.880491 15:106.21046 16:57.211082 17:54.968632 18:114.86651 19:52.747454 20:74.565669 21:58.142461 22:46.100441 23:52.801778 24:72.892072 
1 1:24.640519 2:23.255653 3:113.86235 4:21.976248 5:21.890127 6:144.48901 7:83.56971 8:87.96016 9:77.089127 10:20.809611 11:88.790822 12:144.38547 13:66.591473 14:54.79809 15:100.70522 16:53.763929 17:53.654363 18:122.30044 19:53.635864 20:75.364875 21:58.494838 22:49.162735 23:58.894952 24:70.416158 
1 1:20 2:20 3:98.087658 4:20 5:20 6:178.10932 7:73.12539 8:96.677842 9:89.837691 10:20 11:108.75728 12:175.96951 13:78.85438 14:61.127721 15:97.508552 16:59.896457 17:61.164133 18:112.76797 19:63.062397 20:96.379771 21:80.965006 22:59.015276 23:75.245735 24:87.702559 
1 1:20.403124 2:20 3:122.70372 4:20 5:20 6:160.04287 7:121.66476 8:120.10389 9:126.79541 10:20 11:146.36543 12:168.71509 13:94.39464 14:78.848542 15:114.71082 16:80.6213 17:82.941529 18:143.92114 19:77.784894 20:124.20199 21:82.277977 22:75.781209 23:85.656748 24:102.3803 
1 1:21.750749 2:20 3:131.40501 4:20 5:20 6:193.09072 7:110.57308 8:122.85481 9:154.78887 10:20 11:166.72878 12:174.80865 13:100.24284 14:83.727224 15:129.45821 16:76.345207 17:88.78605 18:151.12912 19:74.090457 20:124.93895 21:91.670393 22:84.790855 23:96.853257 24:101.47039 
1 1:20 2:20 3:179.47889 4:20 5:20 6:251.89584 7:96.755292 8:87.345106 9:188.99139 10:20 11:36.4384 12:127.78022 13:116.16457 14:89.108852 15:128.52473 16:88.815491 17:87.36089 18:142.92635 19:83.901856 20:90.180562 21:106.6852 22:73.54442 23:68.139035 24:102.53632 
1 1:20 2:20 3:170.04035 4:20 5:20 6:232.96335 7:109.61841 8:91.270713 9:180.56449 10:20 11:84.019641 12:128.74101 13:116.46007 14:90.090952 15:129.32492 16:82.264907 17:88.000805 18:161.24034 19:76.699001 20:93.347243 21:108.96846 22:70.075718 23:73.08897 24:100.85248 
1 1:20 2:20 3:137.46504 4:20 5:20 6:211.80893 7:105.97164 8:78.689622 9:137.25917 10:20 11:40.720549 12:108.33222 13:111.68559 14:98.766173 15:116.00785 16:86.208505 17:84.410587 18:155.84609 19:83.416982 20:85.860353 21:97.235858 22:68.719588 23:72.20001 24:81.482623 
-1 1:20 2:20 3:83.373214 4:20 5:20 6:191.77162 7:111.9207 8:80.491459 9:119.07517 10:20 11:90.675135 12:135.88828 13:92.459293 14:75.345419 15:101.14307 16:72.330501 17:70.658328 18:152.70841 19:78.104669 20:86.88478 21:90.219339 22:58.65083 23:62.968832 24:85.204275 
-0.06400371060131349 1:21.392898 2:20.777678 3:107.2231 4:25.336184 5:20 6:220.34506 7:87.518845 8:121.14077 9:113.27954 10:20 11:157.95393 12:166.61717 13:102.0848 14:89.471698 15:144.13542 16:84.823223 17:88.866313 18:158.96889 19:76.26847 20:132.99387 21:89.854684 22:72.548189 23:82.348168 24:89.101168 
1 1:24.251678 2:24.582957 3:89.642087 4:23.419769 5:21.518007 6:193.17599 7:73.650895 8:113.90564 9:89.658257 10:21.292477 11:127.46374 12:105.54986 13:83.773033 14:67.696982 15:112.79825 16:67.828123 17:68.509175 18:138.43959 19:58.349902 20:106.15571 21:74.703645 22:58.073309 23:66.539788 24:76.082605 
-1 1:20.461381 2:22.524128 3:105.44057 4:21.321538 5:22.15794 6:170.42743 7:86.277064 8:104.47094 9:108.54062 10:21.499295 11:40.307422 12:116.79468 13:77.95246 14:66.050843 15:102.00625 16:62.350294 17:62.015144 18:126.02783 19:65.735835 20:92.276402 21:77.317973 22:57.174708 23:59.54892 24:82.039592 
-1 1:22.231845 2:22.418186 3:99.088083 4:21.525422 5:21.5579 6:135.09252 7:52.379047 8:65.139915 9:70.819896 10:20.55672 11:65.17498 12:113.12428 13:54.176807 14:58.909784 15:105.27465 16:56.960233 17:54.72599 18:104.42894 19:52.544778 20:59.094752 21:61.986017 22:49.234421 23:57.17747 24:79.493315 
1 1:21.368942 2:21.542066 3:118.37795 4:22.794469 5:21.778703 6:118.84362 7:59.174348 8:97.057461 9:96.169276 10:22.673067 11:103.3365 12:147.37526 13:67.734318 14:76.042804 15:120.33062 16:68.612111 17:68.989992 18:140.14394 19:63.057976 20:98.795089 21:66.224351 22:60.849019 23:89.868899 24:98.684097 
0.5730599776177097 1:20 2:20 3:138.14986 4:20 5:20 6:172.32834 7:90.656665 8:119.80683 9:150.56727 10:20.301935 11:110.72264 12:136.81685 13:92.564035 14:92.722702 15:126.49744 16:84.82007 17:87.845306 18:160.24544 19:74.003217 20:114.92785 21:71.42347 22:80.76208 23:93.863678 24:113.26983 
-1 1:22.229902 2:20.474192 3:127.56555 4:20 5:20 6:159.85262 7:93.569573 8:133.17442 9:150.60289 10:21.953 11:122.06342 12:139.27179 13:93.684077 14:90.545538 15:129.72714 16:85.63615 17:86.978731 18:162.14243 19:76.074728 20:133.69084 21:72.818881 22:80.783461 23:95.727293 24:107.2894 
-0.7585110749879129 1:20 2:20 3:154.32006 4:20 5:20 6:185.3808 7:106.82555 8:92.965199 9:181.13417 10:20 11:84.929618 12:147.19571 13:103.31384 14:108.63191 15:116.75868 16:105.68775 17:103.1627 18:148.43667 19:93.226479 20:87.096498 21:97.955152 22:102.3883 23:93.605084 24:114.02083 
1 1:20 2:20 3:134.16738 4:20 5:20 6:164.52466 7:103.48191 8:85.838667 9:169.64101 10:20 11:50.172088 12:130.58664 13:100.99714 14:89.024317 15:98.633858 16:88.161137 17:84.86188 18:137.83192 19:78.721298 20:81.071999 21:91.074206 22:83.569932 23:77.715616 24:107.63822 
1 1:20 2:20 3:117.37296 4:20 5:20 6:164.68532 7:63.739276 8:75.964342 9:133.13295 10:20 11:60.000664 12:145.3815 13:90.650191 14:73.243254 15:107.06724 16:64.272558 17:74.322926 18:120.79893 19:63.670922 20:85.07362 21:83.005281 22:79.265945 23:77.242245 24:96.482314 
-1 1:20 2:20 3:132.75817 4:20 5:20 6:143.11799 7:99.543192 8:67.407256 9:114.16785 10:20 11:57.954957 12:124.11023 13:95.39266 14:80.424569 15:114.01476 16:77.806154 17:86.393814 18:140.70408 19:73.728323 20:95.573685 21:85.943602 22:77.088027 23:70.241525 24:104.6579 
1 1:20 2:20 3:109.01577 4:20 5:20 6:181.65397 7:70.36552 8:85.505602 9:128.12123 10:20 11:59.971739 12:126.4798 13:99.793062 14:84.089762 15:128.05263 16:73.540903 17:82.886343 18:136.12179 19:75.911009 20:96.190834 21:89.514075 22:91.345715 23:71.071457 24:104.92964 
1 1:21.561343 2:21.342117 3:107.66249 4:20 5:20 6:198.54141 7:66.475114 8:76.560775 9:107.9043 10:20 11:76.748089 12:133.94124 13:92.013312 14:86.957399 15:149.29437 16:81.125889 17:89.627154 18:147.34102 19:78.869188 20:102.79397 21:80.462151 22:85.521752 23:74.182532 24:115.15035 
-1 1:22.180787 2:23.344593 3:128.39919 4:20 5:20 6:174.27249 7:75.355609 8:78.32075 9:107.79707 10:20 11:115.25855 12:189.76369 13:93.788532 14:88.994437 15:135.96729 16:87.036302 17:92.052265 18:161.5368 19:72.795217 20:114.72179 21:87.719322 22:78.263212 23:88.414308 24:103.8962 
-1 1:26.907531 2:22.162765 3:121.90604 4:21.317905 5:22.056832 6:173.22947 7:68.396129 8:99.386373 9:90.846328 10:22.495527 11:100.35098 12:145.55113 13:83.691658 14:80.106245 15:111.13657 16:85.53876 17:75.292967 18:147.0821 19:70.166973 20:112.76522 21:75.744808 22:66.580781 23:67.511261 24:99.016235 
