svm_type c_svc
kernel_type rbf
gamma 0.5
nr_class 2
total_sv 376
rho 1.47288
label 1 0
nr_sv 173 203
SV
1.447608794948273 1:-0.440092 2:-0.96283 3:-0.514212 4:-0.430632 5:-0.900799 6:-0.349299 7:-0.273661 8:0.121718 9:-0.219938 10:0.100273 11:-0.126253 12:-0.454805 13:-0.420953 14:-0.255544 15:-0.269852 16:-0.268291 17:-0.660726 18:-1 19:-0.897418 20:0.839997 21:-0.98967 22:-0.860125 23:-0.953997 24:-1 
2 1:-0.655512 2:-0.843104 3:-0.807461 4:-0.309467 5:-0.662514 6:-0.564642 7:-0.713691 8:-0.214519 9:-0.757558 10:-0.933903 11:-0.752564 12:-0.513322 13:-0.720714 14:-0.689692 15:-0.832351 16:-0.990232 17:-0.973626 18:-0.992222 19:-0.568159 20:0.202466 21:0.0401273 22:0.142381 23:-0.707193 24:-1 
2 1:-0.999809 2:-0.966022 3:-0.908868 4:-0.657468 5:-0.810449 6:-0.828264 7:-0.61211 8:-0.507511 9:-0.640457 10:-0.636077 11:-0.959861 12:-0.916955 13:-0.874938 14:-0.574761 15:-0.972909 16:-0.813445 17:-0.940636 18:-1 19:-0.85247 20:-0.123463 21:0.659969 22:-0.890452 23:-0.775541 24:-1 
2 1:-0.993838 2:-0.976173 3:-0.990511 4:-0.693336 5:-0.9424 6:-0.727062 7:-0.844287 8:-0.543034 9:-0.88685 10:-0.631745 11:-0.870632 12:-0.835165 13:-0.90587 14:-0.828321 15:-0.895979 16:-0.78179 17:-0.947345 18:-0.994444 19:-0.885463 20:0.896666 21:-0.963845 22:-0.800777 23:-0.875889 24:-1 
2 1:-0.992487 2:-0.969237 3:-0.960834 4:-0.798141 5:-0.95325 6:-0.771481 7:-0.887753 8:-0.497617 9:-0.900364 10:-0.711441 11:-0.890488 12:-0.876207 13:-0.919239 14:-0.811181 15:-0.948749 16:-0.797441 17:-0.959958 18:-0.997778 19:-0.936747 20:0.759598 21:-0.683285 22:-0.666735 23:-0.898079 24:-1 
2 1:-0.794096 2:-0.894181 3:-0.847792 4:-0.440052 5:-0.653207 6:-0.637416 7:-0.724078 8:-0.447173 9:-0.807037 10:-0.620326 11:-0.875949 12:-0.796929 13:-0.886582 14:-0.836448 15:-0.884202 16:-0.766703 17:-0.907333 18:-0.992222 19:-0.769861 20:0.349736 21:-0.132888 22:-0.632651 23:-0.660445 24:-1 
2 1:-0.6912 2:-0.807824 3:-0.693096 4:-0.772978 5:-0.86754 6:-0.743706 7:-0.86333 8:-0.608734 9:-0.842588 10:-0.740076 11:-0.848309 12:-0.908146 13:-0.92794 14:-0.941745 15:-0.916729 16:-0.913837 17:-0.951247 18:-0.976667 19:-0.731122 20:-0.0363492 21:0.0777946 22:-0.179542 23:-0.4068 24:-1 
2 1:1 2:-0.89233 3:-0.911888 4:-0.902655 5:-0.862173 6:-0.71352 7:-0.805441 8:-0.610392 9:-0.848393 10:-0.690451 11:-0.81633 12:-0.885264 13:-0.933778 14:-0.907437 15:-0.881536 16:-0.849068 17:-0.938782 18:-0.99 19:-0.928766 20:0.473626 21:0.21358 22:-0.773601 23:-0.484616 24:-0.700001 
2 1:-0.453761 2:-0.752889 3:-0.907258 4:-0.670072 5:-0.405528 6:-0.711157 7:-0.87902 8:-0.548875 9:-0.92444 10:-0.724931 11:-0.890411 12:-0.764706 13:-0.798424 14:-0.651279 15:-0.892758 16:-0.763066 17:-0.842856 18:-0.993333 19:-0.86682 20:-0.0379083 21:-0.288276 22:-0.278828 23:0.146025 24:0.28571 
2 1:-0.604105 2:-0.748079 3:-0.969552 4:-0.771158 5:-0.88133 6:-0.733879 7:-0.881874 8:-0.527205 9:-0.881466 10:-0.656295 11:-0.868012 12:-0.764706 13:-0.780256 14:-0.698598 15:-0.843039 16:-0.646258 17:-0.856777 18:-0.996667 19:-0.864071 20:-0.476594 21:-0.179564 22:-0.116634 23:-0.0313687 24:-1 
2 1:-0.48251 2:-0.774848 3:-0.898459 4:-0.704336 5:-0.794968 6:-0.619933 7:-0.769471 8:-0.351983 9:-0.823664 10:-0.620116 11:-0.908438 12:-0.697833 13:-0.811796 14:-0.584011 15:-0.96364 16:-0.542857 17:-0.829034 18:-0.996667 19:-0.859216 20:-0.553122 21:-0.498028 22:-0.156808 23:-0.4528 24:-1 
2 1:-0.78669 2:-0.846315 3:-0.800652 4:-0.818357 5:-0.887102 6:-0.7975 7:-0.800614 8:-0.711068 9:-0.827935 10:-0.792711 11:-0.896478 12:-0.900216 13:-0.911482 14:-0.900119 15:-0.925869 16:-0.850083 17:-0.907523 18:-0.978889 19:-0.718735 20:0.0317196 21:0.0805227 22:-0.560659 23:-0.650635 24:-1 
2 1:-0.926291 2:-0.917299 3:-0.803275 4:-0.700039 5:-0.893147 6:-0.701548 7:-0.751201 8:-0.54217 9:-0.789432 10:-0.667037 11:-0.794485 12:-0.87451 13:-0.896862 14:-0.788483 15:-0.877919 16:-0.8 17:-0.937505 18:-0.995556 19:-0.885586 20:0.265433 21:-0.200417 22:-0.337882 23:-0.635515 24:-1 
2 1:-0.622085 2:-0.870708 3:-0.705328 4:-0.722273 5:-0.905587 6:-0.729089 7:-0.780637 8:-0.568357 9:-0.779208 10:-0.705397 11:-0.822772 12:-0.812885 13:-0.854448 14:-0.810285 15:-0.872933 16:-0.8 17:-0.93225 18:-0.991111 19:-0.786181 20:0.196038 21:-0.277076 22:-0.364065 23:-0.645401 24:-1 
2 1:-0.594851 2:-0.699924 3:-0.65231 4:-0.699458 5:-0.900742 6:-0.73477 7:-0.812902 8:-0.542806 9:-0.795255 10:-0.718218 11:-0.87378 12:-0.84282 13:-0.872798 14:-0.838704 15:-0.868167 16:-0.825333 17:-0.923719 18:-0.987778 19:-0.712112 20:0.083602 21:0.109081 22:-0.258179 23:-0.647952 24:-0.750001 
2 1:-0.924644 2:-0.882784 3:-0.822302 4:-0.714307 5:-0.866482 6:-0.763135 7:-0.916245 8:-0.649539 9:-0.927007 10:-0.761132 11:-0.932831 12:-0.796503 13:-0.911929 14:-0.78167 15:-0.880641 16:-0.792609 17:-0.920857 18:-0.994444 19:-0.852687 20:0.362073 21:-0.841695 22:-0.383045 23:-0.50001 24:-1 
1.490668850141637 1:-0.313417 2:0.383213 3:0.216181 4:-0.712446 5:-0.558825 6:-0.495169 7:-0.581464 8:-0.0952522 9:-0.480181 10:-0.38168 11:-0.656719 12:-0.653418 13:-0.728662 14:-0.647231 15:-0.832748 16:-0.573359 17:-0.77244 18:-0.993333 19:-0.718776 20:-0.156143 21:0.302865 22:-0.10559 23:0.719879 24:-0.57143 
2 1:-0.63829 2:-0.715344 3:-0.831942 4:-0.444344 5:-0.529031 6:-0.609346 7:-0.877402 8:-0.264916 9:-0.634639 10:-0.696731 11:-0.873071 12:-0.784083 13:-0.864532 14:-0.750526 15:-0.863493 16:-0.751261 17:-0.85852 18:-0.996667 19:-0.92141 20:0.0414916 21:-0.177996 22:0.0711873 23:-0.252162 24:-0.250002 
2 1:-0.924524 2:-0.899244 3:-0.891311 4:-0.417387 5:-0.8321 6:-0.678317 7:-0.901252 8:-0.501769 9:-0.852894 10:-0.587554 11:-0.873652 12:-0.631597 13:-0.732847 14:-0.703494 15:-0.871595 16:-0.616326 17:-0.870011 18:-0.994444 19:-0.818093 20:0.60986 21:-0.557974 22:-0.743938 23:-0.946305 24:-1 
2 1:-0.909455 2:-0.957856 3:-0.887426 4:-0.25505 5:-0.640642 6:-0.619159 7:-0.618751 8:-0.342906 9:-0.521276 10:-0.528454 11:-0.625537 12:-0.684361 13:-0.886326 14:-0.880495 15:-0.975793 16:-0.689895 17:-0.88735 18:-0.997778 19:-0.880763 20:0.691837 21:-0.673986 22:-0.748004 23:-0.790313 24:-1 
2 1:-0.976546 2:-0.914614 3:-0.898806 4:-0.597509 5:-0.833565 6:-0.681192 7:-0.694607 8:-0.637559 9:-0.912006 10:-0.751428 11:-0.936685 12:-0.655462 13:-0.794333 14:-0.817552 15:-0.911901 16:-0.795918 17:-0.930517 18:-0.997778 19:-0.92835 20:0.614749 21:-0.514206 22:-0.750299 23:-0.939252 24:-1 
2 1:-0.74717 2:-0.888466 3:-0.823124 4:-0.742884 5:-0.879563 6:-0.746406 7:-0.919026 8:-0.629358 9:-0.869727 10:-0.801709 11:-1 12:-0.728507 13:-0.892936 14:-0.779333 15:-0.897296 16:-0.799058 17:-0.889304 18:-0.994444 19:-0.830798 20:-0.587587 21:-0.45509 22:0.353895 23:-0.27274 24:-1 
2 1:-0.603598 2:-0.901739 3:-0.949182 4:-0.740265 5:-0.643559 6:-0.758464 7:-0.935916 8:-0.60919 9:-0.875684 10:-0.69355 11:-0.816926 12:-0.803867 13:-0.890846 14:-0.8598 15:-0.896065 16:-0.816184 17:-0.936388 18:-0.987778 19:-0.801635 20:-0.217353 21:-0.156086 22:-0.499558 23:-0.4544 24:-0.500001 
2 1:-0.91826 2:-0.936845 3:-0.944142 4:-0.585554 5:-0.697877 6:-0.681192 7:-0.704164 8:-0.459875 9:-0.690538 10:-0.637883 11:-0.734405 12:-0.781512 13:-0.901193 14:-0.811815 15:-0.917697 16:-0.783674 17:-0.943074 18:-0.986667 19:-0.683639 20:-0.625328 21:-0.498173 22:-0.335851 23:-0.535872 24:-1 
2 1:-0.512783 2:-0.718435 3:-0.859804 4:-0.611462 5:-0.955938 6:-0.597755 7:-0.894956 8:-0.488183 9:-0.99805 10:-0.538544 11:-0.950859 12:-0.679496 13:-0.937298 14:-0.822827 15:-0.895759 16:-0.747207 17:-0.900104 18:-1 19:-0.964312 20:0.705719 21:-0.855371 22:-0.9901 23:-0.913742 24:-1 
2 1:-0.895195 2:-0.911831 3:-0.861206 4:-0.649811 5:-0.943282 6:-0.549539 7:-0.961673 8:-0.328798 9:-0.857001 10:-0.506505 11:-0.976947 12:-0.676736 13:-0.953712 14:-0.564373 15:-0.930848 16:-0.558558 17:-0.956999 18:-1 19:-0.963707 20:0.723369 21:-0.936524 22:-0.947429 23:-0.977265 24:-1 
2 1:-0.632689 2:-0.798231 3:-0.973156 4:-0.641293 5:-0.839603 6:-0.539139 7:-0.547649 8:-0.270125 9:-0.729198 10:-0.515584 11:-0.857923 12:-0.695223 13:-0.775433 14:-0.512131 15:-0.786205 16:-0.659635 17:-0.922667 18:-0.997778 19:-0.878652 20:-0.739036 21:-0.735208 22:-0.913414 23:-0.937557 24:-1 
2 1:-0.461254 2:-0.935801 3:-0.963702 4:-0.729226 5:-0.899884 6:-0.51806 7:-0.635698 8:-0.315086 9:-0.661381 10:-0.493108 11:-0.740125 12:-0.603757 13:-0.537379 14:-0.571252 15:-0.733564 16:-0.570708 17:-0.645268 18:-0.994444 19:-0.820149 20:-0.149455 21:0.13594 22:-0.609572 23:-0.871458 24:-2.79398e-06 
2 1:-0.784416 2:-0.874101 3:-0.949464 4:-0.840237 5:-0.957221 6:-0.828185 7:-0.787305 8:-0.710958 9:-0.831931 10:-0.851951 11:-0.905653 12:-0.918919 13:-0.918351 14:-0.806791 15:-0.867695 16:-0.916989 17:-0.955047 18:-0.997778 19:-0.96428 20:0.24407 21:0.38801 22:-0.324649 23:-0.82225 24:-1 
2 1:-0.321596 2:-0.659901 3:-0.649197 4:-0.874113 5:-0.908978 6:-0.847395 7:-0.91122 8:-0.755143 9:-0.903878 10:-0.828148 11:-0.942509 12:-0.903268 13:-0.923231 14:-0.931458 15:-0.935038 16:-0.879365 17:-0.939328 18:-0.98 19:-0.818093 20:0.166202 21:0.109756 22:-0.228356 23:-0.548772 24:-0.842106 
2 1:-0.937491 2:-0.763039 3:-0.854323 4:-0.887788 5:-0.936458 6:-0.716181 7:-0.785021 8:-0.612587 9:-0.777903 10:-0.737852 11:-0.801546 12:-0.815664 13:-0.848969 14:-0.849338 15:-0.861023 16:-0.783697 17:-0.84486 18:-0.992222 19:-0.90374 20:0.278289 21:-0.163904 22:0.304498 23:-0.561615 24:-1 
2 1:-0.686651 2:-0.819812 3:-0.807195 4:-0.508113 5:-0.34822 6:-0.703587 7:-0.672984 8:-0.421858 9:-0.54377 10:-0.623783 11:-0.537353 12:-0.835506 13:-0.791531 14:-0.722705 15:-0.704894 16:-0.963964 17:-0.974941 18:-0.985556 19:-0.622633 20:-0.324325 21:0.175795 22:-0.462594 23:-0.386874 24:-0.57143 
2 1:-0.839366 2:-0.972813 3:-0.971221 4:-0.475607 5:-0.59844 6:-0.535231 7:-0.664135 8:-0.289964 9:-0.786933 10:-0.355554 11:-0.441102 12:-0.758514 13:-0.605813 14:-0.5392 15:-0.705064 16:-0.533835 17:-0.742804 18:-0.997778 19:-0.916887 20:-0.435427 21:-0.322762 22:-0.0284455 23:0.00869119 24:-2.79398e-06 
2 1:-0.919062 2:-0.947059 3:-0.989394 4:-0.628262 5:-0.885578 6:-0.58817 7:-0.776091 8:-0.413999 9:-0.875312 10:-0.660818 11:-0.910216 12:-0.566563 13:-0.869453 14:-0.712528 15:-1 16:-0.503759 17:-0.956934 18:-1 19:-0.953663 20:-0.608943 21:-0.538454 22:0.331876 23:-0.93234 24:-1 
2 1:-0.835911 2:-0.794348 3:-0.892912 4:-0.516775 5:-0.979748 6:-0.675505 7:-0.990149 8:-0.422236 9:-0.908547 10:-0.586451 11:-0.987099 12:-0.721925 13:-0.881165 14:-0.530949 15:-0.720654 16:-0.622613 17:-0.940771 18:-0.997778 19:-0.908502 20:0.820234 21:-0.947775 22:-0.973986 23:-0.984039 24:-1 
2 1:-0.456717 2:-0.719766 3:-0.591417 4:-0.802473 5:-0.941975 6:-0.610362 7:-0.706278 8:-0.373256 9:-0.728628 10:-0.542704 11:-0.786123 12:-0.726084 13:-0.708231 14:-0.802438 15:-0.83646 16:-0.958153 17:-0.976786 18:-0.992222 19:-0.774494 20:0.0508601 21:-0.60096 22:-0.605663 23:-0.89172 24:-1 
2 1:-0.583168 2:-0.921448 3:-0.852208 4:-0.447119 5:-0.659736 6:-0.475234 7:-0.799451 8:-0.18867 9:-0.836627 10:-0.484443 11:-1 12:-0.819608 13:-0.89771 14:-0.587677 15:-0.903626 16:-0.6 17:-0.959341 18:-0.997778 19:-0.865735 20:-0.513767 21:-0.402915 22:0.320857 23:-0.356256 24:-1 
2 1:-0.00242173 2:-0.800639 3:-0.801967 4:-0.73626 5:-0.787719 6:-0.703525 7:-0.776219 8:-0.478081 9:-0.669161 10:-0.613997 11:-0.815048 12:-0.859066 13:-0.917163 14:-0.906543 15:-0.911764 16:-0.861323 17:-0.937905 18:-0.994444 19:-0.895659 20:-0.077386 21:-0.320536 22:-0.697877 23:-0.676734 24:-0.500001 
2 1:-0.745574 2:-0.892383 3:-0.964025 4:-0.870879 5:-0.931609 6:-0.749288 7:-0.813802 8:-0.700799 9:-0.895784 10:-0.780826 11:-0.944448 12:-0.85996 13:-0.915866 14:-0.903147 15:-0.930652 16:-0.843202 17:-0.913567 18:-0.992222 19:-0.887277 20:-0.1268 21:-0.202676 22:-0.60611 23:-0.599482 24:-1 
2 1:-0.875613 2:-0.980599 3:-0.954787 4:-0.61061 5:-0.875984 6:-0.661389 7:-0.940135 8:-0.384278 9:-0.860302 10:-0.615257 11:-0.958422 12:-0.611355 13:-0.784551 14:-0.576406 15:-0.743468 16:-0.695807 17:-0.884411 18:-0.998889 19:-0.918259 20:0.863172 21:-0.910253 22:-0.718581 23:-0.899585 24:-1 
2 1:-0.807225 2:-0.945657 3:-0.743825 4:-0.813376 5:-0.849153 6:-0.831819 7:-0.851959 8:-0.677324 9:-0.809784 10:-0.820987 11:-0.896048 12:-0.886847 13:-0.932884 14:-0.88593 15:-0.928802 16:-0.886905 17:-0.956849 18:-0.975556 19:-0.7375 20:-0.497506 21:-0.139926 22:-0.109704 23:-0.349398 24:-0.869566 
1.361346274039712 1:-0.500339 2:-0.508583 3:-0.525409 4:-0.756912 5:-0.798066 6:-0.733859 7:-0.81574 8:-0.52966 9:-0.725253 10:-0.734946 11:-0.819971 12:-0.842031 13:-0.870502 14:-0.857168 15:-0.876229 16:-0.834101 17:-0.917255 18:-0.967778 19:-0.482417 20:-0.410249 21:-0.11816 22:0.265296 23:-0.110026 24:-1 
2 1:-0.980845 2:-0.935308 3:-0.933902 4:-0.660641 5:-0.970652 6:-0.687767 7:-0.834783 8:-0.584111 9:-0.951316 10:-0.694161 11:-0.929177 12:-0.818544 13:-0.900813 14:-0.81621 15:-0.827441 16:-0.825666 17:-0.924603 18:-0.997778 19:-0.947345 20:0.602529 21:-0.662936 22:-0.61862 23:-0.773345 24:-1 
2 1:-0.392215 2:-0.411028 3:0.327074 4:-0.79287 5:-0.888556 6:-0.655912 7:-0.769265 8:-0.44834 9:-0.771342 10:-0.627653 11:-0.805467 12:-0.837909 13:-0.8825 14:-0.855419 15:-0.917742 16:-0.827513 17:-0.909156 18:-0.975556 19:-0.631408 20:-0.0156358 21:-0.0710228 22:0.0613642 23:-0.506706 24:-0.869566 
2 1:-0.875405 2:-0.911814 3:-0.794199 4:-0.790607 5:-0.746125 6:0.000405203 7:-0.947152 8:0.545407 9:-0.0788548 10:0.264876 11:0.144322 12:-0.49872 13:-0.870148 14:-0.467173 15:-0.680568 16:-0.558119 17:-0.730638 18:-1 19:-0.960505 20:-0.613497 21:-0.867587 22:-0.703258 23:-0.651388 24:-1 
1.620054549078229 1:0.228507 2:0.261315 3:-0.721313 4:-0.773469 5:-0.921368 6:-0.669435 7:-0.808288 8:-0.44627 9:-0.862108 10:-0.53466 11:-0.824212 12:-0.884492 13:-0.966892 14:-0.900274 15:-0.918138 16:-0.854546 17:-0.975013 18:-0.996667 19:-0.954336 20:0.403349 21:0.181593 22:-0.858651 23:-0.838614 24:-1 
2 1:-0.736106 2:-0.717948 3:-0.738439 4:-0.820831 5:-0.918591 6:-0.472839 7:-0.589766 8:-0.202697 9:-0.610794 10:-0.456823 11:-0.841596 12:-0.831933 13:-0.959504 14:-0.820994 15:-0.86293 16:-0.787755 17:-0.968829 18:-1 19:-0.986427 20:-0.11804 21:1 22:-0.700971 23:-0.771604 24:-1 
0.9905902269848945 1:-0.764025 2:-0.955788 3:-0.95829 4:-0.422249 5:-0.823223 6:0.094743 7:-0.361858 8:0.67544 9:-0.763092 10:-0.613332 11:-0.488234 12:-0.2 13:-0.929132 14:-0.164641 15:-0.654584 16:-0.714286 17:-0.7818 18:-1 19:-0.859383 20:0.478338 21:-0.73335 22:0.778715 23:-0.697213 24:-1 
1.962149263264845 1:-0.609032 2:-0.92299 3:-0.963715 4:-0.587092 5:-0.649216 6:-0.70993 7:-0.730936 8:-0.487181 9:-0.828901 10:-0.742222 11:-0.847421 12:-0.797647 13:-0.846198 14:-0.736541 15:-0.888369 16:-0.817143 17:-0.88941 18:-0.991111 19:-0.816505 20:0.446444 21:-0.390607 22:0.114131 23:0.0376272 24:-0.333335 
0.608398253692957 1:-0.642808 2:-0.947212 3:-0.97025 4:-0.469062 5:-0.473443 6:-0.656082 7:-0.718209 8:-0.481863 9:-0.830789 10:-0.71358 11:-0.757535 12:-0.750446 13:-0.843085 14:-0.748484 15:-0.91845 16:-0.815296 17:-0.91744 18:-0.99 19:-0.731986 20:0.438443 21:-0.622653 22:0.108266 23:-0.3478 24:-1 
2 1:0.200966 2:-0.79485 3:-0.749868 4:-0.629306 5:-0.840851 6:-0.460537 7:-0.711539 8:-0.335557 9:-0.816647 10:-0.664535 11:-0.90365 12:-0.717969 13:-0.852231 14:-0.675408 15:-0.927305 16:-0.745597 17:-0.909015 18:-0.997778 19:-0.908895 20:-0.351295 21:0.759813 22:-0.632218 23:-0.509838 24:-1 
2 1:-0.351657 2:-0.865575 3:-0.760263 4:-0.551288 5:-0.636771 6:-0.830177 7:-0.616156 8:-0.617772 9:-0.850374 10:-0.486382 11:-0.987174 12:-0.743476 13:-0.613687 14:-0.776545 15:-0.900444 16:-0.402794 17:-0.86465 18:-1 19:-0.897544 20:0.0445688 21:0.896487 22:-0.940038 23:-0.889753 24:-1 
2 1:-0.830745 2:-0.922353 3:-0.863882 4:-0.701305 5:-0.905709 6:-0.704341 7:-0.909743 8:-0.544354 9:-0.921397 10:-0.641974 11:-0.865973 12:-0.816993 13:-0.906277 14:-0.82448 15:-0.885233 16:-0.809524 17:-0.913838 18:-0.995556 19:-0.889026 20:-0.519354 21:-0.378509 22:-0.359697 23:-0.465874 24:-1 
2 1:-0.88114 2:-0.911992 3:-0.80129 4:-0.679145 5:-0.882211 6:-0.724299 7:-0.914051 8:-0.553392 9:-0.905237 10:-0.613332 11:-0.840196 12:-0.845378 13:-0.929132 14:-0.788865 15:-0.855146 16:-0.795918 17:-0.91939 18:-0.997778 19:-0.925627 20:-0.668129 21:-0.698751 22:-0.311103 23:-0.538031 24:-1 
2 1:-0.859527 2:-0.968725 3:-0.833111 4:-0.699412 5:-0.943205 6:-0.701054 7:-0.896251 8:-0.545634 9:-0.922723 10:-0.601959 11:-0.835496 12:-0.83045 13:-0.867045 14:-0.79683 15:-0.888682 16:-0.785714 17:-0.869966 18:-0.997778 19:-0.927015 20:-0.608451 21:-0.686308 22:-0.249178 23:-0.562118 24:-1 
1.53359501484889 1:-0.851308 2:-0.859074 3:-0.869145 4:-0.642656 5:-0.912479 6:-0.551869 7:-0.576138 8:-0.326704 9:-0.663744 10:-0.617015 11:-0.784661 12:-0.771429 13:-0.810488 14:-0.761326 15:-0.850289 16:-0.768163 17:-0.884877 18:-0.994444 19:-0.819999 20:-0.109834 21:-0.166793 22:0.052588 23:-0.727831 24:-1 
2 1:-0.877399 2:-0.898001 3:-0.903599 4:-0.697161 5:-0.811642 6:-0.67298 7:-0.69924 8:-0.464416 9:-0.763537 10:-0.710657 11:-0.834863 12:-0.80072 13:-0.813798 14:-0.791816 15:-0.852839 16:-0.836735 17:-0.914761 18:-0.994444 19:-0.862559 20:-0.272853 21:0.141814 22:0.150981 23:-0.561312 24:-1 
0.1282303322052448 1:-0.396427 2:-0.958791 3:-0.950299 4:-0.78955 5:-0.770837 6:-0.64888 7:-0.756934 8:-0.449911 9:-0.823784 10:-0.556466 11:-0.830975 12:-0.839547 13:-0.924 14:-0.841763 15:-0.907866 16:-0.802909 17:-0.916496 18:-0.986667 19:-0.829306 20:0.47232 21:-0.0223426 22:-0.860787 23:-0.789522 24:-0.538463 
2 1:-0.560699 2:-0.9325 3:-0.865721 4:-0.774901 5:-0.719982 6:-0.672634 7:-0.819029 8:-0.511867 9:-0.920936 10:-0.589679 11:-0.870158 12:-0.879269 13:-0.922605 14:-0.832736 15:-0.959343 16:-0.806314 17:-0.923167 18:-0.995556 19:-0.9284 20:-0.504303 21:-0.350889 22:-0.673024 23:-0.60863 24:0.199996 
2 1:-0.545956 2:-0.698684 3:-0.922638 4:-0.753215 5:-0.851487 6:-0.728789 7:-0.894897 8:-0.41513 9:-0.707145 10:-0.526734 11:-0.719494 12:-0.867647 13:-0.937361 14:-0.782877 15:-0.955049 16:-0.819197 17:-0.972135 18:-0.997778 19:-0.944443 20:-0.365205 21:-0.389108 22:-0.558054 23:-0.888581 24:-1 
2 1:-0.13176 2:-0.937376 3:-0.906027 4:-0.673294 5:-0.763312 6:-0.654049 7:-0.697325 8:-0.467978 9:-0.885139 10:-0.770863 11:-0.843699 12:-0.803921 13:-0.906997 14:-0.766171 15:-0.926447 16:-0.853968 17:-0.964919 18:-0.992222 19:-0.822858 20:0.561724 21:-0.694052 22:0.396173 23:-0.354499 24:-1 
2 1:-0.368459 2:-0.918782 3:-0.894653 4:-0.674833 5:-0.800663 6:-0.70993 7:-0.839203 8:-0.491671 9:-0.879295 10:-0.779046 11:-0.922936 12:-0.835294 13:-0.87154 14:-0.717722 15:-0.888172 16:-0.844898 17:-0.904557 18:-0.994444 19:-0.816505 20:0.516674 21:-0.493253 22:0.447989 23:-0.351899 24:-1 
2 1:-0.811583 2:-0.862512 3:-0.707196 4:-0.691546 5:-0.929039 6:-0.782088 7:-0.810746 8:-0.5823 9:-0.765173 10:-0.649758 11:-0.746439 12:-0.809463 13:-0.81985 14:-0.695296 15:-0.817256 16:-0.782609 17:-0.877189 18:-0.993333 19:-0.83425 20:-0.0776732 21:0.162022 22:-0.508218 23:-0.277446 24:-1 
2 1:-0.311 2:-0.738466 3:-0.879505 4:-0.668072 5:-0.864791 6:-0.636778 7:-0.812515 8:-0.417196 9:-0.874714 10:-0.660202 11:-0.886039 12:-0.751872 13:-0.886384 14:-0.688931 15:-0.8412 16:-0.711689 17:-0.889278 18:-0.996667 19:-0.879883 20:0.323997 21:-0.0950948 22:-0.457173 23:-0.797592 24:-1 
2 1:-0.246743 2:-0.707309 3:-0.55364 4:-0.781403 5:-0.809528 6:-0.680849 7:-0.783525 8:-0.515501 9:-0.830672 10:-0.685469 11:-0.842731 12:-0.774068 13:-0.824443 14:-0.773306 15:-0.886793 16:-0.825691 17:-0.930456 18:-0.987778 19:-0.766728 20:0.12057 21:-0.269246 22:0.518653 23:-0.209857 24:-1 
2 1:-0.865515 2:-0.874741 3:-0.9605 4:-0.810915 5:-0.931465 6:-0.719074 7:-0.858778 8:-0.549786 9:-0.85559 10:-0.715663 11:-0.887199 12:-0.893904 13:-0.913015 14:-0.889787 15:-0.939728 16:-0.884329 17:-0.948206 18:-0.974444 19:-0.726371 20:-0.121035 21:-0.229111 22:0.455367 23:-0.652528 24:-1 
2 1:-0.953289 2:-0.980636 3:-0.987322 4:-0.655648 5:-0.899716 6:-0.636007 7:-0.935504 8:-0.462982 9:-0.975855 10:-0.420258 11:-0.746978 12:-0.833688 13:-0.941533 14:-0.725805 15:-0.88519 16:-0.773953 17:-0.946685 18:-0.995556 19:-0.901782 20:0.769514 21:-0.855808 22:-0.739953 23:-0.803438 24:-1 
2 1:-0.456519 2:-0.953429 3:-0.919655 4:-0.534824 5:-0.66819 6:-0.605282 7:-0.817683 8:-0.509636 9:-0.906458 10:-0.739618 11:-0.926894 12:-0.80511 13:-0.920609 14:-0.821504 15:-0.939011 16:-0.849928 17:-0.953245 18:-0.99 19:-0.78845 20:0.168767 21:-0.252995 22:0.259919 23:-0.493868 24:-1 
2 1:-0.68134 2:-0.934177 3:-0.997746 4:-0.0721749 5:-0.894311 6:-0.341121 7:-0.527303 8:0.208471 9:-0.789415 10:-0.283948 11:-0.810457 12:-0.294118 13:-0.803143 14:-0.125373 15:-0.637527 16:-0.555555 17:-0.878778 18:-1 19:-0.836091 20:0.265365 21:-0.755015 22:0.197996 23:-0.829481 24:-1 
2 1:-0.831092 2:-0.902004 3:-0.886172 4:-0.682684 5:-0.971308 6:-0.508762 7:-0.669766 8:-0.364568 9:-0.744352 10:-0.495651 11:-0.871536 12:-0.877238 13:-0.907563 14:-0.849831 15:-0.892261 16:-0.819876 17:-0.957656 18:-0.997778 19:-0.893629 20:0.245144 21:0.218095 22:0.44467 23:-0.721984 24:-1 
2 1:-0.845379 2:-0.860013 3:-0.913563 4:-0.723711 5:-0.863124 6:-0.595935 7:-0.714968 8:-0.484561 9:-0.791904 10:-0.587554 11:-0.863529 12:-0.858824 13:-0.912245 14:-0.843638 15:-0.89878 16:-0.862857 17:-0.95636 18:-0.995556 19:-0.836515 20:0.585303 21:-0.762328 22:0.487899 23:-0.660533 24:-1 
0.5712699768132441 1:-0.36669 2:-0.450446 3:-0.0430856 4:-0.714432 5:-0.916176 6:-0.424942 7:-0.815784 8:-0.0708372 9:-0.867859 10:-0.548888 11:-0.753776 12:-0.427449 13:-0.699099 14:-0.590353 15:-0.901994 16:-0.7 17:-0.76524 18:-0.997778 19:-0.864676 20:0.117267 21:-0.448262 22:0.142496 23:-0.701954 24:-1 
1.673946542688728 1:0.0527759 2:0.514421 3:0.0758452 4:-0.935471 5:-0.78575 6:-0.704479 7:-0.324157 8:-0.333134 9:-0.546315 10:-0.441268 11:-0.583354 12:-0.868496 13:-0.813004 14:-0.629213 15:-0.664249 16:-0.681402 17:-0.812002 18:-0.97 19:-0.76542 20:0.301854 21:-0.103853 22:0.514365 23:-0.048959 24:0.28571 
2 1:-0.874504 2:-0.959153 3:-0.979439 4:-0.718388 5:-0.916016 6:-0.739424 7:-0.882231 8:-0.566585 9:-0.84689 10:-0.651126 11:-0.825597 12:-0.823087 13:-0.855181 14:-0.768895 15:-0.909235 16:-0.740781 17:-0.932828 18:-0.994444 19:-0.866738 20:0.70736 21:-0.828127 22:-0.582445 23:-0.783304 24:-1 
2 1:-0.930571 2:-0.964261 3:-0.979335 4:-0.627451 5:-0.919543 6:-0.697357 7:-0.955685 8:-0.42843 9:-0.806377 10:-0.583795 11:-0.737032 12:-0.796568 13:-0.825815 14:-0.799193 15:-0.814626 16:-0.735119 17:-0.9122 18:-0.997778 19:-0.920126 20:0.362387 21:0.408239 22:-0.619656 23:-0.6987 24:-1 
0.3055976413434314 1:-0.711483 2:-0.966237 3:-0.977861 4:-0.484283 5:-0.947953 6:-0.443164 7:-0.163086 8:0.133521 9:0.179683 10:-0.402253 11:-0.672012 12:-0.619778 13:-0.769378 14:-0.521555 15:-0.691699 16:-0.581781 17:-0.959495 18:-0.997778 19:-0.862329 20:0.641993 21:-0.907574 22:-0.804083 23:-0.621692 24:-1 
2 1:-0.868275 2:-0.936063 3:-0.943664 4:-0.467288 5:-0.778727 6:-0.59903 7:-0.691463 8:-0.227948 9:-0.740566 10:-0.735612 11:-0.876283 12:-0.758672 13:-0.717319 14:-0.373892 15:-0.930414 16:-0.824176 17:-0.881315 18:-0.998889 19:-0.866223 20:0.118033 21:-0.756328 22:0.459971 23:-0.369867 24:-1 
0.1363377307513604 1:-0.877729 2:-0.893268 3:-0.898842 4:-0.913512 5:-0.967655 6:-0.810514 7:-0.868245 8:-0.67189 9:-0.802398 10:-0.779531 11:-0.894242 12:-0.867183 13:-0.899548 14:-0.9201 15:-0.943339 16:-0.91391 17:-0.933458 18:-0.98 19:-0.793186 20:0.295146 21:-0.102031 22:0.0850737 23:-0.49174 24:-1 
2 1:-0.981115 2:-0.985952 3:-0.992511 4:-0.578526 5:-0.929129 6:-0.5842 7:-0.843447 8:-0.0511983 9:-0.77692 10:-0.355554 11:-0.758752 12:-0.72549 13:-0.903681 14:-0.724225 15:-0.804093 16:-0.690476 17:-0.976821 18:-0.998889 19:-0.924493 20:0.051202 21:-0.663478 22:-0.529525 23:-0.863635 24:-1 
2 1:-0.925538 2:-0.921357 3:-0.96389 4:-0.533535 5:-0.812524 6:-0.641476 7:-0.747147 8:-0.489801 9:-0.906701 10:-0.57037 11:-0.876888 12:-0.800654 13:-0.925851 14:-0.792499 15:-0.961654 16:-0.785714 17:-0.945104 18:-0.995556 19:-0.812932 20:0.625376 21:-0.188277 22:-0.686143 23:-0.854992 24:-1 
2 1:-0.90146 2:-0.938177 3:-0.908212 4:-0.79013 5:-0.95236 6:-0.29566 7:-0.490131 8:0.0605312 9:-0.878148 10:-0.490269 11:-0.863701 12:-0.524094 13:-0.897921 14:-0.551644 15:-0.94787 16:-0.606134 17:-0.928649 18:-0.998889 19:-0.885438 20:0.159063 21:-0.880244 22:-0.119228 23:-0.97366 24:-1 
2 1:-0.856045 2:-0.960444 3:-0.921979 4:-0.848802 5:-0.929681 6:-0.675427 7:-0.820891 8:-0.530524 9:-0.786908 10:-0.696511 11:-0.821545 12:-0.844049 13:-0.874958 14:-0.844024 15:-0.885486 16:-0.842193 17:-0.890239 18:-0.984444 19:-0.749918 20:-0.290728 21:-0.0799175 22:0.372141 23:-0.291626 24:-1 
1.031953480134655 1:-0.315303 2:-0.495407 3:-0.515619 4:-0.615167 5:-0.812576 6:-0.237185 7:-0.370784 8:-0.0276316 9:-0.572331 10:-0.432887 11:-0.731357 12:-0.550588 13:-0.871505 14:-0.458623 15:-0.859573 16:-0.668571 17:-0.871836 18:-0.997778 19:-0.889238 20:-0.296384 21:-0.0726879 22:-0.446135 23:-0.654079 24:-1 
2 1:-0.358446 2:-0.655671 3:-0.642022 4:-0.709993 5:-0.809121 6:-0.412122 7:-0.632964 8:-0.0831586 9:-0.794901 10:-0.484443 11:-0.762914 12:-0.641984 13:-0.770421 14:-0.550191 15:-0.787331 16:-0.652661 17:-0.84164 18:-0.996667 19:-0.881553 20:-0.701261 21:-0.343173 22:-0.267081 23:-0.559161 24:-1 
1.158982378259882 1:-0.897834 2:-0.910854 3:-0.938572 4:-0.862723 5:-0.956471 6:-0.137558 7:-0.0434043 8:0.674505 9:-0.242828 10:0.104765 11:-0.62334 12:-0.378151 13:-0.585225 14:-0.588824 15:-0.889326 16:-0.261903 17:-0.936787 18:-0.997778 19:-0.873146 20:-0.269536 21:0.0822725 22:0.449263 23:-0.73789 24:-1 
0.2429453007068361 1:-0.30185 2:-0.684757 3:-0.935288 4:-0.587789 5:-0.582946 6:-0.67052 7:-0.653478 8:-0.232544 9:-0.411066 10:-0.517608 11:-0.377322 12:-0.779842 13:-0.854534 14:-0.673073 15:-0.695288 16:-0.699248 17:-0.736168 18:-0.992222 19:-0.804887 20:-0.184091 21:-0.25159 22:0.249655 23:-0.0826703 24:-0.625002 
2 1:-0.91144 2:-0.978749 3:-0.984487 4:-0.659353 5:-0.773171 6:-0.725405 7:-0.854566 8:-0.496852 9:-0.858887 10:-0.583589 11:-0.7442 12:-0.866064 13:-0.949446 14:-0.747292 15:-0.90427 16:-0.792307 17:-0.944184 18:-0.993333 19:-0.852053 20:0.577248 21:0.343396 22:-0.667464 23:-0.731022 24:-1 
2 1:-0.601894 2:-0.739946 3:-0.798973 4:-0.881457 5:-0.891273 6:-0.683759 7:-0.647029 8:-0.465586 9:-0.604711 10:-0.684848 11:-0.803371 12:-0.758805 13:-0.773851 14:-0.790506 15:-0.782157 16:-0.769817 17:-0.858594 18:-0.99 19:-0.86694 20:-0.148135 21:0.0492211 22:0.264939 23:-0.206121 24:-0.100003 
2 1:-0.762908 2:-0.697036 3:-0.718856 4:-0.448856 5:-0.710567 6:-0.67108 7:-0.936334 8:-0.510583 9:-0.96052 10:-0.495355 11:-0.897884 12:-0.738562 13:-0.959965 14:-0.768806 15:-0.853764 16:-0.694633 17:-0.982208 18:-0.998889 19:-0.873902 20:-0.374867 21:0.0971786 22:-0.830662 23:-0.881155 24:-1 
2 1:-0.811759 2:-0.89278 3:-0.722974 4:-0.558978 5:-0.832603 6:-0.716636 7:-0.886553 8:-0.521223 9:-0.891472 10:-0.656295 11:-0.916946 12:-0.69464 13:-0.974802 14:-0.737255 15:-0.834234 16:-0.715555 17:-0.923871 18:-0.996667 19:-0.887615 20:0.686592 21:-0.532391 22:-0.651402 23:-0.755642 24:-1 
1.291410767638359 1:-0.950868 2:-0.933067 3:-0.994407 4:-0.742225 5:-0.978291 6:-0.376414 7:-1 8:-0.24862 9:-0.775561 10:-0.728655 11:-1 12:-0.628483 13:-1 14:-0.695618 15:-0.878802 16:-0.518797 17:-0.913868 18:-1 19:-0.958678 20:0.0405205 21:-0.232957 22:0.914975 23:-0.704696 24:-1 
1.488312814831377 1:-0.840986 2:-0.983798 3:-0.966464 4:-0.60282 5:-0.935985 6:-0.660047 7:-0.782619 8:-0.355679 9:-0.702759 10:-0.696115 11:-0.929282 12:-0.667145 13:-0.852149 14:-0.670872 15:-0.914633 16:-0.69338 17:-0.902229 18:-0.998889 19:-0.919884 20:0.797449 21:-0.897362 22:-0.840584 23:-0.977139 24:-1 
2 1:-0.272807 2:-0.670062 3:-0.773462 4:-0.765669 5:-0.824731 6:-0.738238 7:-0.691178 8:-0.606613 9:-0.814033 10:-0.688196 11:-0.828389 12:-0.868968 13:-0.828291 14:-0.862826 15:-0.843947 16:-0.860051 17:-0.911305 18:-0.991111 19:-0.883764 20:0.732703 21:-0.203217 22:-0.838534 23:-0.842988 24:-1 
2 1:0.0218429 2:-0.885093 3:-0.689537 4:-0.65744 5:-0.758241 6:-0.668225 7:-0.805877 8:-0.395597 9:-0.84123 10:-0.622763 11:-0.941159 12:-0.701578 13:-0.778644 14:-0.666952 15:-0.887183 16:-0.616725 17:-0.905685 18:-0.997778 19:-0.84203 20:0.0489385 21:-0.658665 22:-0.391678 23:-0.879199 24:-1 
2 1:-0.96004 2:-0.961477 3:-0.949471 4:-0.807938 5:-0.906355 6:-0.746443 7:-0.894183 8:-0.667805 9:-0.947999 10:-0.748402 11:-0.980624 12:-0.858984 13:-0.885628 14:-0.880616 15:-0.910693 16:-0.843444 17:-0.982277 18:-0.997778 19:-0.959582 20:-0.249671 21:-0.395553 22:-0.836241 23:-0.7864 24:-1 
2 1:-0.696377 2:-0.932086 3:-0.933642 4:-0.630333 5:-0.437411 6:-0.581599 7:-0.765281 8:-0.179189 9:-0.601716 10:-0.448888 11:-0.576469 12:-0.591075 13:-0.812357 14:-0.388437 15:-0.591457 16:-0.369457 17:-0.66753 18:-0.996667 19:-0.744824 20:-0.614086 21:-0.532325 22:-0.119029 23:0.513231 24:-1 
2 1:-0.528536 2:-0.912336 3:-0.893424 4:-0.509511 5:-0.692052 6:-0.645922 7:-0.863262 8:-0.513603 9:-0.80979 10:-0.70707 11:-0.92246 12:-0.754011 13:-0.846354 14:-0.832052 15:-0.802437 16:-0.766234 17:-0.863063 18:-0.997778 19:-0.915975 20:-0.657776 21:-0.767623 22:-0.178837 23:-0.152131 24:-2.79398e-06 
2 1:-0.811072 2:-0.923115 3:-0.932399 4:-0.781937 5:-0.826842 6:-0.560578 7:-0.790534 8:-0.313644 9:-0.813367 10:-0.609427 11:-0.869224 12:-0.729055 13:-0.812291 14:-0.608609 15:-0.920301 16:-0.681385 17:-0.82707 18:-0.996667 19:-0.892876 20:-0.58068 21:-0.676064 22:0.190863 23:-0.684429 24:-1 
2 1:-0.491341 2:-0.79021 3:-0.918283 4:-0.539208 5:-0.988624 6:-0.622757 7:-0.861056 8:-0.437428 9:-0.920089 10:-0.63911 11:-0.95451 12:-0.491765 13:-0.895845 14:-0.539483 15:-0.851467 16:-0.638095 17:-0.922855 18:-0.996667 19:-0.854089 20:0.275109 21:-0.447655 22:-0.429795 23:-0.720288 24:-1 
2 1:-0.386327 2:-0.926191 3:-0.929569 4:-0.75445 5:-0.878983 6:-0.646377 7:-0.665176 8:-0.56992 9:-0.800074 10:-0.698617 11:-0.892312 12:-0.824408 13:-0.782113 14:-0.851342 15:-0.851469 16:-0.914712 17:-0.989489 18:-0.995556 19:-0.874647 20:-0.126321 21:-0.190511 22:-0.471795 23:-0.808531 24:-1 
1.322559251402406 1:-0.980089 2:-0.96915 3:-0.977771 4:-0.758861 5:-0.908707 6:-0.445011 7:-0.700403 8:-0.493489 9:-0.986653 10:-0.491705 11:-0.855841 12:-0.695112 13:-1 14:-0.966061 15:-0.997297 16:-0.770624 17:-0.850179 18:-1 19:-0.964328 20:0.582137 21:-0.846092 22:-0.539962 23:-0.791128 24:-1 
2 1:-0.953901 2:-0.936553 3:-0.944633 4:-0.795904 5:-0.979206 6:-0.661824 7:-1 8:-0.501184 9:-1 10:-0.439612 11:-0.802216 12:-0.935209 13:-0.984594 14:-0.981374 15:-0.994438 16:-0.855073 17:-0.932801 18:-1 19:-0.976945 20:0.223275 21:-0.598335 22:-0.448462 23:-0.939631 24:-1 
2 1:-0.134755 2:0.507468 3:0.299859 4:-0.780131 5:-0.795804 6:-0.701774 7:-0.601529 8:-0.584633 9:-0.728516 10:-0.70042 11:-0.766542 12:-0.799046 13:-0.674636 14:-0.839354 15:-0.837954 16:-0.840927 17:-0.872482 18:-0.991111 19:-0.840669 20:-0.033901 21:-0.249508 22:0.211775 23:-0.422994 24:-0.666668 
2 1:-0.882228 2:-0.70314 3:-0.940833 4:-0.651743 5:-0.930552 6:-0.408177 7:-0.787286 8:-0.267226 9:-0.810474 10:-0.484443 11:-0.658822 12:-0.788235 13:-1 14:-0.839354 15:-0.923241 16:-0.771429 17:-0.972725 18:-1 19:-0.954666 20:0.308289 21:-0.727439 22:0.553447 23:-0.992155 24:-1 
2 1:-0.653859 2:-0.61209 3:-0.644197 4:-0.464095 5:-0.898722 6:-0.445897 7:-0.601161 8:-0.0806566 9:-0.526184 10:-0.758333 11:-0.893382 12:-0.647059 13:-0.867122 14:-0.779112 15:-0.808102 16:-0.857143 17:-0.931812 18:-1 19:-0.945931 20:-0.0628887 21:-0.331713 22:0.315152 23:-0.708535 24:-1 
0.1131083890461575 1:-0.788439 2:-0.966281 3:-0.975073 4:-0.70861 5:-0.954137 6:-0.383031 7:-0.946822 8:-0.139573 9:-0.905237 10:-0.403887 11:-0.808088 12:-0.361765 13:-0.977854 14:-0.560232 15:-0.877665 16:-0.421429 17:-0.8909 18:-1 19:-0.938388 20:0.249247 21:0.269994 22:-0.524324 23:-0.987893 24:-1 
0.1974775053180923 1:-0.26061 2:-0.963543 3:-0.95563 4:-0.771176 5:-0.925956 6:-0.176769 7:-0.664023 8:-0.043111 9:-0.48753 10:0.145682 11:-0.607699 12:-0.567858 13:-0.950436 14:-0.413064 15:-0.682855 16:-0.357611 17:-0.875161 18:-0.998889 19:-0.926081 20:-0.615481 21:-0.31343 22:-0.483239 23:-0.477758 24:-1 
1.500699548062139 1:-0.946543 2:-0.997262 3:-0.959657 4:-0.355557 5:-0.854092 6:-0.371601 7:-0.34252 8:-0.0494112 9:-0.422807 10:-0.179795 11:-0.410693 12:-0.550802 13:-0.555461 14:-0.366178 15:-0.403371 16:-0.262337 17:-0.642946 18:-1 19:-0.895763 20:0.482414 21:-0.814541 22:-0.817497 23:-0.863948 24:-1 
2 1:-0.44528 2:-0.94566 3:-0.876051 4:-0.715278 5:-0.774197 6:-0.773938 7:-0.961325 8:-0.424337 9:-0.732697 10:-0.730504 11:-0.948566 12:-0.922995 13:-0.963555 14:-0.653882 15:-0.753812 16:-0.701299 17:-0.889028 18:-0.997778 19:-0.792396 20:0.0405752 21:0.200844 22:-0.369747 23:-0.495745 24:-1 
2 1:0.0761083 2:-0.861799 3:-0.624612 4:-0.871158 5:-0.89139 6:-0.601378 7:-0.57326 8:-0.549947 9:-0.822217 10:-0.693728 11:-0.801875 12:-0.685964 13:-0.718261 14:-0.822494 15:-0.841721 16:-0.873267 17:-0.945495 18:-0.996667 19:-0.909571 20:-0.319757 21:0.123717 22:-0.288409 23:-0.52481 24:-1 
2 1:-0.315907 2:-0.932391 3:-0.864968 4:-0.792996 5:-0.8318 6:-0.751775 7:-0.704619 8:-0.62986 9:-0.810707 10:-0.806832 11:-0.889185 12:-0.697218 13:-0.496796 14:-0.753427 15:-0.814154 16:-0.784422 17:-0.793982 18:-0.992222 19:-0.820088 20:-0.397632 21:-0.399029 22:0.00871316 23:-0.456715 24:-1 
2 1:-0.751185 2:-0.926822 3:-0.851406 4:-0.587518 5:-0.755986 6:-0.675512 7:-0.675288 8:-0.567591 9:-0.828226 10:-0.664956 11:-0.808879 12:-0.802777 13:-0.820974 14:-0.828701 15:-0.856274 16:-0.807503 17:-0.91391 18:-0.987778 19:-0.733872 20:-0.573493 21:-0.410254 22:-0.297982 23:-0.518017 24:-0.750001 
2 1:-0.867017 2:-0.987123 3:-0.98509 4:-0.731821 5:-0.939078 6:-0.756318 7:-0.857038 8:-0.542889 9:-0.907786 10:-0.741045 11:-0.973931 12:-0.776954 13:-0.877845 14:-0.758224 15:-0.961968 16:-0.73229 17:-0.910625 18:-0.996667 19:-0.913101 20:0.793011 21:-0.811397 22:-0.912521 23:-0.95143 24:-1 
2 1:-0.716942 2:-0.97123 3:-0.990853 4:-0.652661 5:-0.971988 6:-0.665586 7:-0.859005 8:-0.591161 9:-0.927949 10:-0.639664 11:-0.931367 12:-0.726755 13:-0.94323 14:-0.82899 15:-0.929965 16:-0.806451 17:-0.900199 18:-0.998889 19:-0.946059 20:0.65236 21:-0.796795 22:-0.68102 23:-0.647865 24:-1 
2 1:-0.608889 2:-0.96584 3:-0.881874 4:-0.636682 5:-0.856104 6:-0.71693 7:-0.725182 8:-0.557422 9:-0.786417 10:-0.636467 11:-0.778194 12:-0.800905 13:-0.901066 14:-0.829939 15:-0.799997 16:-0.769754 17:-0.929185 18:-0.994444 19:-0.871517 20:0.630245 21:-0.693745 22:-0.770286 23:-0.799574 24:-1 
2 1:-0.903796 2:-0.912971 3:-0.930866 4:-0.744902 5:-0.931567 6:-0.769311 7:-0.899478 8:-0.648027 9:-0.882833 10:-0.72526 11:-0.906201 12:-0.859565 13:-0.905622 14:-0.904119 15:-0.913318 16:-0.848537 17:-0.942127 18:-0.987778 19:-0.823719 20:0.644961 21:-0.731398 22:-0.687417 23:-0.802415 24:-1 
0.2673794735082914 1:-0.449859 2:-0.578959 3:-0.823925 4:-0.735504 5:-0.630915 6:-0.741514 7:-0.870799 8:-0.606684 9:-0.844081 10:-0.691163 11:-0.827199 12:-0.819949 13:-0.862789 14:-0.870552 15:-0.845633 16:-0.816149 17:-0.897085 18:-0.976667 19:-0.713988 20:-0.0810103 21:0.316704 22:-0.277581 23:-0.193667 24:-0.318184 
2 1:-0.54208 2:-0.683164 3:-0.853999 4:-0.836535 5:-0.803309 6:-0.797267 7:-0.832348 8:-0.702262 9:-0.848368 10:-0.798611 11:-0.898253 12:-0.864496 13:-0.906021 14:-0.888122 15:-0.917389 16:-0.874362 17:-0.934533 18:-0.971111 19:-0.692339 20:-0.189282 21:0.252266 22:-0.21748 23:-0.167787 24:-0.555556 
2 1:-0.901808 2:-0.946124 3:-0.967116 4:-0.801063 5:-0.934507 6:-0.787 7:-0.876456 8:-0.663574 9:-0.834258 10:-0.772352 11:-0.859603 12:-0.863713 13:-0.903029 14:-0.856045 15:-0.923896 16:-0.866419 17:-0.963107 18:-0.986667 19:-0.809142 20:0.0910353 21:-0.326936 22:-0.313939 23:-0.68996 24:-1 
2 1:-0.893606 2:-0.933362 3:-0.965589 4:-0.773225 5:-0.923516 6:-0.738093 7:-0.835013 8:-0.548455 9:-0.818371 10:-0.721599 11:-0.877176 12:-0.854118 13:-0.877867 14:-0.877267 15:-0.901793 16:-0.794286 17:-0.900366 18:-0.991111 19:-0.830798 20:0.179045 21:-0.295874 22:-0.296941 23:-0.810505 24:-1 
2 1:-0.462 2:-0.804402 3:-0.959944 4:-0.342959 5:-0.175857 6:-0.580608 7:-0.615622 8:-0.250391 9:-0.755572 10:-0.889523 11:-0.805041 12:-0.603361 13:-0.826408 14:-0.706247 15:-0.792377 16:-0.97551 17:-0.953243 18:-0.996667 19:-0.783156 20:0.137461 21:-0.165432 22:0.0907094 23:0.0601453 24:-1 
1.804560474278351 1:-0.69988 2:-0.460183 3:-0.785659 4:-0.308612 5:-0.797679 6:-0.678317 7:-0.90904 8:-0.463615 9:-0.906797 10:-0.565459 11:-0.859076 12:-0.487732 13:-0.839681 14:-0.455638 15:-0.649786 16:-0.474286 17:-0.872845 18:-0.991111 19:-0.560829 20:0.746941 21:-0.748885 22:-0.663296 23:-0.680827 24:-1 
2 1:-0.947477 2:-0.92918 3:-0.961529 4:-0.634817 5:-0.955595 6:-0.657081 7:-0.964675 8:-0.443642 9:-0.921053 10:-0.598041 11:-0.976869 12:-0.719242 13:-0.865513 14:-0.634055 15:-0.816914 16:-0.65908 17:-0.882117 18:-0.996667 19:-0.871979 20:0.470399 21:-0.699863 22:-0.727372 23:-0.757506 24:-1 
2 1:-0.867398 2:-0.996334 3:-0.895899 4:-0.597396 5:-0.6951 6:-0.378374 7:-0.763651 8:-0.15521 9:-0.631477 10:-0.474896 11:-0.810457 12:-0.703704 13:-0.89501 14:-0.726307 15:-0.971571 16:-0.619047 17:-0.83837 18:-1 19:-0.956077 20:-0.328243 21:0.333805 22:-0.211462 23:-0.691745 24:-1 
2 1:-0.82003 2:-0.852263 3:-0.879546 4:-0.736089 5:-0.879295 6:-0.748513 7:-0.898404 8:-0.696494 9:-0.920321 10:-0.777087 11:-0.934924 12:-0.796531 13:-0.842597 14:-0.87533 15:-0.920525 16:-0.77447 17:-0.873929 18:-0.99 19:-0.804847 20:-0.0231101 21:-0.281717 22:-0.0194612 23:-0.431161 24:-1 
2 1:-0.853639 2:-0.890765 3:-0.921139 4:-0.605435 5:-0.928848 6:-0.714003 7:-0.985182 8:-0.528957 9:-0.94037 10:-0.630598 11:-0.976234 12:-0.837273 13:-0.958111 14:-0.69222 15:-0.881457 16:-0.847797 17:-0.934928 18:-0.995556 19:-0.873096 20:0.935002 21:-0.948709 22:-0.902444 23:-0.919538 24:-1 
1.428393282299991 1:-0.943476 2:-0.942237 3:-0.972956 4:-0.225387 5:-0.777928 6:-0.408177 7:-0.574572 8:-0.110115 9:-0.952618 10:-0.613332 11:-0.829411 12:-0.6 13:-0.893697 14:-0.710837 15:-0.923241 16:-0.628571 17:-0.972725 18:-1 19:-0.875263 20:0.169717 21:-0.0306697 22:0.320035 23:-0.931728 24:-1 
0.5626468693480362 1:-0.666188 2:-0.981503 3:-0.958479 4:-0.569755 5:-0.902855 6:-0.498356 7:-0.647922 8:-0.395896 9:-0.882363 10:-0.377776 11:-0.741176 12:-0.776065 13:-0.828938 14:-0.786175 15:-0.786928 16:-0.64335 17:-0.802491 18:-1 19:-0.964522 20:0.914911 21:-0.908667 22:-0.930831 23:-0.952152 24:-1 
2 1:-0.336326 2:-0.992367 3:-0.979001 4:-0.783312 5:-0.923212 6:-0.594626 7:-0.740593 8:-0.237528 9:-0.618636 10:-0.559891 11:-0.833572 12:-0.39168 13:-0.809865 14:-0.431863 15:-0.508554 16:-0.560975 17:-0.687335 18:-1 19:-0.959779 20:-0.703408 21:-0.717898 22:-0.0168272 23:-0.460975 24:-1 
0.666525854636738 1:0.146908 2:-0.745629 3:-0.121067 4:-0.718358 5:-0.662895 6:-0.393276 7:-0.213854 8:-0.166848 9:-0.505379 10:-0.439889 11:-0.631257 12:-0.671169 13:-0.66898 14:-0.517269 15:-0.715768 16:-0.622575 17:-0.862098 18:-0.985556 19:-0.680816 20:-0.0836704 21:0.197579 22:-0.176338 23:-0.266946 24:-0.142859 
2 1:-0.915271 2:-0.985018 3:-0.930842 4:-0.658514 5:-0.996067 6:-0.663506 7:-1 8:-0.394124 9:-0.963553 10:-0.479486 11:-0.901583 12:-0.837104 13:-0.986371 14:-0.901141 15:-0.992619 16:-0.439561 17:-0.98951 18:-1 19:-0.960285 20:0.139909 21:-0.621259 22:-0.524278 23:-0.997433 24:-1 
2 1:-0.96765 2:-0.976713 3:-0.986104 4:-0.651215 5:-0.927123 6:-0.65668 7:-0.941015 8:-0.516754 9:-0.991954 10:-0.595641 11:-0.933102 12:-0.66782 13:-0.774434 14:-0.770056 15:-0.858261 16:-0.635854 17:-0.843438 18:-0.997778 19:-0.922033 20:-0.083096 21:-0.416962 22:-0.557882 23:-0.909217 24:-1 
2 1:-0.910804 2:-0.975878 3:-0.919622 4:-0.819053 5:-0.95052 6:-0.691853 7:-0.914544 8:-0.575474 9:-0.919182 10:-0.667382 11:-0.949053 12:-0.811331 13:-0.85536 14:-0.875629 15:-0.860009 16:-0.828835 17:-0.890931 18:-0.994444 19:-0.88766 20:-0.217449 21:-0.1169 22:-0.43569 23:-0.452337 24:-1 
2 1:-0.410083 2:-0.823422 3:-0.587634 4:-0.834227 5:-0.868373 6:-0.625257 7:-0.810745 8:-0.485363 9:-0.979968 10:-0.65047 11:-1 12:-0.861748 13:-0.858103 14:-0.883827 15:-0.922605 16:-0.845037 17:-0.842913 18:-0.998889 19:-0.959726 20:-0.48679 21:0.165777 22:-0.11231 23:-0.464713 24:-1 
2 1:-0.748511 2:-0.87799 3:-0.973555 4:-0.464107 5:-0.59637 6:-0.575818 7:-0.764836 8:-0.358873 9:-0.86976 10:-0.785184 11:-0.901511 12:-0.74902 13:-0.832962 14:-0.742967 15:-0.891446 16:-0.809524 17:-0.907283 18:-0.997778 19:-0.908083 20:-0.351911 21:-0.291798 22:0.260226 23:-0.290829 24:-1 
0.2112426441790972 1:-0.489204 2:-0.887362 3:-0.848351 4:-0.780012 5:-0.79174 6:-0.745074 7:-0.71818 8:-0.617085 9:-0.72598 10:-0.720482 11:-0.786713 12:-0.896855 13:-0.861734 14:-0.894888 15:-0.905325 16:-0.859394 17:-0.880328 18:-0.973333 19:-0.65305 20:-0.0761209 21:-0.369683 22:-0.560825 23:-0.618434 24:-0.640001 
1.566931079886847 1:-0.555692 2:-0.860236 3:-0.755882 4:-0.582126 5:-0.877589 6:-0.636168 7:-0.77548 8:-0.47409 9:-0.753077 10:-0.57037 11:-0.707833 12:-0.656993 13:-0.879897 14:-0.682992 15:-0.767673 16:-0.700318 17:-0.907648 18:-0.991111 19:-0.674464 20:-0.076114 21:-0.164199 22:-0.608799 23:-0.743671 24:-1 
0.1278061651620212 1:-0.400376 2:-0.609412 3:-0.876011 4:-0.657258 5:-0.749323 6:-0.712325 7:-0.826394 8:-0.520194 9:-0.853587 10:-0.8082 11:-0.871962 12:-0.79972 13:-0.853644 14:-0.742775 15:-0.894969 16:-0.870749 17:-0.954542 18:-0.984444 19:-0.647038 20:0.0920679 21:-0.170141 22:0.272969 23:-0.232091 24:-1 
2 1:-0.88903 2:-0.980362 3:-0.918521 4:-0.456048 5:-0.601476 6:-0.672676 7:-0.905461 8:-0.379242 9:-0.601702 10:-0.575142 11:-0.874589 12:-0.74902 13:-0.840256 14:-0.659668 15:-0.350016 16:-0.697354 17:-0.880243 18:-0.996667 19:-0.89432 20:0.703052 21:-0.089027 22:-0.880609 23:-0.780626 24:-1 
2 1:-0.89935 2:-0.909742 3:-0.929346 4:-0.754984 5:-0.829366 6:-0.810514 7:-0.874757 8:-0.61025 9:-0.760225 10:-0.682073 11:-0.804338 12:-0.918432 13:-0.991161 14:-0.836141 15:-0.860525 16:-0.773333 17:-0.90739 18:-0.998889 19:-0.935292 20:0.718733 21:-0.793928 22:-0.682452 23:-0.858754 24:-1 
2 1:0.434916 2:-0.587585 3:-0.637011 4:-0.849127 5:-0.879612 6:-0.736528 7:-0.757164 8:-0.582921 9:-0.686168 10:-0.728379 11:-0.799034 12:-0.856964 13:-0.854765 14:-0.871744 15:-0.878125 16:-0.861051 17:-0.890443 18:-0.978889 19:-0.654086 20:0.0400624 21:-0.157707 22:0.242358 23:-0.374745 24:-0.550001 
2 1:-0.972514 2:-0.828704 3:-0.840994 4:-0.64053 5:-0.852531 6:-0.740879 7:-0.590934 8:-0.514978 9:-0.702347 10:-0.669515 11:-0.912518 12:-0.800905 13:-0.718343 14:-0.744614 15:-0.763818 16:-0.714286 17:-0.867122 18:-1 19:-0.970465 20:0.248194 21:-0.63001 22:-0.414459 23:-0.646368 24:-1 
2 1:-0.625149 2:-0.910885 3:-0.971791 4:-0.755785 5:-0.967826 6:-0.543849 7:-0.604252 8:-0.00872333 9:-0.228671 10:-0.370541 11:-0.484266 12:-0.901505 13:-0.967038 14:-0.869242 15:-0.870581 16:-0.873754 17:-0.955599 18:-1 19:-0.976677 20:-0.071888 21:-0.457417 22:-0.0832028 23:-0.531481 24:-1 
2 1:-0.867193 2:-0.841377 3:-0.942425 4:-0.875855 5:-0.90333 6:-0.729119 7:-0.843475 8:-0.466745 9:-0.75276 10:-0.697367 11:-0.80622 12:-0.895425 13:-0.90914 14:-0.901659 15:-0.920324 16:-0.868224 17:-0.930062 18:-0.992222 19:-0.881436 20:-0.586903 21:-0.363214 22:0.283364 23:-0.300803 24:-1 
2 1:-0.609993 2:-0.974019 3:-0.928427 4:-0.362478 5:-0.74527 6:0.125351 7:-0.0751561 8:0.591763 9:-0.629188 10:0.120776 11:-0.554985 12:-0.191816 13:-0.337534 14:-0.21074 15:-0.357561 16:-0.204971 17:-0.715391 18:-1 19:-0.874297 20:-0.0918149 21:0.772733 22:-0.374504 23:-0.803307 24:-1 
2 1:-0.938793 2:-0.674093 3:-0.801763 4:-0.40756 5:-0.854049 6:-0.66126 7:-0.899153 8:-0.526966 9:-0.940725 10:-0.61749 11:-0.893296 12:-0.693359 13:-0.922274 14:-0.739857 15:-0.83653 16:-0.673733 17:-0.910516 18:-0.996667 19:-0.845141 20:0.794282 21:-0.926426 22:-0.845816 23:-0.823706 24:-1 
1.243637211354162 1:-0.707325 2:-0.613965 3:-0.774331 4:-0.817914 5:-0.769326 6:-0.781489 7:-0.804991 8:-0.649169 9:-0.854691 10:-0.766303 11:-0.911338 12:-0.863948 13:-0.928176 14:-0.83518 15:-0.920004 16:-0.857538 17:-0.95046 18:-0.992222 19:-0.870381 20:0.64665 21:0.229027 22:-0.86035 23:-0.851205 24:-1 
2 1:-0.584425 2:-0.971009 3:-0.71599 4:-0.665418 5:-0.852702 6:-0.65668 7:-0.802563 8:-0.425987 9:-0.820605 10:-0.507188 11:-0.772097 12:-0.837864 13:-0.898322 14:-0.706382 15:-0.896358 16:-0.684274 17:-0.951663 18:-0.997778 19:-0.911535 20:0.508522 21:0.31081 22:-0.874408 23:-0.815092 24:-1 
2 1:-0.378697 2:-0.896407 3:-0.892222 4:-0.663105 5:-0.937955 6:-0.754046 7:-0.934933 8:-0.507716 9:-0.854628 10:-0.678907 11:-0.936092 12:-0.81259 13:-0.88346 14:-0.687727 15:-0.764804 16:-0.746366 17:-0.938975 18:-0.996667 19:-0.900449 20:0.471123 21:0.656034 22:-0.858515 23:-0.776004 24:-1 
2 1:-0.633524 2:-0.96261 3:-0.921959 4:-0.842286 5:-0.801538 6:-0.589089 7:-0.63263 8:-0.437295 9:-0.708935 10:-0.532329 11:-0.788893 12:-0.815768 13:-0.72729 14:-0.79222 15:-0.841754 16:-0.717262 17:-0.842972 18:-0.995556 19:-0.901433 20:-0.65091 21:-0.50197 22:-0.784258 23:-0.766892 24:-0.400001 
1.702400295373885 1:-0.448504 2:-0.934805 3:-0.923118 4:-0.859636 5:-0.769446 6:-0.595145 7:-0.679366 8:-0.00244675 9:-0.719764 10:-0.423789 11:-0.651927 12:-0.795156 13:-0.841895 14:-0.501808 15:-0.802556 16:-0.757983 17:-0.864954 18:-0.996667 19:-0.911695 20:-0.0817078 21:0.550512 22:-0.195351 23:-0.0529511 24:-0.250002 
0.4310874119932393 1:-0.957441 2:-0.952995 3:-0.937561 4:-0.745818 5:-0.910245 6:-0.703224 7:-0.899059 8:-0.48107 9:-0.791638 10:-0.507357 11:-0.741887 12:-0.828497 13:-0.850521 14:-0.786162 15:-0.91449 16:-0.784762 17:-0.911813 18:-0.991111 19:-0.805389 20:0.180317 21:-0.804724 22:-0.747768 23:-0.81469 24:-1 
2 1:-0.863192 2:-0.909042 3:-0.906345 4:-0.866052 5:-0.885346 6:-0.802023 7:-0.667637 8:-0.564358 9:-0.733702 10:-0.74808 11:-0.748223 12:-0.877005 13:-0.862527 14:-0.731805 15:-0.967505 16:-0.85603 17:-0.89579 18:-0.99 19:-0.913944 20:0.31352 21:-0.404994 22:-0.894125 23:-0.964756 24:-1 
2 1:-0.924628 2:-0.935278 3:-0.946833 4:-0.67459 5:-0.857369 6:-0.727492 7:-0.789793 8:-0.529699 9:-0.723313 10:-0.66857 11:-0.798168 12:-0.763959 13:-0.848895 14:-0.780196 15:-0.921868 16:-0.785034 17:-0.957396 18:-0.991111 19:-0.774586 20:-0.864519 21:-0.674511 22:-0.642664 23:-0.833872 24:-1 
2 1:-0.652451 2:-0.970844 3:-0.903904 4:-0.18329 5:-0.787044 6:-0.666822 7:-0.635347 8:-0.435559 9:-0.600641 10:-0.594919 11:-0.707561 12:-0.552941 13:-0.691216 14:-0.832469 15:-0.942431 16:-0.551021 17:-0.83635 18:-1 19:-0.889782 20:0.644612 21:-0.943861 22:-0.888979 23:-0.954432 24:-1 
2 1:-0.369094 2:-0.561098 3:-0.413587 4:-0.295183 5:-0.365656 6:-0.580608 7:-0.326407 8:-0.489801 9:-0.698226 10:-0.71358 11:-0.731945 12:-0.686274 13:-0.607978 14:-0.767956 15:-0.90741 16:-0.705215 17:-0.749195 18:-0.994444 19:-0.850207 20:0.355508 21:-0.625814 22:-0.0860007 23:-0.378707 24:-0.500001 
0.1539516099017371 1:-0.197502 2:-0.772647 3:-0.314487 4:-0.688052 5:-0.830441 6:-0.612814 7:-0.664912 8:-0.458874 9:-0.767408 10:-0.571109 11:-0.757428 12:-0.830832 13:-0.822621 14:-0.876746 15:-0.864606 16:-0.792118 17:-0.863833 18:-0.97 19:-0.562417 20:0.177294 21:0.217441 22:-0.218119 23:-0.712888 24:-0.464288 
2 1:-0.54722 2:-0.703993 3:-0.511433 4:-0.311876 5:-0.504239 6:-0.518075 7:-0.783347 8:-0.4207 9:-0.995613 10:-0.104936 11:-0.69989 12:-0.511981 13:-0.89501 14:-0.657885 15:-0.936034 16:-0.216931 17:-0.611079 18:-1 19:-0.863147 20:0.139246 21:0.217656 22:-0.878024 23:-0.784402 24:-1 
2 1:0.763435 2:-0.506896 3:0.246595 4:-0.867882 5:-0.905572 6:-0.54016 7:-0.565974 8:-0.342384 9:-0.697636 10:-0.508725 11:-0.823139 12:-0.763417 13:-0.760757 14:-0.74909 15:-0.648436 16:-0.769676 17:-0.837257 18:-0.99 19:-0.798846 20:0.194581 21:0.00122767 22:-0.156427 23:-0.555679 24:-1 
1.586374761969091 1:-0.684331 2:0.713412 3:-0.91771 4:-0.672179 5:-0.822692 6:-0.445897 7:-0.610697 8:-0.233404 9:-0.71378 10:-0.480863 11:-0.790899 12:-0.754902 13:-0.84106 14:-0.46005 15:-0.659217 16:-0.777778 17:-0.877404 18:-0.997778 19:-0.925199 20:0.277817 21:0.554405 22:-0.907261 23:-0.853609 24:-1 
2 1:-0.525485 2:-0.589894 3:-0.405792 4:-0.632966 5:-0.774936 6:-0.618868 7:-0.471361 8:-0.304646 9:-0.655152 10:-0.35174 11:-0.788026 12:-0.903933 13:-0.926616 14:-0.247149 15:-0.938684 16:-0.651733 17:-0.854749 18:-1 19:-0.92937 20:-0.232746 21:-0.798813 22:-0.851105 23:-0.88233 24:-1 
2 1:-0.775482 2:-0.631641 3:-0.668755 4:-0.459251 5:-0.714795 6:-0.592581 7:-0.626109 8:-0.473434 9:-0.794019 10:-0.516665 11:-0.723034 12:-0.602241 13:-0.783729 14:-0.583085 15:-0.743256 16:-0.551021 17:-0.813855 18:-0.998889 19:-0.89829 20:0.270535 21:0.222942 22:-0.910653 23:-0.924884 24:-1 
2 1:-0.867386 2:-0.959496 3:-0.928492 4:-0.457387 5:-0.839677 6:-0.676402 7:-0.980717 8:-0.472173 9:-0.926979 10:-0.57037 11:-0.938141 12:-0.781297 13:-0.929111 14:-0.816699 15:-0.841692 16:-0.730769 17:-0.933103 18:-0.998889 19:-0.924554 20:0.587327 21:-0.91182 22:-0.915656 23:-0.96793 24:-1 
2 1:-0.970665 2:-0.971555 3:-0.976409 4:-0.172654 5:-0.314157 6:-0.207009 7:-0.540485 8:-0.0839284 9:-0.714834 10:-0.183702 11:-0.787238 12:-0.372551 13:-0.898394 14:-0.491289 15:-0.8184 16:-0.438095 17:-0.915687 18:-0.998889 19:-0.819681 20:0.271964 21:-0.663323 22:-0.525964 23:-0.503156 24:-1 
2 1:-0.779252 2:-0.938181 3:-0.964847 4:-0.281904 5:-0.312188 6:-0.536702 7:-0.359057 8:-0.344328 9:-0.752756 10:-0.618106 11:-0.717445 12:-0.627451 13:-0.798522 14:-0.744157 15:-0.843236 16:-0.748677 17:-0.863088 18:-0.988889 19:-0.41261 20:-0.63233 21:-0.258285 22:-0.376463 23:-0.572062 24:-1 
0.03291296734181241 1:-0.913775 2:-0.925599 3:-0.959765 4:-0.877007 5:-0.931733 6:-0.508762 7:-0.638227 8:-0.323912 9:-0.641885 10:-0.538635 11:-0.793252 12:-0.71123 13:-0.760696 14:-0.719782 15:-0.801288 16:-0.676948 17:-0.775858 18:-0.993333 19:-0.849566 20:-0.264852 21:0.0409207 22:0.490409 23:-0.4523 24:-1 
0.3810712370974038 1:-0.935308 2:-0.928888 3:-0.940035 4:-0.883888 5:-0.939361 6:-0.564642 7:-0.727088 8:-0.444702 9:-0.838371 10:-0.608558 11:-0.836704 12:-0.701961 13:-0.774012 14:-0.777476 15:-0.793692 16:-0.746032 17:-0.796072 18:-0.988889 19:-0.80433 20:-0.139827 21:-0.0564664 22:0.566705 23:-0.608358 24:-1 
0.1754546003307394 1:-0.718963 2:-0.0108433 3:-0.68154 4:-0.85366 5:-0.89317 6:-0.72517 7:-0.824653 8:-0.612155 9:-0.905453 10:-0.67973 11:-0.864015 12:-0.915864 13:-0.945291 14:-0.907312 15:-0.909361 16:-0.902684 17:-0.957961 18:-0.991111 19:-0.895186 20:0.617033 21:-0.487059 22:-0.77178 23:-0.784541 24:-0.666668 
2 1:-0.798092 2:-0.457344 3:-0.718423 4:-0.824495 5:-0.840241 6:-0.886218 7:-0.782041 8:-0.836352 9:-0.835233 10:-0.864661 11:-0.823853 12:-0.931683 13:-0.939429 14:-0.952565 15:-0.890931 16:-0.912413 17:-0.927259 18:-0.977778 19:-0.77774 20:0.178771 21:-0.0519148 22:-0.637188 23:-0.640363 24:-0.428572 
2 1:-0.8273 2:-0.890434 3:-0.983807 4:-0.655834 5:-0.875849 6:-0.66484 7:-0.880221 8:-0.540964 9:-0.936904 10:-0.674073 11:-0.903941 12:-0.881 13:-0.93586 14:-0.775957 15:-0.802244 16:-0.89491 17:-0.989761 18:-0.998889 19:-0.947072 20:0.320263 21:-0.857473 22:-0.760063 23:-0.913084 24:-1 
2 1:-0.11706 2:-0.808217 3:-0.744185 4:-0.809695 5:-0.768762 6:-0.761339 7:-0.824655 8:-0.622471 9:-0.694587 10:-0.773727 11:-0.865491 12:-0.832157 13:-0.811907 14:-0.843281 15:-0.80283 16:-0.84381 17:-0.855542 18:-0.98 19:-0.749278 20:-0.0866793 21:0.0105708 22:0.123664 23:-0.066979 24:-0.526318 
2 1:-0.47238 2:-0.848176 3:-0.666149 4:-0.289261 5:-0.364049 6:-0.718311 7:-0.668375 8:-0.424337 9:-0.778393 10:-0.785184 11:-0.89948 12:-0.970588 13:-0.963835 14:-0.692095 15:-0.803819 16:-0.77381 17:-0.887497 18:-0.998889 19:-0.771246 20:0.170203 21:0.406645 22:-0.270631 23:-0.581425 24:-1 
2 1:-0.564942 2:-0.834471 3:-0.805133 4:-0.677393 5:-0.806548 6:-0.640479 7:-0.751886 8:-0.429011 9:-0.834583 10:-0.693121 11:-0.909179 12:-0.94958 13:-0.947993 14:-0.71122 15:-0.843349 16:-0.761905 17:-0.862011 18:-0.994444 19:-0.767276 20:-0.323217 21:0.0656606 22:0.130224 23:-0.603578 24:-1 
-2 1:-0.716387 2:-0.951181 3:-0.874198 4:-0.571537 5:-0.750905 6:-0.782923 7:-0.699801 8:-0.609135 9:-0.663466 10:-0.814274 11:-0.844184 12:-0.820262 13:-0.907045 14:-0.657513 15:-0.669265 16:-0.609127 17:-0.735612 18:-0.992222 19:-0.799037 20:-0.595499 21:-0.324415 22:-0.629189 23:-0.677401 24:-0.625002 
-2 1:-0.0398287 2:-0.168842 3:0.369604 4:-0.717743 5:-0.818621 6:-0.743642 7:-0.771792 8:-0.427573 9:-0.71366 10:-0.663613 11:-0.848792 12:-0.883 13:-0.910266 14:-0.722842 15:-0.825813 16:-0.883046 17:-0.902184 18:-0.986667 19:-0.771551 20:0.0214416 21:0.0671532 22:-0.278109 23:-0.599669 24:-0.538463 
-2 1:-0.316352 2:-0.766 3:-0.551845 4:-0.720633 5:-0.810341 6:-0.696124 7:-0.947242 8:-0.499043 9:-0.918075 10:-0.656295 11:-0.934454 12:-0.896655 13:-0.94771 14:-0.826125 15:-0.912162 16:-0.901401 17:-0.95863 18:-0.996667 19:-0.917051 20:-0.142713 21:0.015389 22:-0.326331 23:-0.510264 24:-0.250002 
-1.342921236472205 1:-0.936948 2:-0.947783 3:-0.930398 4:-0.470365 5:-0.917376 6:-0.661824 7:-1 8:-0.171023 9:-0.980577 10:-0.663767 11:-1 12:-0.727195 13:-0.854749 14:-0.548328 15:-0.956203 16:-0.743271 17:-0.98882 18:-0.998889 19:-0.875677 20:-0.0286834 21:-0.23167 22:0.000218617 23:-0.90098 24:-1 
-2 1:-0.973117 2:-0.922691 3:-0.829248 4:-0.613664 5:-0.573705 6:-0.634492 7:-0.911369 8:-0.424337 9:-0.881546 10:-0.677777 11:-1 12:-0.705882 13:-0.881886 14:-0.678708 15:-0.936034 16:-0.761905 17:-0.977271 18:-1 19:-0.934021 20:-0.731978 21:-0.656825 22:0.15846 23:-0.210203 24:-1 
-2 1:-0.535485 2:-0.967173 3:-0.85506 4:-0.4822 5:-0.746972 6:-0.413614 7:-0.655059 8:-0.174868 9:-0.859136 10:-0.338136 11:-0.861685 12:-0.63116 13:-0.808464 14:-0.257556 15:-0.953322 16:-0.629343 17:-0.970513 18:-1 19:-0.880156 20:-0.359399 21:0.147154 22:-0.389704 23:-0.590079 24:-1 
-0.3081603937548313 1:0.0377345 2:-0.098737 3:0.0593935 4:-0.59849 5:-0.901146 6:-0.705556 7:-0.869208 8:-0.560957 9:-0.87554 10:-0.645088 11:-0.930073 12:-0.899403 13:-0.992737 14:-0.962749 15:-0.965882 16:-0.890269 17:-0.992605 18:-0.998889 19:-0.944378 20:0.871419 21:-0.805497 22:-0.805004 23:-0.902124 24:-1 
-2 1:-0.681837 2:-0.966538 3:-0.896037 4:-0.628161 5:-0.942758 6:-0.650611 7:-0.941692 8:-0.489801 9:-0.974024 10:-0.593976 11:-0.982326 12:-0.872441 13:-0.931417 14:-0.929386 15:-0.943102 16:-0.891157 17:-0.997174 18:-0.998889 19:-0.944055 20:0.281955 21:0.637093 22:-0.783899 23:-0.931664 24:-1 
-2 1:-0.558709 2:-0.944573 3:-0.845258 4:-0.803015 5:-0.78511 6:-0.779779 7:-0.597422 8:-0.685098 9:-0.720027 10:-0.755349 11:-0.632289 12:-0.830283 13:-0.822726 14:-0.686294 15:-0.709717 16:-0.842328 17:-0.837123 18:-0.98 19:-0.749337 20:-0.511586 21:-0.109286 22:-0.499137 23:-0.619402 24:-0.842106 
-2 1:-0.593305 2:-0.945492 3:-0.847666 4:-0.903557 5:-0.880207 6:-0.592581 7:-0.563794 8:-0.504346 9:-0.798428 10:-0.674793 11:-0.795537 12:-0.739107 13:-0.723707 14:-0.672758 15:-0.820696 16:-0.835318 17:-0.892725 18:-0.995556 19:-0.898731 20:-0.218645 21:-0.742257 22:-0.372724 23:-0.47247 24:-1 
-2 1:-0.70955 2:-0.950163 3:-0.770798 4:-0.871192 5:-0.913901 6:-0.781835 7:-0.930628 8:-0.63143 9:-0.863542 10:-0.72709 11:-0.994942 12:-0.877667 13:-0.952504 14:-0.773681 15:-0.813454 16:-0.810722 17:-0.97125 18:-0.998889 19:-0.981513 20:-0.0811607 21:-0.0995163 22:-0.567508 23:-0.750902 24:-1 
-1.05051129582087 1:0.634657 2:-0.912548 3:-0.842278 4:-0.878663 5:-0.876981 6:-0.773457 7:-0.667826 8:-0.637264 9:-0.702596 10:-0.812319 11:-0.78529 12:-0.870382 13:-0.862723 14:-0.666306 15:-0.602849 16:-0.897745 17:-0.884228 18:-0.988889 19:-0.826619 20:-0.468484 21:-0.15566 22:-0.11691 23:-0.438976 24:-0.727273 
-2 1:-0.987755 2:-0.994889 3:-0.988491 4:-0.336414 5:-0.601946 6:-0.676402 7:-0.945458 8:-0.379018 9:-0.793465 10:-0.537321 11:-0.825037 12:-0.553544 13:-0.945486 14:-0.633396 15:-0.975398 16:-0.699634 17:-0.979019 18:-1 19:-0.927302 20:0.378204 21:-0.772513 22:-0.695155 23:-0.826948 24:-1 
-2 1:-0.529175 2:-0.151568 3:-0.515314 4:-0.127084 5:-0.177179 6:-0.578611 7:-0.604733 8:-0.51162 9:-0.816681 10:-0.71358 11:-0.905228 12:-0.588235 13:-0.683648 14:-0.832661 15:-0.832725 16:-0.488095 17:-0.76443 18:-0.997778 19:-0.83168 20:0.558169 21:-0.169468 22:-0.646399 23:-0.519563 24:-1 
-2 1:-0.751522 2:-0.934835 3:-0.891818 4:-0.674983 5:-0.690272 6:-0.82608 7:-0.852886 8:-0.662809 9:-0.776712 10:-0.800528 11:-0.860774 12:-0.827731 13:-0.881304 14:-0.655758 15:-0.697548 16:-0.87585 17:-0.926117 18:-0.993333 19:-0.667454 20:-0.473955 21:-0.404915 22:-0.150117 23:-0.340939 24:-1 
-2 1:-0.822671 2:-0.804517 3:-0.842404 4:-0.548869 5:-0.644267 6:-0.624821 7:-1 8:-0.419302 9:-0.8361 10:-0.57037 11:-0.836337 12:-0.84917 13:-0.877427 14:-0.826997 15:-0.920966 16:-0.89011 17:-0.925329 18:-0.998889 19:-0.962728 20:-0.459669 21:-0.650582 22:-0.0499352 23:-0.321758 24:-1 
-2 1:-0.885019 2:-0.737285 3:-0.895632 4:-0.769623 5:-0.830991 6:-0.74288 7:-0.820331 8:-0.585509 9:-0.824549 10:-0.63111 11:-0.759002 12:-0.926572 13:-0.989887 14:-0.943497 15:-0.933767 16:-0.873399 17:-0.969213 18:-0.996667 19:-0.97824 20:0.803747 21:-0.686329 22:-0.889471 23:-0.909414 24:-1 
-2 1:-0.967174 2:-0.951831 3:-0.917938 4:-0.809887 5:-0.981012 6:-0.682498 7:-0.980662 8:-0.495752 9:-0.973447 10:-0.566463 11:-0.973139 12:-0.934224 13:-0.986452 14:-0.902152 15:-0.931963 16:-0.856494 17:-0.976649 18:-0.997778 19:-0.976465 20:0.433971 21:0.743021 22:-0.846886 23:-0.977608 24:-1 
-2 1:-0.938902 2:-0.886524 3:-0.979184 4:-0.714825 5:-0.956067 6:-0.841101 7:-0.639256 8:-0.613836 9:-0.73954 10:-0.57037 11:-0.990024 12:-0.953216 13:-0.929546 14:-0.919207 15:-0.986534 16:-0.873016 17:-0.99043 18:-1 19:-0.991553 20:0.438983 21:-0.13017 22:-0.931497 23:-0.836901 24:-1 
-0.7041872844833985 1:-0.901871 2:-0.894437 3:0.143023 4:-0.743234 5:-0.988709 6:-0.586355 7:-0.781209 8:-0.495037 9:-0.975632 10:-0.491808 11:-0.970756 12:-0.92605 13:-0.981777 14:-0.921054 15:-0.997807 16:-0.746939 17:-0.992207 18:-1 19:-0.983886 20:0.85807 21:-0.915979 22:-0.852168 23:-0.966241 24:-1 
-2 1:-0.786823 2:-0.954745 3:-0.904648 4:-0.405958 5:-0.53182 6:-0.631222 7:-0.749572 8:-0.484228 9:-0.821677 10:-0.54904 11:-0.792475 12:-0.761925 13:-0.827819 14:-0.791882 15:-0.766542 16:-0.719014 17:-0.887679 18:-0.992222 19:-0.770992 20:0.666023 21:-0.565202 22:-0.692052 23:-0.582806 24:-1 
-0.9331257709518734 1:-0.903953 2:-0.889833 3:-0.380186 4:-0.284822 5:-0.188768 6:-0.754662 7:-0.759359 8:-0.662223 9:-0.741713 10:-0.765656 11:-0.856756 12:-0.713253 13:-0.824765 14:-0.966055 15:-0.972218 16:-0.686907 17:-0.857739 18:-0.99 19:-0.730793 20:0.599028 21:-0.599135 22:-0.605593 23:-0.481404 24:-1 
-2 1:-0.979165 2:-0.926667 3:-0.953401 4:-0.608786 5:-0.795354 6:-0.803154 7:-0.955069 8:-0.682995 9:-0.94193 10:-0.779945 11:-0.941159 12:-0.899569 13:-0.904443 14:-0.911841 15:-0.982332 16:-0.864111 17:-0.903311 18:-0.997778 19:-0.976821 20:0.824446 21:-0.814422 22:-0.728345 23:-0.835643 24:-1 
-2 1:-0.781563 2:-0.881228 3:-0.796728 4:-0.670499 5:-0.824752 6:-0.731875 7:-0.746713 8:-0.575733 9:-0.77019 10:-0.70707 11:-0.814394 12:-0.861391 13:-0.856459 14:-0.931068 15:-0.928099 16:-0.876363 17:-0.944502 18:-0.977778 19:-0.713282 20:0.0374296 21:0.126879 22:-0.469266 23:-0.610304 24:-0.857143 
-1.598454224179253 1:-0.941207 2:-0.988727 3:-0.98222 4:-0.795002 5:-0.995628 6:-0.676402 7:-0.949354 8:-0.503827 9:-0.983078 10:-0.631745 11:-1 12:-0.946779 13:-0.995782 14:-0.772418 15:-0.997716 16:-0.945578 17:-1 18:-1 19:-0.975235 20:0.695195 21:-0.988259 22:-0.603102 23:-0.990387 24:-1 
-1.274237395131163 1:-0.82127 2:-0.814693 3:-0.771418 4:-0.766152 5:-0.738858 6:-0.881514 7:-0.757372 8:-0.754732 9:-0.757406 10:-0.848366 11:-0.789512 12:-0.900346 13:-0.720228 14:-0.665477 15:-0.796113 16:-0.892437 17:-0.871407 18:-0.996667 19:-0.874703 20:0.231679 21:-0.121193 22:0.27109 23:-0.0538452 24:-1 
-0.5151166636877968 1:-0.856607 2:-0.654792 3:-0.954747 4:-0.391714 5:-0.828695 6:-0.676402 7:-1 8:-0.162484 9:-0.605154 10:-0.785184 11:-1 12:-0.137256 13:-0.350372 14:-0.156609 15:-0.4403 16:-0.357143 17:-0.704521 18:-1 19:-0.926081 20:0.580557 21:-0.754401 22:0.481469 23:-0.499913 24:-1 
-2 1:-0.715153 2:-0.817456 3:-0.88015 4:-0.53472 5:-0.777569 6:-0.651182 7:-0.759976 8:-0.509495 9:-0.985678 10:-0.555161 11:-0.926559 12:-0.916016 13:-0.910248 14:-0.869209 15:-0.95302 16:-0.797725 17:-0.9624 18:-0.995556 19:-0.838246 20:0.314785 21:0.0359253 22:-0.88651 23:-0.814625 24:-0.400001 
-2 1:-0.847882 2:-0.989761 3:-0.987573 4:-0.501445 5:-0.894443 6:-0.543446 7:-0.889976 8:-0.512374 9:-0.983662 10:-0.644444 11:-1 12:-0.789047 13:-0.987781 14:-0.914138 15:-0.996691 16:-0.778325 17:-0.995297 18:-1 19:-0.964961 20:0.594904 21:-0.998296 22:-0.75777 23:-0.952487 24:-1 
-2 1:-0.810208 2:-0.925064 3:-0.911368 4:-0.606151 5:-0.617518 6:-0.875297 7:-0.913472 8:-0.826035 9:-0.961742 10:-0.868926 11:-0.956726 12:-0.895992 13:-0.949325 14:-0.9499 15:-0.968132 16:-0.879903 17:-0.970529 18:-0.974444 19:-0.593667 20:-0.0663831 21:0.229324 22:-0.564283 23:-0.595286 24:-1 
-0.04426952706876021 1:-0.777003 2:-0.947815 3:-0.692912 4:-0.317268 5:-0.430561 6:1 7:-0.839461 8:0.00179132 9:-0.508302 10:-0.00293223 11:-0.90344 12:0.0521647 13:-0.939829 14:-0.402882 15:-0.721205 16:-0.601078 17:-0.989708 18:-1 19:-0.884432 20:-0.653447 21:-0.741857 22:-0.668908 23:-0.817348 24:-1 
-2 1:-0.738338 2:-0.770678 3:-0.738785 4:-0.901498 5:-0.958078 6:-0.681406 7:-1 8:-0.521066 9:-0.971712 10:-0.615257 11:-0.949078 12:-0.912204 13:-0.931247 14:-0.944853 15:-0.991408 16:-0.846482 17:-0.902299 18:-1 19:-0.987944 20:-0.341838 21:0.196955 22:0.213339 23:-0.589484 24:-1 
-2 1:-0.60812 2:-0.907675 3:-0.970093 4:-0.920232 5:-0.955787 6:-0.753037 7:-0.939225 8:-0.626337 9:-0.966156 10:-0.66857 11:-0.902521 12:-0.939496 13:-0.959504 14:-0.965576 15:-0.997259 16:-0.848979 17:-0.902589 18:-1 19:-0.988242 20:-0.49341 21:0.0424635 22:0.337518 23:-0.403926 24:-1 
-0.1835508420694112 1:-0.659338 2:-0.985803 3:-0.993405 4:-0.637606 5:-0.98087 6:-0.571627 7:-0.933527 8:0.968798 9:-0.444745 10:-0.0534697 11:-0.866728 12:-0.757353 13:-0.878195 14:0.101931 15:-0.655184 16:-0.482143 17:-0.914766 18:-1 19:-0.936502 20:-0.31017 21:-0.50036 22:-0.416386 23:-0.90971 24:-1 
-2 1:-0.788627 2:-0.901937 3:-0.985402 4:-0.518418 5:-0.702532 6:-0.580608 7:-0.817674 8:-0.0371722 9:-0.878162 10:-0.631745 11:-0.902521 12:-0.791597 13:-0.969628 14:-0.60527 15:-1 16:-0.795918 17:-0.976621 18:-1 19:-0.954666 20:0.340128 21:-0.96212 22:-0.438242 23:-0.722141 24:-1 
-0.4296853984836275 1:-0.997395 2:-0.972077 3:-0.989544 4:-0.463616 5:-1 6:-0.697357 7:-0.867054 8:-0.178851 9:-0.940773 10:-0.677777 11:-1 12:-0.897059 13:-0.977854 14:-0.72891 15:-0.988006 16:-0.678571 17:-0.965906 18:-1 19:-0.945931 20:0.377144 21:-0.988693 22:0.434334 23:-0.915632 24:-1 
-0.7651963529153251 1:-0.960678 2:-0.984407 3:-0.983143 4:-0.455498 5:-0.939434 6:-0.732282 7:-0.916438 8:-0.549806 9:-0.932889 10:-0.641974 11:-0.932986 12:-0.803921 13:-0.905848 14:-0.783574 15:-0.952772 16:-0.678571 17:-0.983928 18:-0.998889 19:-0.920787 20:0.188714 21:-0.942451 22:-0.758567 23:-0.889203 24:-1 
-2 1:-0.165559 2:-0.706922 3:-0.639769 4:-0.754438 5:-0.793231 6:-0.845331 7:-0.879204 8:-0.579936 9:-0.768351 10:-0.752136 11:-0.752237 12:-0.918552 13:-0.951127 14:-0.746056 15:-0.757718 16:-0.741758 17:-0.759979 18:-0.987778 19:-0.811741 20:0.0594832 21:-0.225082 22:0.109384 23:-0.318481 24:-0.500001 
-2 1:-0.297012 2:-0.768099 3:-0.755582 4:-0.652315 5:-0.828418 6:-0.781776 7:-0.787527 8:-0.594539 9:-0.802374 10:-0.779046 11:-0.743119 12:-0.854342 13:-0.837699 14:-0.718487 15:-0.71874 16:-0.801361 17:-0.80049 18:-0.986667 19:-0.794802 20:0.228233 21:-0.178633 22:0.0196461 23:-0.317889 24:-0.538463 
-2 1:-0.777125 2:-0.844327 3:-0.865473 4:-0.451283 5:-0.790466 6:-0.698754 7:-0.768427 8:-0.0970236 9:-0.727457 10:-0.57037 11:-0.792366 12:-0.884968 13:-0.886983 14:-0.485933 15:-0.71991 16:-0.403177 17:-0.732761 18:-0.996667 19:-0.744337 20:0.253309 21:-0.034127 22:0.103705 23:-0.684139 24:-1 
-0.06383737629250268 1:0.527469 2:-0.825933 3:-0.689588 4:-0.958691 5:-0.958857 6:-0.872028 7:-0.778635 8:-0.647344 9:-0.60266 10:-0.806134 11:-0.82371 12:-0.966942 13:-0.965524 14:-0.840682 15:-0.814643 16:-0.943802 17:-0.966905 18:-0.991111 19:-0.972935 20:-0.489628 21:-0.230753 22:0.252562 23:-0.0148527 24:-0.333335 
-0.3514119808653106 1:-0.812427 2:-0.841385 3:-0.851466 4:-0.480056 5:-0.636573 6:0.825808 7:-0.298876 8:0.682683 9:-0.801474 10:0.699327 11:-0.542556 12:-0.196847 13:-0.807982 14:0.272602 15:-0.897083 16:-0.321629 17:-0.833912 18:-1 19:-0.896715 20:-0.266671 21:-0.0808583 22:-0.812586 23:-0.802778 24:-1 
-2 1:-0.844036 2:-0.914505 3:-0.913631 4:-0.724937 5:-0.773192 6:-0.637715 7:-0.630582 8:-0.185147 9:-0.413985 10:-0.462961 11:-0.458074 12:-0.861237 13:-0.910747 14:-0.622071 15:-0.755186 16:-0.847985 17:-0.883709 18:-0.998889 19:-0.932189 20:-0.966164 21:-0.869991 22:-0.672616 23:-0.837276 24:-1 
-2 1:-0.553953 2:-0.74107 3:-0.558146 4:-0.787642 5:-0.893545 6:-0.739833 7:-0.874045 8:-0.622849 9:-0.871045 10:-0.698098 11:-0.848172 12:-0.893164 13:-0.934217 14:-0.935163 15:-0.95358 16:-0.901158 17:-0.957 18:-0.996667 19:-0.92136 20:-0.235208 21:-0.341818 22:-0.664536 23:-0.754032 24:-1 
-2 1:-0.986944 2:-0.981446 3:-0.98662 4:-0.71696 5:-0.875447 6:-0.715846 7:-1 8:-0.574515 9:-0.972128 10:-0.696731 11:-1 12:-0.788928 13:-0.994789 14:-0.874791 15:-0.991534 16:-0.764706 17:-0.991978 18:-1 19:-0.92935 20:0.00725889 21:-0.733228 22:-0.816223 23:-0.973388 24:-1 
-2 1:-0.936572 2:-0.951242 3:-0.947174 4:-0.612845 5:-0.765694 6:-0.564642 7:-0.518158 8:-0.347965 9:-0.633362 10:-0.677777 11:-0.89948 12:-0.80719 13:-0.839468 14:-0.71887 15:-0.873914 16:-0.718254 17:-0.885474 18:-0.998889 19:-0.965121 20:0.290229 21:-0.0664916 22:-0.386669 23:-0.123084 24:0.499993 
-0.4909833921615925 1:-0.797089 2:-0.549868 3:-0.332202 4:-0.61524 5:-0.610259 6:-0.591058 7:-0.601814 8:-0.263656 9:-0.495462 10:-0.601615 11:-0.748023 12:-0.670588 13:-0.622903 14:-0.342814 15:-0.621796 16:-0.844156 17:-0.836275 18:-0.996667 19:-0.75717 20:-0.0890727 21:-0.303583 22:0.263119 23:-0.394108 24:-0.250002 
-2 1:-0.612985 2:-0.779715 3:-0.729875 4:-0.727857 5:-0.741644 6:-0.747522 7:-0.696138 8:-0.414419 9:-0.599544 10:-0.804713 11:-0.869907 12:-0.871658 13:-0.898511 14:-0.571612 15:-0.735302 16:-0.878788 17:-0.943538 18:-0.995556 19:-0.881327 20:-0.0187678 21:-0.718403 22:0.130952 23:0.229048 24:-0.400001 
-2 1:-0.644774 2:-0.87534 3:-0.982804 4:-0.53861 5:-0.592111 6:-0.508762 7:-0.75456 8:-0.318589 9:-0.817763 10:-0.752136 11:-0.803166 12:-0.773756 13:-0.986371 14:-0.542776 15:-0.911432 16:-0.901099 17:-0.947548 18:-1 19:-0.927302 20:-0.40884 21:-0.452957 22:0.135806 23:0.19725 24:-1 
-2 1:-0.612859 2:-0.774397 3:-0.682408 4:-0.622084 5:-0.58363 6:-0.805682 7:-0.842368 8:-0.767955 9:-0.881068 10:-0.777581 11:-0.882405 12:-0.843832 13:-0.836411 14:-0.93237 15:-0.930843 16:-0.837457 17:-0.923959 18:-0.986667 19:-0.75252 20:0.448297 21:-0.205503 22:-0.80719 23:-0.759163 24:-1 
-1.755912884106271 1:-0.675122 2:-0.959636 3:-0.60838 4:-0.771164 5:-0.917194 6:-0.757781 7:-0.910774 8:-0.634708 9:-0.937001 10:-0.674649 11:-0.902485 12:-0.882734 13:-0.928644 14:-0.861709 15:-0.903487 16:-0.770689 17:-0.813889 18:-0.998889 19:-0.95923 20:-0.0309605 21:-0.490186 22:-0.681908 23:-0.889281 24:-1 
-2 1:-0.506757 2:-0.775512 3:-0.709076 4:-0.434899 5:-0.374021 6:-0.736007 7:-0.800071 8:-0.521805 9:-0.690246 10:-0.828148 11:-0.818637 12:-0.839651 13:-0.879547 14:-0.722737 15:-0.724621 16:-0.952381 17:-0.952243 18:-0.98 19:-0.313798 20:-0.591061 21:-0.316368 22:-0.351902 23:-0.467001 24:-0.842106 
-1.140101872291845 1:-0.795188 2:-0.955106 3:-0.977368 4:-0.123982 5:0.0113872 6:-0.484403 7:-0.761871 8:-0.0578559 9:-0.307026 10:-0.0672969 11:0.109718 12:-0.16608 13:-0.659134 14:-0.438883 15:-0.675473 16:-0.454619 17:-0.586887 18:-0.998889 19:-0.854008 20:0.640762 21:-0.444945 22:-0.913259 23:-0.846406 24:-1 
-2 1:-0.933442 2:-0.995534 3:-0.957207 4:-0.729285 5:-0.888668 6:-0.594626 7:-0.809768 8:-0.352486 9:-0.942218 10:-0.434145 11:-0.833572 12:-0.781922 13:-0.86172 14:-0.66434 15:-0.882989 16:-0.635308 17:-0.820384 18:-1 19:-0.951257 20:0.597455 21:-0.666788 22:-0.751876 23:-0.855152 24:-1 
-2 1:-0.458448 2:-0.538551 3:-0.901335 4:-0.2771 5:-0.640122 6:-0.685981 7:-0.793403 8:-0.452393 9:-0.693945 10:-0.680846 11:-0.756844 12:-0.713165 13:-0.641329 14:-0.626691 15:-0.638413 16:-0.738775 17:-0.860018 18:-0.996667 19:-0.71056 20:-0.110525 21:-0.0822474 22:-0.301845 23:-0.49435 24:-0.250002 
-1.050274978672767 1:-0.787336 2:-0.46805 3:-0.282489 4:-0.0598927 5:-0.924949 6:-0.362457 7:-0.671261 8:-0.527889 9:-0.724325 10:-0.742222 11:-0.906951 12:-0.401068 13:-0.832492 14:-0.742967 15:-0.88835 16:-0.355846 17:-0.732209 18:-1 19:-0.930412 20:0.158229 21:-0.302428 22:-0.796505 23:-0.924015 24:-1 
-2 1:-0.97359 2:-0.950955 3:-0.944608 4:-0.698079 5:-0.916091 6:-0.760222 7:-0.893643 8:-0.581448 9:-0.952618 10:-0.597221 11:-0.76544 12:-0.929412 13:-0.964566 14:-0.674692 15:-0.947228 16:-0.764286 17:-0.829531 18:-1 19:-0.95943 20:0.80852 21:-0.759485 22:-0.674588 23:-0.949765 24:-1 
-0.6053529530484115 1:-0.945963 2:-0.998789 3:-0.476261 4:-0.815024 5:-0.763226 6:-0.279274 7:-0.77283 8:0.119071 9:-0.829794 10:-0.023945 11:-0.668759 12:-0.556824 13:-0.745424 14:0.0730537 15:-0.813692 16:-0.300971 17:-0.894078 18:-1 19:-0.905267 20:-0.074719 21:-0.671576 22:-0.396894 23:-0.468078 24:-1 
-0.4378244895071686 1:-0.914623 2:-0.949977 3:-0.862981 4:-0.414476 5:-0.998166 6:-0.670249 7:-0.277943 8:0.244104 9:0.517078 10:-0.231395 11:-0.139231 12:-0.848894 13:-0.772441 14:-0.0154911 15:0.176034 16:-0.585845 17:-0.644674 18:-1 19:-0.938756 20:0.582363 21:-0.973708 22:-0.890404 23:-0.444602 24:-1 
-2 1:-0.703281 2:-0.9092 3:-0.819558 4:-0.604505 5:-0.982049 6:-0.47238 7:-0.565521 8:-0.293134 9:-0.735873 10:-0.0950326 11:-0.499122 12:-0.736671 13:-0.886912 14:-0.558394 15:-0.841582 16:-0.6 17:-0.868848 18:-1 19:-0.953449 20:-0.210262 21:0.800045 22:-0.823351 23:-0.778138 24:-1 
-1.90529987421417 1:-0.782447 2:-0.876638 3:-0.983953 4:-0.888897 5:-0.993827 6:-0.497586 7:-0.385493 8:-0.437428 9:-0.705181 10:-0.398516 11:-0.431371 12:-0.644444 13:-0.590538 14:-0.821504 15:-0.846482 16:-0.542857 17:-0.599967 18:-1 19:-0.897496 20:-0.839539 21:-0.572035 22:0.500108 23:-0.914668 24:-1 
-2 1:-0.966484 2:-0.965009 3:-0.993458 4:-0.294188 5:-0.869693 6:-0.640543 7:-0.943125 8:-0.45059 9:-0.949324 10:-0.193581 11:-0.480023 12:-0.794904 13:-0.998105 14:-0.871139 15:-0.86249 16:-0.980137 17:-0.983956 18:-1 19:-0.952322 20:0.949902 21:-0.903072 22:-0.9802 23:-0.93891 24:-1 
-0.3711792855369794 1:-0.684353 2:-0.800686 3:-0.396205 4:-0.754915 5:-0.923062 6:-0.638084 7:-0.567397 8:-0.568357 9:-0.861796 10:-0.791322 11:-0.917159 12:-0.793838 13:-0.793785 14:-0.664938 15:-0.852677 16:-0.882993 17:-0.962717 18:-0.998889 19:-0.94423 20:-0.14977 21:-0.0951811 22:-0.334081 23:-0.272435 24:-1 
-2 1:-0.995938 2:-0.988801 3:-0.982882 4:-0.89902 5:-0.970328 6:-0.412967 7:-0.442892 8:0.124306 9:-0.605154 10:-0.498764 11:-0.607375 12:-0.951447 13:-0.988751 14:-0.732257 15:-0.87816 16:-0.573696 17:-0.887437 18:-1 19:-0.969185 20:0.170599 21:-0.979264 22:-0.229607 23:-0.680354 24:-1 
-2 1:-0.991768 2:-1 3:-0.981925 4:-0.748039 5:-0.960543 6:-0.575818 7:-0.645476 8:-0.162484 9:-0.905237 10:-0.505925 11:-0.857843 12:-0.937255 13:-0.988189 14:-0.783128 15:-0.964819 16:-0.347617 17:-0.931812 18:-1 19:-0.942491 20:0.210392 21:-0.570179 22:-0.312705 23:-0.967823 24:-1 
-1.073747731528663 1:0.0142122 2:0.402329 3:-0.185067 4:-0.816925 5:-0.766651 6:-0.825696 7:-0.591572 8:-0.717067 9:-0.746636 10:-0.88327 11:-0.908057 12:-0.897891 13:-0.784787 14:-0.744179 15:-0.75766 16:-0.942857 17:-0.958053 18:-0.991111 19:-0.830498 20:-0.125836 21:0.0141597 22:0.157392 23:-0.0488897 24:-1 
-2 1:-0.0217489 2:-0.610384 3:-0.30788 4:-0.711583 5:-0.722336 6:-0.65668 7:-0.582319 8:-0.389678 9:-0.525132 10:-0.78338 11:-0.818673 12:-0.829955 13:-0.834854 14:-0.546413 15:-0.709815 16:-0.903962 17:-0.941385 18:-0.994444 19:-0.799971 20:0.0360756 21:0.210369 22:0.135768 23:-0.278305 24:-0.500001 
-1.211650268602889 1:-0.814746 2:-0.826991 3:-0.863908 4:-0.175024 5:-0.569423 6:-0.36507 7:-0.240307 8:-0.28406 9:-0.864624 10:-0.631745 11:-0.756302 12:-0.613445 13:-0.620348 14:-0.437739 15:-0.766981 16:-0.795918 17:-0.961036 18:-1 19:-0.787694 20:-0.0880264 21:-0.774442 22:0.06976 23:-0.521944 24:-1 
-0.09069229074328343 1:-0.434412 2:0.424324 3:-0.564297 4:-0.486955 5:-0.624403 6:-0.660436 7:-0.809001 8:-0.327702 9:-0.760274 10:-0.877248 11:-0.867347 12:-0.753501 13:-0.80712 14:-0.530811 15:-0.743123 16:-0.900227 17:-0.935204 18:-0.998889 19:-0.792231 20:0.177082 21:0.203148 22:0.218104 23:-0.379633 24:-1 
-0.2006251112468064 1:-0.685126 2:0.565036 3:0.139066 4:-0.615216 5:-0.767248 6:-0.676402 7:-0.7829 8:-0.596177 9:-0.867933 10:-0.731481 11:-0.743723 12:-0.848039 13:-0.901233 14:-0.568264 15:-0.745797 16:-0.869047 17:-0.934716 18:-0.997778 19:-0.728898 20:-0.021592 21:-0.292699 22:0.283494 23:-0.627596 24:-1 
-0.4628172396934558 1:-0.881164 2:-0.986683 3:-0.963008 4:-0.804372 5:-0.988967 6:-0.71207 7:-0.909483 8:-0.587296 9:-0.889107 10:-0.725768 11:-0.854818 12:-0.874844 13:-0.962304 14:-0.617184 15:-0.746859 16:-0.604863 17:-0.715643 18:-1 19:-0.886549 20:-0.240555 21:-0.305659 22:-0.202543 23:-0.947134 24:-1 
-2 1:-0.540409 2:-0.930043 3:-0.940794 4:-0.948644 5:-0.97346 6:-0.428911 7:-0.527073 8:-0.58316 9:-0.90008 10:-0.679273 11:-0.910064 12:-0.759681 13:-0.808538 14:-0.916172 15:-0.978172 16:-0.933678 17:-0.986166 18:-0.998889 19:-0.98195 20:-0.291474 21:-0.644038 22:-0.645718 23:-0.799289 24:-1 
-2 1:-0.900509 2:-0.926117 3:-0.981148 4:-0.423792 5:-0.926548 6:-0.722969 7:-0.852611 8:-0.580721 9:-0.753458 10:-0.701646 11:-0.809145 12:-0.845316 13:-0.963761 14:-0.79473 15:-0.782689 16:-0.653439 17:-0.762472 18:-0.998889 19:-0.922552 20:0.841426 21:-0.772549 22:-0.776712 23:-0.8899 24:-1 
-1.623983618213494 1:0.292453 2:-0.190309 3:-0.753311 4:-0.911406 5:-0.957482 6:-0.76607 7:-0.682284 8:-0.602458 9:-0.853195 10:-0.782686 11:-0.850571 12:-0.894665 13:-0.890464 14:-0.804797 15:-0.92424 16:-0.930233 17:-0.980708 18:-0.997778 19:-0.95341 20:-0.138726 21:0.347725 22:0.0902133 23:-0.582852 24:-1 
-1.158419179638008 1:-0.697227 2:-0.795543 3:-0.930584 4:-0.546309 5:-0.754405 6:-0.756231 7:-0.904501 8:-0.651898 9:-0.943719 10:-0.877248 11:-0.867347 12:-0.820728 13:-0.832394 14:-0.739907 15:-0.934956 16:-0.918367 17:-0.957581 18:-0.998889 19:-0.848191 20:0.172008 21:-0.508801 22:0.175951 23:-0.460155 24:-1 
-2 1:-0.971255 2:-0.958679 3:-0.962455 4:-0.661129 5:-0.890979 6:-0.760222 7:-0.848061 8:-0.585655 9:-0.890007 10:-0.677777 11:-0.939075 12:-0.915967 13:-0.962035 14:-0.905334 15:-0.982866 16:-0.75 17:-0.985388 18:-1 19:-0.97429 20:0.307407 21:-0.364848 22:-0.55348 23:-0.822208 24:-1 
-1.114323776432833 1:-0.950815 2:-0.949696 3:-0.985058 4:-0.633486 5:-0.99924 6:-0.760222 7:-1 8:-0.620726 9:-1 10:-0.657638 11:-0.76011 12:-0.919118 13:-0.988927 14:-0.949798 15:-0.952026 16:-0.848214 17:-0.940336 18:-1 19:-0.98861 20:0.101088 21:-0.582908 22:0.239186 23:0.453869 24:-1 
-2 1:-0.808065 2:-0.993488 3:-0.9478 4:-0.77514 5:-0.938855 6:-0.624821 7:-0.563664 8:-0.227948 9:-0.343945 10:-0.372079 11:-0.300149 12:-0.879336 13:-0.918228 14:-0.744614 15:-0.89175 16:-0.765568 17:-0.783199 18:-1 19:-0.965579 20:-0.323019 21:0.328062 22:-0.327348 23:-0.713281 24:-1 
-2 1:-0.29456 2:-0.865234 3:-0.828455 4:-0.894269 5:-0.988674 6:-0.672048 7:-0.889499 8:-0.646231 9:-0.950772 10:-0.71544 11:-0.977846 12:-0.877769 13:-0.972389 14:-0.931152 15:-0.997508 16:-0.959184 17:-0.989373 18:-1 19:-0.977847 20:0.186143 21:0.0650648 22:0.0883109 23:-0.479127 24:-1 
-2 1:-0.836588 2:-0.96816 3:-0.893595 4:-0.747089 5:-0.88247 6:-0.676402 7:-0.842807 8:-0.518262 9:-0.83779 10:-0.757165 11:-0.930073 12:-0.856777 13:-0.954645 14:-0.715959 15:-0.88273 16:-0.933747 17:-0.98521 18:-0.998889 19:-0.972341 20:0.307222 21:-0.434489 22:-0.0300305 23:-0.530832 24:-1 
-1.859437215382312 1:-0.807695 2:-0.846306 3:-0.591227 4:-0.321428 5:-0.337574 6:-0.470075 7:-0.509122 8:-0.469656 9:-0.854211 10:-0.405127 11:-0.737556 12:-0.638009 13:-0.890972 14:-0.505705 15:-0.911432 16:-0.648351 17:-0.958038 18:-1 19:-0.937075 20:-0.166859 21:-0.570091 22:0.558424 23:-0.213641 24:-1 
-2 1:-0.614061 2:-0.966829 3:-0.946461 4:-0.396113 5:-0.916104 6:-0.714501 7:-0.675698 8:-0.553777 9:-0.708105 10:-0.751009 11:-0.692882 12:-0.323529 13:-0.776713 14:-0.529015 15:-0.912665 16:-0.905844 17:-0.90145 18:-0.997778 19:-0.747064 20:0.466473 21:-0.727701 22:-0.636221 23:-0.891848 24:-1 
-1.875712412210421 1:-0.3789 2:-0.867318 3:-0.82629 4:-0.121658 5:-0.493231 6:-0.691303 7:-0.812901 8:-0.683279 9:-0.905807 10:-0.627653 11:-0.88079 12:-0.311548 13:-0.680846 14:-0.660857 15:-0.689531 16:-0.276189 17:-0.735216 18:-0.991111 19:-0.285566 20:0.0173796 21:-0.046921 22:-0.605831 23:-0.629209 24:-1 
-2 1:-0.880364 2:-0.913222 3:-0.983193 4:-0.809489 5:-0.995544 6:-0.591384 7:-0.946822 8:-0.526738 9:-0.998308 10:-0.43611 11:-0.680146 12:-0.742857 13:-0.987345 14:-0.593794 15:-0.998629 16:-0.673469 17:-0.838298 18:-1 19:-0.97531 20:-0.597769 21:-0.180028 22:-0.795816 23:-0.883731 24:-1 
-0.00479218199649496 1:-0.98221 2:-0.476576 3:-0.532002 4:-0.588742 5:-0.884768 6:-0.452881 7:-0.290954 8:-0.198855 9:-0.438438 10:-0.665843 11:-0.684095 12:-0.843137 13:-0.868762 14:-0.506162 15:-0.623312 16:-0.798942 17:-0.868676 18:-1 19:-0.938432 20:-0.0455741 21:-0.267219 22:0.0702203 23:-0.447145 24:-1 
-0.2598515422727813 1:-0.992019 2:-0.939542 3:-0.882474 4:-0.667641 5:-0.740659 6:-0.734209 7:-0.853301 8:-0.417565 9:-0.934646 10:-0.688888 11:-0.941176 12:-0.853955 13:-0.926688 14:-0.66763 15:-0.880891 16:-0.881773 17:-0.98119 18:-1 19:-0.90801 20:0.00996003 21:0.470419 22:0.115934 23:-0.530626 24:-1 
-0.6689308664373407 1:-0.41171 2:-0.9647 3:-0.985517 4:-0.682091 5:-0.800185 6:-0.641109 7:-0.888045 8:-0.269292 9:-0.850374 10:-0.592982 11:-1 12:-0.789474 13:-0.906752 14:-0.467333 15:-0.888901 16:-0.759398 17:-0.971289 18:-1 19:-0.94029 20:0.292766 21:-0.94783 22:0.555097 23:-0.868694 24:-1 
-2 1:-0.755664 2:-0.905434 3:-0.816612 4:-0.859861 5:-0.948186 6:-0.630157 7:-0.779952 8:-0.404022 9:-0.7876 10:-0.822222 11:-1 12:-0.821501 13:-0.951125 14:-0.700866 15:-0.854423 16:-0.901478 17:-1 18:-1 19:-0.973722 20:0.468368 21:-0.897803 22:0.776115 23:-0.518554 24:-1 
-2 1:-0.951276 2:-0.970772 3:-0.970977 4:-0.712115 5:-0.766647 6:-0.636623 7:-0.855787 8:-0.427664 9:-0.903631 10:-0.475704 11:-0.710866 12:-0.79661 13:-0.957959 14:-0.621528 15:-0.964222 16:-0.719129 17:-0.981508 18:-1 19:-0.958111 20:0.0793417 21:-0.309071 22:-0.531165 23:-0.458975 24:-1 
-2 1:-0.422621 2:-0.812451 3:-0.766418 4:-0.791863 5:-0.818128 6:-0.800934 7:-0.62964 8:-0.709257 9:-0.827498 10:-0.860881 11:-0.920408 12:-0.835668 13:-0.757377 14:-0.727667 15:-0.835792 16:-0.93288 17:-0.976004 18:-0.994444 19:-0.920787 20:-0.0228571 21:0.148805 22:0.108995 23:0.0158438 24:-0.500001 
-2 1:-0.33009 2:-0.899302 3:-0.693211 4:-0.756291 5:-0.877487 6:-0.689297 7:-0.75456 8:-0.47973 9:-0.757017 10:-0.686039 11:-0.97813 12:-0.846154 13:-0.868258 14:-0.635456 15:-0.908971 16:-0.728938 17:-0.832154 18:-1 19:-0.964764 20:0.405961 21:0.202614 22:-0.278706 23:-0.996764 24:-1 
-2 1:-0.545036 2:-0.905046 3:-0.693369 4:-0.792381 5:-0.795052 6:-0.834325 7:-0.782119 8:-0.629383 9:-0.628221 10:-0.86322 11:-0.850016 12:-0.913566 13:-0.903455 14:-0.745065 15:-0.740589 16:-0.919301 17:-0.926025 18:-0.974444 19:-0.811028 20:0.231426 21:0.0045234 22:0.0549991 23:-0.32062 24:-0.625002 
-0.9675258001633075 1:-0.328208 2:-0.915616 3:-0.816628 4:-0.758315 5:-0.742169 6:-0.69993 7:-0.89971 8:-0.570195 9:-0.892936 10:-0.82664 11:-0.832772 12:-0.830753 13:-0.829413 14:-0.667434 15:-0.752818 16:-0.948204 17:-0.970032 18:-0.995556 19:-0.933603 20:0.132537 21:0.572559 22:-0.105874 23:-0.343841 24:-0.400001 
-0.8874277326572437 1:-0.470158 2:-0.880094 3:-0.677406 4:-0.529816 5:-0.607534 6:-0.766875 7:-0.556617 8:-0.705931 9:-0.851263 10:-0.836331 11:-0.911565 12:-0.858077 13:-0.902365 14:-0.777306 15:-0.880174 16:-0.891157 17:-0.947728 18:-0.994444 19:-0.896084 20:0.465325 21:-0.0322737 22:-0.00158498 23:-0.250755 24:-0.500001 
-2 1:-0.868379 2:-0.882408 3:-0.988141 4:-0.653504 5:-0.804606 6:-0.772196 7:-0.898708 8:-0.489801 9:-1 10:-0.815873 11:-0.918767 12:-0.876751 13:-0.983127 14:-0.824054 15:-0.917758 16:-0.891157 17:-0.974024 18:-1 19:-0.887514 20:0.0382297 21:-0.281653 22:0.413359 23:-0.486655 24:-1 
-2 1:-0.555257 2:-0.89611 3:-0.984807 4:-0.116114 5:-0.969181 6:-0.564642 7:-0.527303 8:-0.402514 9:-0.631477 10:-0.71358 11:-0.810457 12:-0.555556 13:-0.566915 14:-0.750106 15:-0.850746 16:-0.682539 17:-0.787861 18:-1 19:-0.827269 20:-0.40302 21:0.1214 22:-0.422383 23:-0.554413 24:-1 
-2 1:0.0300779 2:-0.799651 3:-0.735979 4:-0.699608 5:-0.933824 6:-0.730638 7:-0.836789 8:-0.549311 9:-0.880754 10:-0.603682 11:-0.956755 12:-0.962672 13:-0.96342 14:-0.887033 15:-0.920251 16:-0.875478 17:-0.974713 18:-0.977778 19:-0.842319 20:0.616691 21:-0.470618 22:-0.798399 23:-0.915966 24:-0.857143 
-0.1731801495828918 1:-0.386202 2:-0.332042 3:-0.89553 4:-0.140436 5:-0.365938 6:-0.444284 7:-0.591845 8:-0.409231 9:-0.940482 10:-0.735612 11:-0.876283 12:-0.782806 13:-0.882236 14:-0.423323 15:-0.886083 16:-0.296703 17:-0.842994 18:-0.998889 19:-0.839349 20:-0.542782 21:0.104915 22:0.180086 23:0.0694949 24:-1 
-2 1:-0.982294 2:-0.949712 3:-0.941272 4:-0.459913 5:-0.667009 6:-0.815574 7:-0.902605 8:-0.675072 9:-0.893011 10:-0.805451 11:-0.935627 12:-0.853496 13:-0.861308 14:-0.574642 15:-0.896452 16:-0.827493 17:-0.947183 18:-0.995556 19:-0.717237 20:0.745833 21:-0.748281 22:-0.687592 23:-0.711494 24:-1 
-1.181023562768036 1:-0.730051 2:-0.93518 3:-0.963406 4:-0.493119 5:-0.883833 6:-0.794203 7:-0.972899 8:-0.641957 9:-0.957314 10:-0.612946 11:-0.870605 12:-0.911676 13:-0.980611 14:-0.49153 15:-0.810912 16:-0.21836 17:-0.776684 18:-0.992222 19:-0.401595 20:-0.435503 21:-0.789385 22:-0.826256 23:-0.961544 24:-1 
-2 1:-0.0146102 2:-0.890539 3:-0.891698 4:-0.610742 5:-0.712374 6:-0.559054 7:-0.474329 8:-0.481851 9:-0.764328 10:-0.443014 11:-0.767846 12:-0.730252 13:-0.807635 14:-0.713706 15:-0.696456 16:-0.804082 17:-0.868391 18:-0.994444 19:-0.834768 20:0.0797042 21:-0.211579 22:-0.682956 23:-0.705698 24:-0.500001 
-2 1:-0.754986 2:-0.894389 3:-0.849328 4:-0.467555 5:-0.749987 6:-0.666822 7:-1 8:-0.519727 9:-0.945849 10:-0.705397 11:-1 12:-0.751261 13:-0.888635 14:-0.848534 15:-0.983552 16:-0.738775 17:-0.937657 18:-1 19:-0.953758 20:0.296589 21:0.11052 22:-0.713981 23:-0.742838 24:-1 
-2 1:-0.537677 2:-0.820721 3:-0.554602 4:-0.86716 5:-0.932078 6:-0.581198 7:-0.714463 8:-0.499499 9:-0.983455 10:-0.639323 11:-0.960288 12:-0.835391 13:-0.748411 14:-0.964301 15:-0.982271 16:-0.990594 17:-0.996825 18:-0.998889 19:-0.984309 20:0.269762 21:-0.47352 22:-0.298982 23:-0.733257 24:-1 
-0.5263065337227945 1:-0.952452 2:-0.871242 3:-0.848697 4:-0.657418 5:-0.543722 6:-0.70035 7:-0.928376 8:-0.499153 9:-0.984046 10:-0.662433 11:-0.94256 12:-0.736695 13:-0.75519 14:-0.690183 15:-0.931924 16:-0.918367 17:-0.957914 18:-0.998889 19:-0.907932 20:-0.399861 21:0.221244 22:0.13392 23:-0.0279241 24:-1 
-1.760923456708809 1:-0.548096 2:-0.941379 3:-0.893824 4:-0.375971 5:-0.944251 6:-0.66484 7:-1 8:-0.503344 9:-0.986115 10:-0.585184 11:-0.986135 12:-0.845842 13:-0.99136 14:-0.971379 15:-0.993202 16:-0.817734 17:-0.99616 18:-0.998889 19:-0.92964 20:0.957739 21:-0.956742 22:-0.937532 23:-0.981235 24:-1 
-2 1:-0.906223 2:-0.937546 3:-0.910584 4:-0.626962 5:-0.93157 6:-0.584962 7:-0.871082 8:-0.561212 9:-0.913852 10:-0.726599 11:-0.948306 12:-0.422461 13:-0.323529 14:-0.839354 15:-0.947664 16:-0.904762 17:-0.991735 18:-1 19:-0.909238 20:-0.745183 21:-0.8629 22:-0.0520856 23:-0.467459 24:-1 
-1.223810580015201 1:-0.645391 2:-0.708683 3:-0.727423 4:-0.179655 5:-0.452321 6:-0.475234 7:-0.65264 8:-0.0970236 9:-0.384243 10:-0.828148 11:-0.886274 12:-0.317647 13:-0.586432 14:-0.443095 15:-0.655889 16:-0.761905 17:-0.88865 18:-0.996667 19:-0.727574 20:-0.279972 21:0.187764 22:0.255173 23:-0.426354 24:-1 
-0.6146809575388992 1:-0.853647 2:-0.0814521 3:-0.233444 4:-0.41572 5:-0.717306 6:-0.659638 7:-0.680929 8:-0.502892 9:-0.810474 10:-0.871111 11:-0.829411 12:-0.752941 13:-0.87598 14:-0.863451 15:-0.875266 16:-0.985714 17:-0.986362 18:-1 19:-0.935609 20:-0.0150136 21:0.841987 22:-0.38184 23:-0.316475 24:-1 
-2 1:-0.871841 2:-0.701062 3:-0.757666 4:-0.652861 5:-0.932328 6:-0.571627 7:-0.867054 8:-0.497983 9:-0.940773 10:-0.758333 11:-0.893382 12:-0.794118 13:-0.955707 14:-0.769071 15:-0.952026 16:-0.928571 17:-0.982953 18:-1 19:-0.945931 20:0.340327 21:-0.452479 22:0.123779 23:-0.751772 24:-1 
-0.4643777245291573 1:-0.77398 2:-0.749489 3:-0.94285 4:-0.293003 5:-0.680695 6:-0.420011 7:0.00100614 8:0.101294 9:-0.115078 10:-0.545097 11:-0.799307 12:-0.792388 13:-0.687345 14:-0.102272 15:-0.198543 16:-0.739496 17:-0.879669 18:-1 19:-0.884978 20:0.408895 21:-0.938506 22:-0.500718 23:-0.73468 24:-1 
-1.385737922773407 1:-0.88455 2:-0.813951 3:-0.878549 4:-0.579819 5:-0.995567 6:-0.819075 7:-0.683192 8:-0.261377 9:-0.879026 10:-0.424111 11:-0.745932 12:-0.884856 13:-0.871834 14:-0.278803 15:-0.857098 16:-0.458967 17:-0.564761 18:-1 19:-0.88317 20:0.336381 21:-0.691843 22:-0.436774 23:-0.80949 24:-1 
-1.921020914149761 1:-0.260442 2:-0.994719 3:-0.959027 4:-0.573875 5:-0.9635 6:-0.828802 7:-0.92265 8:-0.499322 9:-0.586488 10:-0.742222 11:-0.782887 12:-0.918717 13:-0.916246 14:-0.637817 15:-0.658073 16:-0.807792 17:-0.94545 18:-1 19:-0.906158 20:0.447073 21:-0.556165 22:-0.48766 23:-0.650687 24:-1 
-2 1:-0.957085 2:-0.951222 3:-0.984333 4:-0.430961 5:-0.978137 6:-0.767999 7:-0.856619 8:-0.632873 9:-0.848496 10:-0.720961 11:-0.876895 12:-0.805943 13:-0.704715 14:-0.781389 15:-0.996043 16:-0.779087 17:-0.79054 18:-0.997778 19:-0.941634 20:0.945355 21:-0.953374 22:-0.895006 23:-0.984456 24:-1 
-1.807690057260821 1:-0.808381 2:-0.977054 3:-0.833973 4:-0.52713 5:-0.333398 6:-0.534492 7:-0.379294 8:-0.121989 9:-0.519309 10:-0.484443 11:-0.67634 12:-0.783311 13:-0.771299 14:-0.345461 15:-0.669753 16:-0.561462 17:-0.739395 18:-0.996667 19:-0.789804 20:-0.410495 21:0.171085 22:-0.320266 23:-0.288008 24:-1 
-2 1:-0.366016 2:-0.9615 3:-0.698022 4:-0.641254 5:-0.698088 6:-0.733879 7:-0.842426 8:-0.471097 9:-0.969561 10:-0.61947 11:-0.936037 12:-0.929412 13:-0.889792 14:-0.850829 15:-0.890321 16:-0.915646 17:-0.992653 18:-0.998889 19:-0.929711 20:0.411903 21:0.146292 22:-0.841454 23:-0.789911 24:-1 
-2 1:-0.924588 2:-0.908124 3:-0.966327 4:-0.486162 5:-0.972449 6:-0.713073 7:-0.800581 8:-0.462696 9:-0.86859 10:-0.506597 11:-0.66682 12:-0.704044 13:-0.731475 14:-0.472882 15:-0.892058 16:-0.573661 17:-0.865756 18:-1 19:-0.871492 20:0.225826 21:0.0710181 22:-0.954519 23:-0.938116 24:-1 
-2 1:-0.577614 2:-0.848218 3:-0.848985 4:-0.493968 5:-0.748475 6:-0.445073 7:-0.323317 8:-0.536683 9:-0.696291 10:-0.636972 11:-0.851247 12:-0.674287 13:-0.770737 14:-0.699753 15:-0.78005 16:-0.840299 17:-0.890826 18:-0.997778 19:-0.865263 20:0.194082 21:-0.185484 22:-0.943636 23:-0.888712 24:-1 
-1.030254265432602 1:-0.210441 2:-0.367194 3:-0.900203 4:-0.29512 5:-0.792834 6:-0.441205 7:-0.460279 8:-0.380369 9:-1 10:-0.307461 11:-0.898156 12:-0.587357 13:-0.907448 14:-0.255515 15:-0.795214 16:-0.501066 17:-0.979646 18:-1 19:-0.813495 20:0.23996 21:-0.783209 22:-0.933486 23:-0.984213 24:-1 
-2 1:-0.579091 2:-0.876827 3:-0.856989 4:-0.458719 5:-0.705179 6:-0.771561 7:-0.863648 8:-0.65719 9:-0.839483 10:-0.753846 11:-0.750843 12:-0.831487 13:-0.861251 14:-0.861086 15:-0.827398 16:-0.74839 17:-0.766202 18:-0.987778 19:-0.683493 20:-0.204989 21:0.0992811 22:-0.341506 23:-0.612577 24:-0.750001 
-2 1:-0.790469 2:-0.926298 3:-0.888094 4:-0.511028 5:-0.865961 6:-0.743999 7:-0.322674 8:-0.71892 9:-0.807917 10:-0.85448 11:-0.880068 12:-0.772296 13:-0.728302 14:-0.873038 15:-0.841846 16:-0.889401 17:-0.950229 18:-0.993333 19:-0.750371 20:0.0548126 21:-0.321581 22:-0.299512 23:-0.73187 24:-1 
-0.3976883755166414 1:-0.879335 2:-0.986275 3:-0.896934 4:-0.281309 5:-0.438809 6:-0.592581 7:-0.822738 8:-0.391607 9:-0.881546 10:-0.176541 11:-0.289213 12:-0.437911 13:-0.586601 14:-0.611773 15:-0.685501 16:-0.595238 17:-0.689368 18:-1 19:-0.775216 20:-0.600258 21:-0.287759 22:-0.601587 23:-0.842587 24:-1 
-2 1:-0.621913 2:-0.474206 3:-0.797464 4:-0.838469 5:-0.912942 6:-0.567241 7:-0.653721 8:-0.100068 9:-0.294787 10:-0.490438 11:-0.484266 12:-0.660739 13:-0.785746 14:-0.622668 15:-0.727773 16:-0.647841 17:-0.689192 18:-1 19:-0.960427 20:-0.261009 21:-0.232594 22:0.271548 23:-0.994019 24:-1 
-2 1:0.103688 2:-0.564348 3:-0.571958 4:-0.717508 5:-0.764878 6:-0.522654 7:-0.289408 8:-0.337898 9:-0.713866 10:-0.596479 11:-0.760166 12:-0.867403 13:-0.779252 14:-0.686696 15:-0.739811 16:-0.779531 17:-0.811471 18:-0.995556 19:-0.888091 20:-0.269564 21:0.330457 22:-0.84525 23:-0.841368 24:-1 
-0.3104246718737037 1:-0.124462 2:-0.648359 3:-0.620102 4:-0.555311 5:-0.831381 6:-0.796931 7:-0.940496 8:-0.571986 9:-0.684156 10:-0.760097 11:-0.955538 12:-0.657364 13:-0.792363 14:-0.632975 15:-0.64822 16:-0.802919 17:-0.856729 18:-0.997778 19:-0.872875 20:0.0650838 21:0.192678 22:-0.852715 23:-0.821702 24:-2.79398e-06 
-2 1:-0.992291 2:-0.877666 3:-0.896826 4:-0.542145 5:-0.9709 6:-0.743458 7:-0.810921 8:-0.629454 9:-0.831532 10:-0.71358 11:-0.848366 12:-0.879738 13:-0.992126 14:-0.971441 15:-0.974414 16:-0.866667 17:-0.993939 18:-1 19:-0.978663 20:0.179503 21:-0.469297 22:-0.575128 23:-0.854712 24:-1 
-0.06954065142307174 1:-0.0384648 2:-0.891075 3:-0.808249 4:-0.695011 5:-0.890351 6:-0.713029 7:-0.834019 8:-0.164134 9:-0.615923 10:-0.675069 11:-0.882176 12:-0.864228 13:-0.923631 14:-0.247618 15:-0.627884 16:-0.835134 17:-0.939842 18:-0.994444 19:-0.706556 20:0.174586 21:-0.385464 22:-0.366657 23:-0.457615 24:-2.79398e-06 
-2 1:-0.65306 2:-0.935402 3:-0.859704 4:-0.602092 5:-0.765533 6:-0.767086 7:-0.758351 8:-0.537881 9:-0.652257 10:-0.766529 11:-0.827951 12:-0.843527 13:-0.833599 14:-0.588618 15:-0.636628 16:-0.771712 17:-0.782445 18:-0.987778 19:-0.708364 20:-0.176973 21:-0.0960638 22:-0.154804 23:-0.574445 24:-1 
-0.2991982033674824 1:-0.291004 2:-0.935889 3:-0.906795 4:-0.770771 5:-0.800888 6:-0.824448 7:-0.750182 8:-0.753352 9:-0.804613 10:-0.905146 11:-0.906007 12:-0.845175 13:-0.865817 14:-0.739211 15:-0.871331 16:-0.961657 17:-0.986642 18:-0.99 19:-0.777106 20:-0.271533 21:-0.0724496 22:0.103898 23:-0.283101 24:-1 
-2 1:-0.284103 2:-0.467797 3:-0.603295 4:-0.554067 5:-0.689152 6:-0.806044 7:-0.883444 8:-0.727212 9:-0.895129 10:-0.885432 11:-0.922681 12:-0.633987 13:-0.670739 14:-0.58732 15:-0.839405 16:-0.883175 17:-0.887114 18:-0.992222 19:-0.407106 20:-0.230975 21:-0.0701087 22:0.0248425 23:-0.561713 24:-1 
-2 1:-0.697972 2:-0.901668 3:-0.838738 4:-0.961197 5:-0.981702 6:-0.576865 7:-0.643579 8:-0.299548 9:-0.694044 10:-0.583795 11:-0.738237 12:-0.8125 13:-0.807754 14:-0.912147 15:-0.919974 16:-0.964286 17:-0.989369 18:-0.997778 19:-0.951887 20:-0.0491573 21:-0.632738 22:0.478871 23:-0.684555 24:-1 
-1.026890805981801 1:-0.461098 2:-0.826139 3:-0.919597 4:-0.36125 5:-0.867828 6:-0.0176748 7:0.351359 8:-0.0107658 9:-0.916385 10:-0.438953 11:-0.7391 12:-0.396541 13:-0.824913 14:-0.1911 15:-0.453656 16:-0.364709 17:-0.457708 18:-1 19:-0.714777 20:0.646198 21:-0.873127 22:-0.88981 23:-0.891888 24:-1 
-2 1:-0.844527 2:-0.943361 3:-0.992814 4:-0.558931 5:-0.856151 6:-0.718311 7:-1 8:-0.293412 9:-0.644638 10:-0.516665 11:-0.786764 12:-0.867647 13:-0.963089 14:-0.789152 15:-0.836088 16:-0.738095 17:-0.863625 18:-1 19:-0.892335 20:0.466227 21:-0.994425 22:-0.614847 23:-0.844856 24:-1 
-2 1:-0.438046 2:-0.83059 3:-0.554687 4:-0.691969 5:-0.699837 6:-0.730047 7:-0.82719 8:-0.353637 9:-0.499324 10:-0.626221 11:-0.853254 12:-0.854118 13:-0.874921 14:-0.644973 15:-0.703246 16:-0.78 17:-0.898825 18:-0.996667 19:-0.926081 20:-0.425095 21:-0.419226 22:-0.124833 23:-0.327059 24:-1 
-2 1:-0.49254 2:-0.883707 3:-0.912888 4:-0.840833 5:-0.768182 6:-0.630803 7:-0.723432 8:-0.520175 9:-0.792739 10:-0.603021 11:-0.832487 12:-0.915137 13:-0.909069 14:-0.914858 15:-0.912404 16:-0.947048 17:-0.974378 18:-0.968889 19:-0.829527 20:-0.347199 21:-0.0883811 22:-0.450694 23:-0.411377 24:-0.896552 
-1.31414590971598 1:-0.866599 2:-0.922302 3:-0.959183 4:-0.744354 5:-0.709814 6:-0.696929 7:-0.713502 8:-0.46308 9:-0.936183 10:-0.73696 11:-1 12:-0.871949 13:-0.85425 14:-0.728978 15:-0.868573 16:-0.82896 17:-0.949937 18:-0.998889 19:-0.962703 20:-0.639278 21:0.0404628 22:-0.134359 23:-0.407946 24:-1 
-2 1:-0.804007 2:-0.941822 3:-0.916257 4:-0.667241 5:-0.715188 6:-0.614819 7:-0.527992 8:-0.420331 9:-0.648327 10:-0.614209 11:-0.621467 12:-0.785514 13:-0.774596 14:-0.578166 15:-0.753444 16:-0.817298 17:-0.869432 18:-0.998889 19:-0.947795 20:-0.298968 21:-0.626507 22:-0.320073 23:-0.46344 24:-1 
-2 1:-0.923997 2:-0.948062 3:-0.903165 4:-0.734343 5:-0.817919 6:-0.741595 7:-0.859344 8:-0.624362 9:-0.880736 10:-0.677777 11:-0.878674 12:-0.843137 13:-0.860184 14:-0.797705 15:-0.845999 16:-0.78836 17:-0.899742 18:-0.997778 19:-0.953725 20:-0.425354 21:-0.361293 22:-0.25429 23:-0.706095 24:-2.79398e-06 
-0.09322248748429117 1:-0.512252 2:0.169646 3:0.885801 4:-0.630794 5:-0.735304 6:-0.618594 7:-0.579348 8:-0.444651 9:-0.92941 10:-0.762962 11:-0.853268 12:-0.843137 13:-0.878085 14:-0.660244 15:-0.975045 16:-0.89491 17:-0.961348 18:-0.998889 19:-0.944152 20:-0.211875 21:-0.35971 22:-0.0234572 23:-0.682699 24:-1 
-0.4724786564797794 1:-0.951099 2:-0.900754 3:-0.887135 4:-0.384609 5:-0.738016 6:-0.452881 7:-0.527303 8:-0.358873 9:-0.684123 10:-0.641974 11:-0.715685 12:-0.79085 13:-0.921257 14:-0.625158 15:-0.808102 16:-0.809524 17:-1 18:-1 19:-0.919023 20:-0.377821 21:-0.26985 22:0.0545408 23:-0.34126 24:-1 
-2 1:-0.908941 2:-0.961704 3:-0.9771 4:-0.905955 5:-0.983081 6:-0.396387 7:-0.618206 8:-0.455268 9:-0.947932 10:-0.442897 11:-0.887524 12:-0.531997 13:-0.871502 14:-0.603388 15:-0.887533 16:-0.691261 17:-0.961036 18:-1 19:-0.979423 20:0.363324 21:-0.981384 22:-0.698232 23:-0.939489 24:-1 
-0.3065994128597217 1:-0.769949 2:-0.779729 3:-0.692157 4:-0.48057 5:-0.962976 6:-0.717042 7:-0.935541 8:-0.487818 9:-0.964105 10:-0.817733 11:-0.965538 12:-0.477125 13:-0.813881 14:-0.211373 15:-0.949603 16:-0.87013 17:-0.991735 18:-1 19:-0.800159 20:0.710643 21:-0.863145 22:-0.863505 23:-0.955671 24:-1 
-0.2815704982130695 1:0.483869 2:-0.569201 3:-0.343423 4:-0.478379 5:-0.332368 6:-0.761746 7:-0.773383 8:-0.480276 9:-0.792051 10:-0.671919 11:-0.756217 12:-0.925847 13:-0.898906 14:-0.421675 15:-0.406606 16:-0.393937 17:-0.611344 18:-0.991111 19:-0.531955 20:0.223644 21:0.12761 22:-0.326574 23:-0.284349 24:-0.666668 
-2 1:-0.449643 2:-0.762128 3:-0.994992 4:-0.979025 5:-0.926689 6:-0.693692 7:-0.966614 8:-0.512405 9:-0.973441 10:-0.595415 11:-0.969401 12:-0.98048 13:-0.994439 14:-0.939848 15:-0.98322 16:-0.950032 17:-0.976761 18:-1 19:-1 20:-0.760693 21:-0.546467 22:-0.660765 23:-0.550299 24:-1 
-2 1:-0.696647 2:-0.874596 3:-0.982301 4:-0.807667 5:-0.931365 6:-0.492181 7:-0.976625 8:-0.154573 9:-0.890658 10:-0.589255 11:-0.943762 12:-0.400127 13:-0.992212 14:-0.53395 15:-0.936737 16:-0.510204 17:-0.928066 18:-1 19:-0.903569 20:-0.873156 21:-0.88856 22:-0.556369 23:-0.949874 24:-1 
-0.01923037578159724 1:-0.928043 2:-0.896711 3:-0.971329 4:-0.431352 5:-0.947307 6:-0.697357 7:-0.867054 8:-0.227948 9:-0.940773 10:-0.677777 11:-1 12:-0.911765 13:-1 14:-0.658627 15:-0.952026 16:-0.714286 17:-0.931812 18:-1 19:-0.945931 20:-0.455826 21:-0.382256 22:0.437132 23:-0.802198 24:-1 
-0.3191930700761949 1:-0.272423 2:-0.887966 3:-0.860532 4:-0.283241 5:-0.248791 6:-0.66036 7:-0.450047 8:-0.363885 9:-0.433549 10:-0.47992 11:-0.434026 12:-0.891922 13:-0.839684 14:-0.563413 15:-0.623327 16:-0.490545 17:-0.689574 18:-0.99 19:-0.701246 20:0.332702 21:0.0141268 22:-0.754917 23:-0.688012 24:-0.100003 
-0.3908996030405324 1:-0.658874 2:0.227825 3:-0.377519 4:-0.654048 5:-0.96489 6:-0.634492 7:-0.911369 8:-0.326143 9:-0.684123 10:-0.624073 11:-0.786764 12:-0.803921 13:-0.911414 14:-0.558224 15:-0.712153 16:-0.857143 17:-0.909083 18:-1 19:-0.878439 20:0.0841081 21:0.113458 22:0.24906 23:-0.797104 24:-1 
-0.4013277156442818 1:-0.555446 2:-0.892056 3:-0.674253 4:-0.342799 5:-0.0736359 6:-0.645922 7:-0.936844 8:-0.294603 9:-0.613622 10:-0.437574 11:-0.736819 12:-0.720499 13:-0.640239 14:-0.591082 15:-0.620821 16:-0.771429 17:-0.991902 18:-0.998889 19:-0.894609 20:-0.19041 21:0.674237 22:-0.683051 23:-0.0980427 24:-1 
-0.0844236991604343 1:-0.957493 2:-0.50349 3:-0.270616 4:-0.858266 5:-0.992284 6:-0.753237 7:-0.83751 8:-0.585266 9:-0.812448 10:-0.735956 11:-0.804534 12:-0.968954 13:-0.972932 14:-0.849394 15:-0.980011 16:-0.934524 17:-0.952648 18:-1 19:-0.981883 20:0.325522 21:-0.658944 22:-0.621691 23:-0.996822 24:-1 
-2 1:-0.657904 2:-0.824859 3:-0.806329 4:-0.425762 5:-0.879223 6:-0.729341 7:-0.626817 8:-0.489801 9:-1 10:-0.57037 11:-0.970072 12:-0.661507 13:-0.726473 14:-0.777351 15:-0.828302 16:-0.844611 17:-0.966504 18:-1 19:-0.953106 20:0.674728 21:-0.818018 22:-0.717937 23:-0.959965 24:-1 
-2 1:-0.670202 2:-0.953073 3:-0.802846 4:-0.0338396 5:-0.722606 6:-0.232966 7:-1 8:-0.392659 9:-0.86244 10:-0.210034 11:-0.504742 12:-0.552182 13:-0.805683 14:-0.792715 15:-0.826673 16:-0.382486 17:-0.709653 18:-1 19:-0.907127 20:0.117862 21:-0.494077 22:-0.621479 23:-0.816997 24:-1 
-2 1:-0.451512 2:-0.77099 3:-0.699075 4:-0.892813 5:-0.898496 6:-0.423652 7:-0.93455 8:-0.0224941 9:-0.941684 10:-0.385298 11:-0.973756 12:-0.956561 13:-0.967291 14:-0.757795 15:-0.787436 16:-0.437363 17:-1 18:-1 19:-0.908246 20:0.328537 21:-0.127831 22:0.232235 23:-0.068081 24:-1 
-1.379937065361555 1:-0.736216 2:-0.903863 3:-0.843523 4:-0.523199 5:-0.71192 6:-0.592581 7:-0.822738 8:-0.0970236 9:-0.447213 10:-0.677777 11:-0.857843 12:0.392155 13:-0.763772 14:-0.263705 15:-0.712153 16:-0.809524 17:-0.863625 18:-1 19:-0.754042 20:-0.131258 21:-0.180756 22:0.0335788 23:-0.209233 24:-1 
-0.4147089008728013 1:-0.879164 2:-0.96505 3:-0.945001 4:-0.808955 5:-0.890469 6:-0.687217 7:-0.862765 8:-0.595384 9:-0.89301 10:-0.70896 11:-0.944971 12:-0.901328 13:-0.98857 14:-0.917086 15:-0.975239 16:-0.935484 17:-0.991202 18:-1 19:-0.96655 20:-0.303646 21:-0.456111 22:0.46663 23:-0.338815 24:-1 
-2 1:-0.779735 2:-0.976116 3:-0.907837 4:-0.684462 5:-0.799921 6:-0.782603 7:-0.793968 8:-0.573427 9:-0.905733 10:-0.561372 11:-0.991069 12:-0.981521 13:-0.979593 14:-0.900753 15:-0.903549 16:-0.801047 17:-0.915747 18:-1 19:-0.950276 20:0.707709 21:-0.580453 22:-0.902151 23:-0.860007 24:-1 
-2 1:-0.969316 2:-0.979442 3:-0.966376 4:-0.336795 5:-0.463978 6:-0.378374 7:-0.536139 8:-0.150363 9:-0.550914 10:-0.586281 11:-0.870175 12:-0.0907765 13:-0.809416 14:-0.547811 15:-0.959378 16:-0.474427 17:-0.773464 18:-0.998889 19:-0.782568 20:0.0606116 21:-0.281029 22:-0.653994 23:-0.627494 24:-1 
-0.7920713343784163 1:-0.611239 2:-0.915062 3:-0.921042 4:-0.371797 5:-0.562834 6:-0.673511 7:-0.617543 8:-0.613954 9:-0.72918 10:-0.788888 11:-0.903567 12:-0.707911 13:-0.650536 14:-0.836584 15:-0.863303 16:-0.689655 17:-0.690521 18:-0.997778 19:-0.893772 20:-0.221552 21:0.574848 22:-0.432127 23:-0.575322 24:-2.79398e-06 
-0.4569712681010163 1:-0.163448 2:-0.825536 3:-0.153609 4:-0.305603 5:-0.618603 6:-0.36507 7:-0.544184 8:-0.312116 9:-0.898468 10:-0.723808 11:-0.878151 12:-0.579832 13:-0.569727 14:-0.563962 15:-0.86293 16:-0.693878 17:-0.941553 18:-1 19:-0.923812 20:-0.891818 21:-0.98719 22:0.285146 23:-0.350564 24:-1 
-2 1:-0.938394 2:-0.8371 3:-0.927201 4:-0.650119 5:-0.9356 6:-0.782202 7:-0.830648 8:-0.54217 9:-0.699087 10:-0.725037 11:-0.857217 12:-0.734379 13:-0.793732 14:-0.58589 15:-0.731569 16:-0.70963 17:-0.92742 18:-0.998889 19:-0.904271 20:0.954484 21:-0.985117 22:-0.967568 23:-0.933179 24:-1 
-0.870940181441538 1:-0.97599 2:-0.97006 3:-0.968026 4:-0.834371 5:-0.945398 6:-0.634492 7:-0.911369 8:-0.293412 9:-0.723608 10:-0.462961 11:-0.786764 12:-0.848039 13:-0.963089 14:-0.173342 15:-0.636194 16:0.178571 17:-0.659062 18:-1 19:-0.89035 20:0.4261 21:-0.492097 22:-0.275504 23:-0.0991032 24:-1 
